constexpr int model_input_dims[3] = {60,60,1};
constexpr int sequential_4_output_dims[3] = {60,60,1};
//------------------------------------------------------------------
//------------------------------------------------------------------
//------------------------------------------------------------------
constexpr int rescaling_2_output_dims[3] = {60,60,1};
//------------------------------------------------------------------
//------------------------------------------------------------------
//------------------------------------------------------------------
constexpr int conv2d_weights_dims[4] = {3,3,1,32};
constexpr float conv2d_weights[288] = { 
0.06548692286014557,
0.013440266251564026,
0.21132053434848785,
0.21420718729496002,
-0.11037223041057587,
-0.1069440096616745,
-0.10734736174345016,
0.22405488789081573,
-0.34743258357048035,
0.22379308938980103,
-0.041129808872938156,
0.23981931805610657,
-0.014948301017284393,
-0.12186139076948166,
-0.1466801017522812,
-0.00923871248960495,
0.1978285312652588,
0.1112041249871254,
0.13824409246444702,
0.16765117645263672,
-0.01170332171022892,
-0.033775925636291504,
0.009484631940722466,
-0.10711141675710678,
-0.05400802195072174,
-0.056861937046051025,
-0.13953730463981628,
-0.12114477902650833,
-0.09245486557483673,
0.08756306767463684,
0.05041716247797012,
-0.13099321722984314,
-0.046777643263339996,
-0.12649473547935486,
0.19065064191818237,
0.18253226578235626,
-0.10059817135334015,
-0.1252070963382721,
0.11642578989267349,
0.21274062991142273,
-0.11434230208396912,
0.22148101031780243,
-0.10377032309770584,
0.20326410233974457,
0.2207113653421402,
-0.006212085485458374,
-0.16859093308448792,
0.033633098006248474,
0.09905292093753815,
-0.022678053006529808,
0.1766849160194397,
0.11764310300350189,
0.20718218386173248,
0.11196710914373398,
0.0028125885874032974,
-0.08428558707237244,
0.11037890613079071,
-0.13043884932994843,
-0.04370236396789551,
-0.011585235595703125,
-0.1065203845500946,
0.10472439229488373,
0.14992904663085938,
-0.14181046187877655,
-0.04252718389034271,
-0.0550045445561409,
0.20385487377643585,
0.24244475364685059,
0.06905212998390198,
-0.017933450639247894,
0.1307959407567978,
0.07214995473623276,
-0.12649905681610107,
0.13884885609149933,
0.04548097774386406,
0.12816549837589264,
0.15113092958927155,
-0.03363156318664551,
-0.022658076137304306,
-0.06046617403626442,
0.09066992998123169,
0.12547098100185394,
0.014407905749976635,
-0.1332141011953354,
0.18237987160682678,
0.19327133893966675,
-0.14380207657814026,
0.07958343625068665,
0.13507620990276337,
-0.050925444811582565,
-0.10344332456588745,
0.011045649647712708,
-0.03291108459234238,
-0.013146357610821724,
-0.0161802526563406,
0.03024330735206604,
0.17976409196853638,
0.06923428177833557,
0.17203477025032043,
0.10879959911108017,
-0.12795348465442657,
-0.06385276466608047,
-0.012915321625769138,
0.18871867656707764,
-0.12115141749382019,
0.10766904801130295,
-0.007066122256219387,
0.05976434051990509,
0.11906284838914871,
-0.13163934648036957,
0.07371879369020462,
0.03442476689815521,
0.09005090594291687,
0.021618304774165154,
0.078407421708107,
-0.12662646174430847,
0.06359691917896271,
0.17164364457130432,
0.026114188134670258,
-0.0928659588098526,
-0.14664986729621887,
-0.14438599348068237,
0.05724465847015381,
0.03776012361049652,
0.037180379033088684,
0.0187065452337265,
0.203965425491333,
-0.053372159600257874,
0.12583038210868835,
0.0048341304063797,
0.19444593787193298,
0.28384530544281006,
0.020626544952392578,
-0.01059328019618988,
-0.06853315979242325,
0.10062719136476517,
0.08090394735336304,
0.2513064742088318,
-0.12931524217128754,
0.23989710211753845,
0.1552264243364334,
0.0648421049118042,
-0.07209911942481995,
-0.08181837946176529,
-0.070377878844738,
-0.14848975837230682,
0.03582795336842537,
-0.10546741634607315,
-0.04719964414834976,
0.0077634574845433235,
0.06613180786371231,
-0.010234043002128601,
0.0037322479765862226,
0.05075692757964134,
-0.15155482292175293,
-0.08044709265232086,
0.05367979407310486,
0.04648922011256218,
0.21957026422023773,
0.047182291746139526,
0.14329224824905396,
0.08435976505279541,
0.08173706382513046,
0.07470304518938065,
0.06076037883758545,
-0.12992878258228302,
-0.11395915597677231,
0.32208630442619324,
0.2673409581184387,
0.28823044896125793,
0.0887623131275177,
0.21951568126678467,
0.19732733070850372,
0.006457135081291199,
-0.08432736992835999,
-0.06338927894830704,
-0.07048995047807693,
-0.1454223394393921,
-0.007984485477209091,
-0.2396663874387741,
0.03815294802188873,
0.23307421803474426,
-0.03163259103894234,
-0.026039883494377136,
-0.10665278136730194,
0.06183576211333275,
-0.03839300572872162,
0.03590686619281769,
0.09250156581401825,
-0.13461945950984955,
-0.004606653470546007,
-0.13185416162014008,
0.06325031071901321,
-0.12806734442710876,
0.15503273904323578,
0.33806976675987244,
0.04317958652973175,
-0.12364010512828827,
-0.013061556965112686,
0.30684077739715576,
-0.012483296915888786,
0.2737225890159607,
0.0363299585878849,
0.022192155942320824,
0.1922469437122345,
0.08914004266262054,
0.17267929017543793,
-0.00404128385707736,
-0.09417052567005157,
-0.0356159545481205,
-0.16975516080856323,
0.057178083807229996,
-0.28586244583129883,
0.2728607654571533,
-0.0017199801513925195,
-0.007202178239822388,
-0.09446614235639572,
-0.15122762322425842,
0.1030595600605011,
0.12503020465373993,
0.10773606598377228,
-0.13316886126995087,
0.1434354931116104,
0.0003389418125152588,
-0.1383003443479538,
-0.08374538272619247,
0.12111528217792511,
0.35050123929977417,
-0.1308583766222,
-0.1265530288219452,
0.04284016415476799,
0.11512304097414017,
0.06633295118808746,
0.13698247075080872,
-0.05583720654249191,
0.10692916810512543,
0.17153900861740112,
-0.03909864276647568,
0.250012069940567,
-0.028508063405752182,
-0.1863917112350464,
-0.07287732511758804,
-0.20249426364898682,
0.08717947453260422,
-0.26899126172065735,
0.006841578986495733,
0.009746283292770386,
-0.05823804438114166,
-0.13150227069854736,
0.08814655989408493,
-0.08962050080299377,
-0.13465315103530884,
-0.10758543014526367,
-0.03431061655282974,
0.018698766827583313,
0.13811399042606354,
-0.2003607153892517,
-0.04655768722295761,
0.12725989520549774,
0.24652345478534698,
-0.015562891960144043,
0.07232542335987091,
-0.1430148035287857,
0.28641119599342346,
0.28037479519844055,
0.277194082736969,
-0.08177462965250015,
0.15261031687259674,
0.1972825974225998,
0.05394445359706879,
0.24143722653388977,
0.1044664978981018,
-0.1398008167743683,
0.011534133926033974,
-0.22336959838867188,
-0.07766301184892654,
-0.0783829316496849,
0.21320049464702606,
-0.06653791666030884,
-0.03434756398200989,
0.08570611476898193,
0.061285600066185,
0.1026679277420044,
-0.06589149683713913,
-0.12017743289470673,
-0.14704252779483795,
0.19348059594631195,
-0.011912316083908081
};
constexpr int conv2d_bias_dims[1] = {32};
constexpr float conv2d_bias[32] = { 
-0.02459028549492359,
0.0,
-0.09654112160205841,
-0.07692316174507141,
0.0,
0.0,
-0.0019032405689358711,
-0.09241887181997299,
0.03140832856297493,
-0.16201180219650269,
-0.017736440524458885,
-0.07640645653009415,
-0.11493188887834549,
0.0,
-0.09971615672111511,
-0.0038249564822763205,
0.053020987659692764,
-0.012207753024995327,
0.0904938206076622,
0.14372842013835907,
0.10796692222356796,
-0.11440448462963104,
-0.0062227570451796055,
0.0,
0.02186248078942299,
-0.02476697415113449,
-0.01691216416656971,
0.0,
0.0,
-0.01153465174138546,
-0.08965157717466354,
0.0
};
constexpr int conv2d_output_dims[3] = {58,58,32};
constexpr int conv2d_strides[2] = {1,1};
constexpr bool conv2d_padding = 0; //0=valid 1=same
//------------------------------------------------------------------
//------------------------------------------------------------------
//------------------------------------------------------------------
constexpr int max_pooling2d_output_dims[3] = {29,29,32};
constexpr int max_pooling2d_strides[2] = {2,2};
constexpr bool max_pooling2d_padding = 0; //0=valid 1=same
//------------------------------------------------------------------
//------------------------------------------------------------------
//------------------------------------------------------------------
constexpr int conv2d_1_weights_dims[4] = {3,3,32,32};
constexpr float conv2d_1_weights[9216] = { 
-0.08389942348003387,
-0.1435394138097763,
0.010842874646186829,
-0.016549602150917053,
0.04954828694462776,
-0.006602280307561159,
-0.022042328491806984,
-0.06558997184038162,
0.3003295063972473,
-0.09013358503580093,
-0.08196418732404709,
-0.08603768050670624,
0.09305409342050552,
-0.15240779519081116,
0.08551245927810669,
-0.0465380884706974,
0.07607485353946686,
0.07877691835165024,
-0.09406968951225281,
0.016909079626202583,
0.08222610503435135,
0.04042948782444,
0.03177648410201073,
-0.08757410943508148,
-0.08772802352905273,
-0.0021531954407691956,
-0.07124573737382889,
-0.012933672405779362,
-0.05702923983335495,
-0.09541891515254974,
0.09025516360998154,
-0.0638880729675293,
-0.021853692829608917,
-0.06692098081111908,
0.08613687753677368,
0.005541004240512848,
0.027522563934326172,
0.08656555414199829,
-0.05800801143050194,
-0.024285145103931427,
0.09790407121181488,
0.016356125473976135,
0.0796012133359909,
0.05515006184577942,
-0.06411679089069366,
-0.057540103793144226,
0.03389158844947815,
-0.09160765260457993,
0.09926511347293854,
-0.07472242414951324,
0.09806539118289948,
-0.0841420367360115,
-0.05391538515686989,
-0.00321178138256073,
-0.08090505003929138,
0.003638342022895813,
0.011702634394168854,
-0.043212346732616425,
0.025759249925613403,
0.04342229664325714,
0.07985031604766846,
0.0759105533361435,
-0.07646438479423523,
0.08365052938461304,
0.03288576751947403,
-0.2228984236717224,
-0.060757335275411606,
-0.08861519396305084,
-0.05395270884037018,
-0.07207641005516052,
0.10350299626588821,
0.08190605789422989,
0.023960160091519356,
0.0187887754291296,
0.0989203155040741,
-0.083047054708004,
0.08527525514364243,
0.034558579325675964,
0.07861514389514923,
-0.04314842075109482,
-0.00476385373622179,
-0.015714118257164955,
-0.08519482612609863,
-0.07892207056283951,
-0.07816437631845474,
0.09774044156074524,
-0.10143149644136429,
-0.028631985187530518,
-0.0248123649507761,
0.053280383348464966,
-0.09178086370229721,
0.06762886792421341,
0.06720197200775146,
0.00241741887293756,
-0.08325041085481644,
0.0915805995464325,
0.05978653207421303,
-0.23921848833560944,
-0.0337262786924839,
0.08195962011814117,
0.005516859702765942,
0.034981369972229004,
0.08513098955154419,
-0.002333221957087517,
0.059744324535131454,
-0.07373034209012985,
0.12060298770666122,
-0.02673323266208172,
0.06860806047916412,
0.13190454244613647,
-0.0771971121430397,
-0.06136675551533699,
0.032717883586883545,
-0.03582315146923065,
0.013036571443080902,
0.04129599779844284,
-0.000411222834372893,
0.06811387836933136,
-0.005944616626948118,
0.09169735014438629,
-0.05261131748557091,
0.03462374210357666,
0.014522450976073742,
0.03928364813327789,
-0.06702002137899399,
-0.08202581107616425,
-0.030069399625062943,
0.06485606729984283,
-0.06992548704147339,
-0.09122549742460251,
0.054494500160217285,
-0.02366330474615097,
0.09962356090545654,
0.026931092143058777,
-0.08763813227415085,
0.041696399450302124,
-0.06355561316013336,
-0.007839791476726532,
-0.02881387621164322,
-0.011120989918708801,
0.011589191854000092,
0.03250555694103241,
0.03382307291030884,
0.0647226870059967,
-0.00397772341966629,
-0.045050814747810364,
0.08973073959350586,
0.01943095028400421,
-0.08944856375455856,
0.08889740705490112,
-0.0007330700755119324,
-0.03811192512512207,
0.09731879830360413,
-0.06310709565877914,
0.08733884990215302,
0.02272128313779831,
-0.08460724353790283,
-0.09767686575651169,
0.024130329489707947,
-0.05637277662754059,
0.05366334319114685,
-0.011328384280204773,
0.02611023187637329,
-0.09830877929925919,
-0.03980302810668945,
0.03923444449901581,
0.01818113774061203,
-0.025145016610622406,
0.09032036364078522,
-0.046554211527109146,
-0.025852784514427185,
0.08125947415828705,
-0.08501950651407242,
-0.061760064214468,
-0.03541143983602524,
0.04606087505817413,
0.05685664713382721,
0.07491280138492584,
-0.10103143006563187,
-0.08867305517196655,
0.0917275995016098,
-0.058713171631097794,
-0.08059056103229523,
-0.04012790322303772,
0.057316556572914124,
0.028291046619415283,
-0.024652406573295593,
0.079195037484169,
-0.08060494810342789,
-0.06398005783557892,
0.006364695727825165,
-0.03499478101730347,
0.013158336281776428,
-0.05049066245555878,
0.015915416181087494,
0.04981550574302673,
-0.01319839060306549,
-0.03148605674505234,
-0.025863254442811012,
-0.03712281584739685,
0.04912726581096649,
0.00607522577047348,
0.03598909452557564,
0.10109323263168335,
0.03216620907187462,
-0.05882216617465019,
-0.07831582427024841,
-0.06899436563253403,
0.059650570154190063,
-0.07623784244060516,
-0.09922700375318527,
0.012936562299728394,
0.027033984661102295,
-0.00470174103975296,
-0.02755897492170334,
0.030170202255249023,
0.007671624422073364,
0.06556062400341034,
-0.04247036948800087,
-0.08926265686750412,
0.08357550203800201,
0.015956640243530273,
0.016944922506809235,
-0.09112726151943207,
0.07945119589567184,
-0.23619261384010315,
0.015824753791093826,
-0.003229565918445587,
0.04630342870950699,
0.019289785996079445,
0.078972227871418,
0.03550655394792557,
-0.02057242952287197,
-0.09723085910081863,
-0.008123472332954407,
-0.0960884690284729,
-0.004852094687521458,
0.10503159463405609,
-0.07744263857603073,
-0.03039783425629139,
0.09038187563419342,
-0.012970814481377602,
-0.08931779861450195,
-0.014834403060376644,
-0.010961005464196205,
0.09128803014755249,
0.029919026419520378,
0.05476564168930054,
0.06252225488424301,
0.06393566727638245,
0.07385552674531937,
-0.031305525451898575,
0.0870497077703476,
-0.0175341684371233,
-0.09714414924383163,
-0.07243634015321732,
0.46772509813308716,
0.2252650260925293,
0.06476485729217529,
-0.05269807577133179,
0.0506814569234848,
0.09693454951047897,
0.08303704857826233,
-0.0009284639963880181,
-0.6924057602882385,
0.023414485156536102,
0.07552220672369003,
-0.006936295889317989,
-0.4020932912826538,
-0.5627667307853699,
-0.07536321878433228,
0.07446324825286865,
-0.011993573047220707,
0.036601338535547256,
0.07976432144641876,
0.03073985129594803,
0.02619486302137375,
0.08925268054008484,
0.2181786149740219,
-0.09090860188007355,
-0.06694814562797546,
0.07712563872337341,
-0.08195707947015762,
0.12011189758777618,
0.07832153141498566,
0.025594929233193398,
-0.02379610762000084,
0.04047664999961853,
-0.09802308678627014,
-0.11875028163194656,
-0.037109050899744034,
0.018783390522003174,
-0.010397270321846008,
-0.0893770083785057,
0.031622786074876785,
-0.08569765836000443,
-0.03816356882452965,
0.06479450315237045,
0.14083819091320038,
-0.01173990499228239,
0.09924853593111038,
-0.004625240340828896,
0.04511269927024841,
0.06216119974851608,
0.10610432177782059,
-0.0047489651478827,
-0.010716669261455536,
-0.025855548679828644,
0.01341340783983469,
-0.07981247454881668,
-0.0357915498316288,
0.018034160137176514,
-0.004434098023921251,
0.07827818393707275,
-0.1084379032254219,
0.0481264628469944,
-0.03225693479180336,
-0.09769921004772186,
-0.09749524295330048,
-0.08586171269416809,
-0.10197223722934723,
0.037605494260787964,
0.0395912230014801,
-0.08410857617855072,
0.04811364412307739,
-0.049846336245536804,
-0.09942082315683365,
-0.0501617006957531,
-0.018053604289889336,
-0.06089814752340317,
-0.08127009868621826,
-0.0517212338745594,
-0.08378869295120239,
-0.06902998685836792,
0.07467149198055267,
0.04094551503658295,
0.08901837468147278,
-0.0890779197216034,
0.04118075966835022,
-0.027628399431705475,
-0.06850022077560425,
-0.02976122498512268,
0.0499354749917984,
0.035677552223205566,
0.06844504177570343,
-0.018310517072677612,
-0.02250741422176361,
-0.015130691230297089,
-0.05793372169137001,
0.0991436094045639,
-0.07851520925760269,
0.06052659451961517,
-0.13950854539871216,
-0.04728522151708603,
-0.05093859136104584,
-0.09414169192314148,
0.06755381077528,
-0.055748388171195984,
-0.008919178508222103,
-0.06530801951885223,
0.12015664577484131,
-0.006434127222746611,
-0.035070598125457764,
-0.012869968079030514,
0.10989037156105042,
0.07505462318658829,
-0.061446502804756165,
0.07604508846998215,
0.11011749505996704,
-0.09034731984138489,
-0.1008119210600853,
0.028954077512025833,
0.07680649310350418,
0.0756852924823761,
-0.020146433264017105,
0.053162842988967896,
-0.09811638295650482,
-0.006435282528400421,
0.049372367560863495,
0.10791550576686859,
0.08022361248731613,
-0.09746120125055313,
0.02209257148206234,
-0.0329209566116333,
0.0009348341263830662,
-0.08166614174842834,
-0.08249401301145554,
-0.07800327986478806,
-0.046811625361442566,
0.06319420039653778,
-0.013209644705057144,
0.06487462669610977,
0.09411393105983734,
-0.03123694472014904,
0.09209129959344864,
0.09623494744300842,
0.1719953715801239,
0.08542735129594803,
0.061944007873535156,
0.08728979527950287,
0.02844473347067833,
0.009474717080593109,
-0.013190090656280518,
0.019667113199830055,
-0.09062086045742035,
0.06314840912818909,
0.0420752689242363,
0.011224091053009033,
-0.10613294690847397,
-0.062498271465301514,
0.005244868341833353,
0.02758040279150009,
0.032428279519081116,
-0.033331483602523804,
-0.02698526158928871,
0.09008049964904785,
-0.008505746722221375,
-0.06537023186683655,
0.020224325358867645,
-0.09601975232362747,
0.0840192586183548,
0.057832926511764526,
-0.08766910433769226,
0.02902686595916748,
-0.0950903370976448,
0.08913788199424744,
0.036676958203315735,
-0.036200426518917084,
0.08697336912155151,
-0.09378048777580261,
0.09619159996509552,
0.034414589405059814,
-0.0065881237387657166,
-0.06342150270938873,
-0.08633981645107269,
-0.022629685699939728,
-0.04086603596806526,
-0.030534274876117706,
-0.09073463827371597,
0.09199643135070801,
0.04117207229137421,
-0.007972866296768188,
0.07517845928668976,
0.03841112554073334,
-0.025066055357456207,
0.09448528289794922,
0.07382035255432129,
-0.07018831372261047,
0.418099045753479,
-0.09856594353914261,
-0.06409195810556412,
0.09575103223323822,
0.0019940726924687624,
-0.09011650085449219,
0.09970325231552124,
-0.036055728793144226,
-0.12688006460666656,
-0.029630431905388832,
0.06523961573839188,
-0.006148426327854395,
0.0590096153318882,
-0.22285057604312897,
0.013116724789142609,
0.09266461431980133,
-0.1074075996875763,
0.003299477742984891,
-0.0016228482127189636,
0.05753146484494209,
0.06203695014119148,
0.10168823599815369,
0.20916059613227844,
-0.016309745609760284,
0.07434453070163727,
0.0018593445420265198,
0.0017728941747918725,
-0.04158305376768112,
0.0059855300933122635,
0.09310165792703629,
-0.09373100101947784,
-0.023951753973960876,
0.005117088556289673,
0.005919273477047682,
0.06071649491786957,
0.027441218495368958,
-0.08782359957695007,
0.09339837729930878,
-0.029670564457774162,
-0.09137091040611267,
0.03522560000419617,
0.047105953097343445,
0.08822104334831238,
0.041963279247283936,
0.02573762834072113,
0.002942211925983429,
-0.07376664876937866,
0.06242138147354126,
-0.05822126939892769,
-0.04146150127053261,
-0.07749157398939133,
0.03483128547668457,
-0.032512784004211426,
0.053367242217063904,
0.015608452260494232,
0.03411337733268738,
-0.045617394149303436,
-0.032335564494132996,
-0.051954373717308044,
0.019903242588043213,
-0.08450132608413696,
0.025541603565216064,
-0.012868329882621765,
-0.015162758529186249,
-0.41345155239105225,
0.3952268064022064,
-0.08681488782167435,
0.05672864615917206,
-0.10114036500453949,
-0.028563279658555984,
0.046939048916101456,
0.04893770441412926,
0.3768538236618042,
0.053843945264816284,
-0.0415249727666378,
-0.08772977441549301,
-0.141745463013649,
-0.3112935423851013,
-0.012050554156303406,
0.012722639366984367,
-0.13229981064796448,
0.036787115037441254,
0.021256625652313232,
0.08568941801786423,
0.09251029789447784,
-0.033189527690410614,
-0.11659567803144455,
-0.03565910458564758,
-0.03146267309784889,
0.01636047661304474,
0.06961508095264435,
0.14753614366054535,
0.02490142732858658,
0.012613226659595966,
-0.063369981944561,
-0.07931770384311676,
-0.028882043436169624,
0.08491715043783188,
-0.06067143380641937,
-0.08807652443647385,
0.08452458679676056,
-0.07281418889760971,
0.002662949962541461,
0.0224408358335495,
-0.089129239320755,
0.05253282189369202,
0.059163421392440796,
0.020069777965545654,
0.06648324429988861,
-0.036317214369773865,
0.08998019993305206,
-0.06219533458352089,
-0.05400735139846802,
0.07689039409160614,
0.04141855239868164,
-0.10025870054960251,
0.03692960739135742,
-0.059170834720134735,
0.08188405632972717,
0.08595819771289825,
-0.053568389266729355,
-0.10131143778562546,
-0.026812545955181122,
-0.08209158480167389,
-0.02055032178759575,
-0.005580317694693804,
0.000966208113823086,
0.0855177789926529,
-0.443206787109375,
0.3373802602291107,
0.038041770458221436,
0.008622892200946808,
0.046762969344854355,
0.013253816403448582,
0.13241836428642273,
0.038721926510334015,
0.3877963125705719,
-0.02983887307345867,
-0.3053830564022064,
0.0652003064751625,
-0.23036682605743408,
-0.5452982783317566,
-0.08650095015764236,
-0.022531632333993912,
-0.11281900107860565,
0.04308824613690376,
0.0751338005065918,
-0.0284859798848629,
0.09708693623542786,
0.08265450596809387,
-0.21225516498088837,
-0.0801192969083786,
-0.03284252807497978,
-0.020797595381736755,
-0.09533081203699112,
0.049917858093976974,
0.0766490027308464,
0.014542768709361553,
-0.08375208079814911,
-0.09337323904037476,
0.3484066128730774,
0.33626675605773926,
-0.05013656988739967,
-0.022025778889656067,
0.09161164611577988,
-0.05384574830532074,
-0.0011506900191307068,
-0.05658986419439316,
0.10888253152370453,
-0.004792943596839905,
-0.31860071420669556,
-0.05355580523610115,
-0.2093966007232666,
-0.7650731801986694,
0.009982571005821228,
-0.02763298526406288,
-0.21390663087368011,
0.06675704568624496,
0.08737912774085999,
0.07048342376947403,
-0.03402888402342796,
-0.013168580830097198,
-0.16709910333156586,
0.08694002032279968,
-0.034582071006298065,
0.09010720252990723,
-0.012167971581220627,
-0.08672618120908737,
-0.0157476756721735,
0.006304037757217884,
-0.03370558097958565,
0.066200390458107,
-0.46581509709358215,
0.17442573606967926,
0.04362146928906441,
-0.012278877198696136,
-0.09132948517799377,
0.007085517514497042,
0.3710816204547882,
-0.06879927217960358,
0.13886283338069916,
0.008609709329903126,
-0.32337096333503723,
-0.08302352577447891,
-0.3596443235874176,
-0.6636769771575928,
-0.010723382234573364,
-0.09916254132986069,
0.1825651228427887,
-0.020764419808983803,
-0.06352989375591278,
0.01685934141278267,
0.043813809752464294,
0.0702410489320755,
-0.3520646095275879,
0.006421364843845367,
0.06625746935606003,
-0.09356445074081421,
0.06362548470497131,
0.2530423104763031,
-0.018855087459087372,
-0.042942360043525696,
0.09276875108480453,
0.06369577348232269,
-0.11545120179653168,
-0.24450911581516266,
-0.11173776537179947,
0.0963517278432846,
-0.022524015977978706,
0.0015780986286699772,
0.0009699991787783802,
0.04559178650379181,
0.09088141471147537,
0.07988717406988144,
0.12750545144081116,
-0.0330718457698822,
0.024968944489955902,
0.1351708322763443,
0.04986859858036041,
0.03668922558426857,
-0.024988820776343346,
-0.0518316850066185,
0.015138208866119385,
-0.05542053282260895,
-0.033728957176208496,
0.004122801125049591,
-0.01351756788790226,
0.006515100598335266,
-0.032779760658741,
-0.06771676242351532,
-0.09837768226861954,
-0.08963466435670853,
-0.09468814730644226,
0.05649197846651077,
0.049321334809064865,
-0.09282155334949493,
-0.08888527005910873,
-0.025145046412944794,
0.053641900420188904,
0.04698386788368225,
0.060955848544836044,
-0.05247148498892784,
0.004853835329413414,
-0.008407585322856903,
0.01933937706053257,
-0.08461466431617737,
-0.057716839015483856,
0.010723844170570374,
0.0033442392013967037,
0.09096342325210571,
-0.01591641455888748,
-0.006165015045553446,
-0.046190351247787476,
-0.06340062618255615,
0.0323738157749176,
-0.09877150505781174,
-0.045701369643211365,
0.06108929216861725,
0.04783749580383301,
0.002127133309841156,
0.024370864033699036,
0.08629509806632996,
-0.08739574253559113,
-0.05271444097161293,
-0.047411561012268066,
0.0008969604969024658,
0.08946767449378967,
0.01121482253074646,
0.09811489284038544,
-0.0445115827023983,
0.0018683746457099915,
0.028582558035850525,
0.05571362376213074,
-0.08976568281650543,
-0.07871238887310028,
-0.03160426765680313,
0.05057884752750397,
-0.07649443298578262,
-0.009471617639064789,
-0.09077661484479904,
-0.09461916238069534,
0.03608304262161255,
-0.012310169637203217,
-0.02562256157398224,
-0.05092708393931389,
0.06934204697608948,
-0.05133885517716408,
-0.017442956566810608,
-0.03606542944908142,
-0.047236401587724686,
-0.10089095681905746,
-0.03565321862697601,
-0.009979799389839172,
-0.07156101614236832,
-0.021000169217586517,
-0.09476825594902039,
-0.0014647766947746277,
-0.09273044764995575,
-0.09450440853834152,
0.007144823670387268,
-0.20290154218673706,
0.0542386993765831,
-0.07893437147140503,
0.038583800196647644,
-0.059569355100393295,
0.09937433153390884,
-0.05059527978301048,
-0.05742064118385315,
0.010467546060681343,
-0.07496476173400879,
-0.0660303458571434,
-0.06539375334978104,
-0.08931497484445572,
-0.03576350957155228,
-0.01429208368062973,
-0.006014036480337381,
0.0415949709713459,
-0.07862062752246857,
-0.03490656614303589,
0.04366639256477356,
0.015445634722709656,
-0.01244942843914032,
0.03657139837741852,
0.09983374178409576,
-0.09429923444986343,
0.05030164122581482,
-0.022603338584303856,
0.0840960368514061,
0.06424558162689209,
0.08199965953826904,
0.06436111032962799,
0.023902058601379395,
0.0383547767996788,
0.03380850702524185,
-0.048080846667289734,
-0.061232246458530426,
0.056837037205696106,
-0.004635333549231291,
-0.09491076320409775,
0.02483016438782215,
-0.004902554675936699,
0.013682045042514801,
-0.02441910095512867,
0.01416737586259842,
-0.06670255213975906,
-0.06226838752627373,
-0.02704682946205139,
-0.0172544177621603,
0.061550039798021317,
-0.05419731140136719,
0.05213746428489685,
-0.07857018709182739,
0.042236533015966415,
-0.0019109100103378296,
0.05019978806376457,
-0.07840298116207123,
-0.038250718265771866,
-0.08365722000598907,
-0.06356722861528397,
-0.09097862988710403,
0.07446066290140152,
0.054166030138731,
-0.07146457582712173,
-0.046851396560668945,
0.03650835156440735,
-0.03811289742588997,
-0.02046145498752594,
-0.08946990966796875,
-0.0700097531080246,
0.005540251731872559,
0.0103975310921669,
0.05439920723438263,
0.04097229242324829,
-0.08566096425056458,
0.059933215379714966,
-0.08384300768375397,
-0.07535702735185623,
0.0049219089560210705,
0.02470088005065918,
0.06993764638900757,
0.0339302122592926,
-0.08482955396175385,
0.056604281067848206,
0.07778370380401611,
-0.07091182470321655,
-0.08582895994186401,
0.03477897122502327,
-0.005193330347537994,
-0.007915295660495758,
0.08649148046970367,
-0.1015930026769638,
-0.03402543067932129,
-0.02936079353094101,
-0.07230350375175476,
-0.08225828409194946,
0.013927444815635681,
-0.0604991540312767,
0.0387125164270401,
0.02021799236536026,
-0.013136997818946838,
-0.04686611890792847,
0.021947473287582397,
0.009326905012130737,
-0.08651462942361832,
-0.025549881160259247,
-0.022702954709529877,
0.00012234598398208618,
-0.07107426971197128,
-0.0010342970490455627,
0.022119559347629547,
-0.07376733422279358,
-0.03374873101711273,
-0.016618147492408752,
0.0643555223941803,
-0.09741292148828506,
-0.08709877729415894,
0.03795553743839264,
-0.025773942470550537,
0.014143183827400208,
0.0020379796624183655,
0.07492852210998535,
0.06702230870723724,
0.03191593289375305,
-0.035183630883693695,
-0.047029126435518265,
0.09434385597705841,
0.008987553417682648,
-0.038785599172115326,
-0.013097651302814484,
-0.052267301827669144,
0.02638162672519684,
-0.01846863329410553,
0.059737712144851685,
-0.014155618846416473,
-0.09518944472074509,
0.07813610136508942,
0.020912714302539825,
0.007448628544807434,
-0.021590791642665863,
0.031689003109931946,
-0.08900830149650574,
-0.07120603322982788,
-0.03853496164083481,
-0.03941276669502258,
-0.008279815316200256,
0.02707117795944214,
-0.09842514246702194,
-0.10195649415254593,
-0.07115009427070618,
0.07560823857784271,
0.001533009111881256,
-0.08477840572595596,
-0.06085702404379845,
0.04101733863353729,
-0.05260787159204483,
-0.09656163305044174,
-0.0363021194934845,
-0.07651843130588531,
-0.05829400196671486,
-0.08954621851444244,
0.06397144496440887,
0.07262466847896576,
-0.08706823736429214,
0.0008720606565475464,
0.06122733652591705,
0.10090647637844086,
0.09341200441122055,
-0.02672024816274643,
-0.005852474831044674,
0.02781955897808075,
0.046381689608097076,
-0.1000402569770813,
0.01605021208524704,
0.041143372654914856,
-0.00044681131839752197,
0.008592084050178528,
0.09333723038434982,
0.04671727120876312,
0.002949751913547516,
-0.0967974066734314,
-0.06548384577035904,
-0.032612964510917664,
-0.0755985751748085,
0.09540843963623047,
-0.10084094852209091,
0.07966914772987366,
0.0636177510023117,
-0.0353408120572567,
0.044701434671878815,
-0.10179509222507477,
0.06415009498596191,
0.01320367306470871,
0.05381043627858162,
-0.18126337230205536,
0.06516474485397339,
-0.05869986116886139,
-0.0880100354552269,
0.01278627198189497,
-0.06199786812067032,
0.016034292057156563,
0.08091846108436584,
-0.07548122107982635,
0.15721426904201508,
0.053610820323228836,
0.15806014835834503,
0.054625969380140305,
-0.04529852792620659,
0.008392494171857834,
-0.03646237403154373,
0.00268716923892498,
0.09207150340080261,
0.019894171506166458,
-0.06571218371391296,
0.03194515407085419,
0.07460863143205643,
0.047742873430252075,
-0.06494364887475967,
0.027752980589866638,
0.01922975853085518,
-0.07416855543851852,
0.02899404987692833,
-0.09870079159736633,
0.07148890197277069,
0.08139583468437195,
-0.07690773904323578,
-0.051865335553884506,
0.015082873404026031,
0.0160360187292099,
-0.09114010632038116,
0.054292842745780945,
-0.007556132972240448,
0.022209130227565765,
0.027911081910133362,
0.0005541965365409851,
-0.0634528249502182,
-0.0425942987203598,
-0.09495275467634201,
0.010289251804351807,
0.01763584464788437,
-0.027846984565258026,
0.03135782480239868,
-0.018939077854156494,
0.06960837543010712,
-0.03155221790075302,
-0.04312491416931152,
0.059872835874557495,
-0.075449138879776,
-0.009504713118076324,
-0.05354386195540428,
-0.05698182061314583,
0.0815175324678421,
0.075079545378685,
-0.09942653775215149,
0.012127183377742767,
-0.00830540806055069,
-0.03593256324529648,
-0.011569369584321976,
-0.2952686846256256,
0.04755893722176552,
0.07549698650836945,
0.008758609183132648,
0.04543840140104294,
-0.04880340024828911,
-0.08637089282274246,
0.13161496818065643,
-0.015065005980432034,
0.08851593732833862,
-0.07178950309753418,
0.08655115962028503,
-0.1233873963356018,
0.03730219602584839,
-0.06721960008144379,
0.06856043636798859,
-0.07730825245380402,
-0.09942622482776642,
-0.1069105714559555,
0.009662723168730736,
-0.09660280495882034,
0.058757234364748,
-0.012497127056121826,
0.020781373605132103,
0.08466239273548126,
-0.06198418512940407,
-0.04525749012827873,
-0.09339635074138641,
0.09625516086816788,
-0.09417062252759933,
0.07792925834655762,
-0.045805737376213074,
-0.03965410590171814,
0.014103963971138,
-0.08916899561882019,
-0.10102174431085587,
0.01686464250087738,
-0.05873125046491623,
-0.037116244435310364,
-0.09842397272586823,
0.04130479693412781,
-0.030228115618228912,
-0.036236248910427094,
0.0699179470539093,
-0.02520062029361725,
0.09982509911060333,
0.07970862090587616,
-0.04967288672924042,
0.08079588413238525,
0.08391371369361877,
-0.012455321848392487,
-0.011880636215209961,
-0.0932934507727623,
0.057769715785980225,
0.01979493349790573,
-0.08445703983306885,
-0.0863855630159378,
0.0060008615255355835,
-0.10171765834093094,
-0.058358777314424515,
0.06337782740592957,
-0.04541768878698349,
0.023322120308876038,
-0.1544126719236374,
-0.11732318252325058,
0.07659568637609482,
0.04617772996425629,
0.01670519821345806,
0.005824766121804714,
0.14340008795261383,
0.08382244408130646,
0.022135162726044655,
0.029717303812503815,
0.03548664227128029,
-0.04010436683893204,
0.024028658866882324,
0.015200966037809849,
-0.053324081003665924,
0.078868567943573,
-0.019539866596460342,
0.05588081479072571,
-0.06394757330417633,
0.08060206472873688,
-0.06392590701580048,
0.005535311996936798,
0.009168941527605057,
-0.006732054054737091,
-0.11246845126152039,
-0.050287406891584396,
0.04317755252122879,
0.04658961668610573,
0.07407355308532715,
0.03225653991103172,
0.0740305706858635,
0.045437514781951904,
-0.06050189957022667,
0.01628582552075386,
0.023183483630418777,
-0.035199955105781555,
0.09437990933656693,
-0.013043809682130814,
0.04458306357264519,
-0.061010658740997314,
-0.11002206802368164,
-0.00993434153497219,
0.04978489875793457,
-0.07373620569705963,
0.04238354414701462,
-0.026746101677417755,
-0.0924144983291626,
-0.06992124766111374,
0.03046228550374508,
-0.08223409205675125,
-0.06659148633480072,
0.021335378289222717,
-0.0010158976074308157,
0.013047963380813599,
0.11731300503015518,
0.044435158371925354,
-0.048721738159656525,
-0.0633603036403656,
0.07610762864351273,
0.04030511528253555,
0.0005286017549224198,
-0.086647167801857,
0.012098763138055801,
-0.0308438241481781,
0.04632993042469025,
0.053385332226753235,
0.07930551469326019,
0.045799314975738525,
0.039063721895217896,
0.022770188748836517,
-0.023378431797027588,
0.01827997714281082,
0.044622763991355896,
0.09776745736598969,
0.039786964654922485,
0.09318582713603973,
-0.005953893065452576,
-0.06928782165050507,
0.014564938843250275,
0.05192123353481293,
0.03171031177043915,
-0.011072419583797455,
0.055995941162109375,
0.09316906332969666,
0.046629905700683594,
0.08216357231140137,
0.0410807728767395,
-0.10147116333246231,
-0.06132853403687477,
-0.07157853245735168,
-0.06684090197086334,
-0.0411059632897377,
0.0014628097414970398,
-0.04527572914958,
-0.04988901689648628,
0.05404062569141388,
-0.024012021720409393,
0.0065535977482795715,
-0.08678720891475677,
0.07269607484340668,
0.08571052551269531,
-0.05983567610383034,
0.09141026437282562,
0.056521326303482056,
0.08499030768871307,
-0.025615356862545013,
-0.014733739197254181,
0.0073026493191719055,
-0.03984052687883377,
0.027008667588233948,
-0.04970388859510422,
0.08930933475494385,
-0.06081945449113846,
0.09989818930625916,
-0.013354882597923279,
-0.027707435190677643,
-0.03281162679195404,
-0.07368972897529602,
-0.05593540519475937,
0.039390966296195984,
0.09408402442932129,
0.02321706712245941,
0.07538251578807831,
-0.022572286427021027,
0.05791133642196655,
0.09728117287158966,
0.07356154918670654,
-0.07672927528619766,
0.0659717321395874,
-0.055010732263326645,
0.059086427092552185,
-0.07054570317268372,
0.07537959516048431,
0.0009216070175170898,
-0.07905131578445435,
0.05753195285797119,
0.0976225733757019,
-0.05264446884393692,
0.06459270417690277,
-0.00521107017993927,
0.011450998485088348,
-0.04146731644868851,
-0.023680895566940308,
0.04719941318035126,
-0.0512116402387619,
0.06408457458019257,
0.009413555264472961,
-0.03835924714803696,
-0.059030529111623764,
-0.08917048573493958,
-0.09494361281394958,
-0.04135740175843239,
-0.07522279024124146,
-0.08788024634122849,
-0.0978720635175705,
0.08596590161323547,
-0.0980440303683281,
0.07107016444206238,
0.10058958828449249,
-0.07438087463378906,
-0.15149948000907898,
-0.01081293448805809,
0.01611955650150776,
0.003119528293609619,
0.04253091663122177,
0.048187170177698135,
0.15176989138126373,
-0.030522432178258896,
-0.04427039250731468,
0.027627408504486084,
0.05479642003774643,
-0.06755630671977997,
0.007694403175264597,
0.048264745622873306,
-0.051235511898994446,
-0.08619187772274017,
0.05349105969071388,
0.08942119777202606,
-0.01768164336681366,
-0.06511417776346207,
0.020525900647044182,
-0.02929261326789856,
0.11696253716945648,
0.019489936530590057,
-0.07114226371049881,
0.027586713433265686,
0.03540158271789551,
0.11835525929927826,
-0.006743006873875856,
-0.08999492228031158,
-0.024085568264126778,
0.07936398684978485,
0.4444192349910736,
0.6495300531387329,
-0.004236302338540554,
0.04450216889381409,
0.0909694954752922,
-0.08739113807678223,
-0.0402761735022068,
0.05051920562982559,
-0.5534741878509521,
0.053938478231430054,
-0.010589144192636013,
0.033191289752721786,
-0.2889200747013092,
-0.706092119216919,
0.09972752630710602,
0.04382242634892464,
-0.15555472671985626,
0.0378122553229332,
0.09463344514369965,
0.03174326941370964,
-0.005109778139740229,
0.023690730333328247,
0.20293749868869781,
-0.08700524270534515,
0.04752971976995468,
-0.06188131868839264,
-0.012498732656240463,
0.14920218288898468,
0.026425858959555626,
-0.006333926692605019,
0.03766827657818794,
-0.07106531411409378,
0.007274596951901913,
-0.15242548286914825,
-0.012662864290177822,
0.08295834064483643,
-0.1082644909620285,
-0.06595420837402344,
0.05067107453942299,
0.06708895415067673,
0.06486348807811737,
-0.048985593020915985,
0.14437870681285858,
-0.04159409552812576,
0.0643368512392044,
0.14848649501800537,
-0.018966011703014374,
-0.03400931507349014,
0.03964429721236229,
-0.025785639882087708,
0.005994528532028198,
0.03014100342988968,
0.06893393397331238,
-0.061049818992614746,
0.027425648644566536,
-0.043582554906606674,
0.05824830010533333,
0.08770577609539032,
-0.038566362112760544,
0.00852981861680746,
-0.004971782676875591,
0.018433567136526108,
-0.09959275275468826,
0.08105416595935822,
-0.026379015296697617,
-0.033064745366573334,
0.09768545627593994,
-0.01581718772649765,
-0.030014269053936005,
0.05851368606090546,
-0.014197230339050293,
-0.008191458880901337,
0.09275859594345093,
0.0009621009230613708,
0.06498485803604126,
-0.021328531205654144,
-0.06595596671104431,
0.02189525216817856,
0.028838038444519043,
-0.003959864377975464,
-0.06129914149641991,
0.04540190100669861,
-0.016256406903266907,
-0.056536320596933365,
0.052702561020851135,
-0.014778561890125275,
0.0031180977821350098,
-0.09055452048778534,
0.05443650484085083,
0.06534340977668762,
0.07713355123996735,
0.01742681860923767,
0.014171972870826721,
0.07754184305667877,
0.05302383005619049,
-0.07048258185386658,
-0.013386539183557034,
-0.13626572489738464,
0.04490185156464577,
-0.07053820788860321,
-0.04641955718398094,
-0.0243747066706419,
-0.019260739907622337,
0.0038061575032770634,
-0.11643501371145248,
-0.057121679186820984,
0.10134191066026688,
-0.08596423268318176,
0.05017237365245819,
0.126175656914711,
0.06413523852825165,
-0.059160757809877396,
0.0671113058924675,
-0.03992327302694321,
0.020304478704929352,
-0.019881684333086014,
-0.05350251495838165,
0.004313819110393524,
-0.054674096405506134,
0.05657729506492615,
0.02466445416212082,
-0.06875156611204147,
0.0811876505613327,
0.06962214410305023,
-0.013728233054280281,
-0.02503368817269802,
0.018942363560199738,
-0.010985307395458221,
-0.08186005800962448,
-0.10998611152172089,
0.06996078789234161,
0.08894291520118713,
-0.004506666678935289,
-0.07587379217147827,
0.15241579711437225,
-0.07651028782129288,
0.03954126685857773,
0.0759463906288147,
0.09037318825721741,
-0.08638215065002441,
0.17956708371639252,
-0.005510431714355946,
0.009620659053325653,
-0.04136671498417854,
-0.02103324979543686,
-0.01881697215139866,
-0.00565008819103241,
0.035975128412246704,
-0.09635841846466064,
0.07869425415992737,
-0.05155302956700325,
-0.05995510518550873,
0.005881633143872023,
-0.03741167485713959,
0.028755558654665947,
0.09290190041065216,
0.00753726065158844,
-0.04380522668361664,
0.02848164550960064,
-0.09186150133609772,
0.07741864025592804,
0.05989539623260498,
0.05967035889625549,
0.026265576481819153,
-0.0495973564684391,
0.09340380132198334,
0.09485356509685516,
0.019450441002845764,
0.0812416523694992,
0.05466495454311371,
0.028940141201019287,
-0.0779324471950531,
-0.038902297616004944,
-0.031852349638938904,
-0.09649060666561127,
-0.08824269473552704,
0.01443222165107727,
0.06320549547672272,
0.02763572335243225,
0.09952835738658905,
0.0759609192609787,
-0.03284800052642822,
-0.00020201504230499268,
-0.08736498653888702,
-0.007424250245094299,
0.06251895427703857,
0.08599208295345306,
-0.057046886533498764,
-0.012232936918735504,
-0.03404959291219711,
-0.011260710656642914,
0.06376819312572479,
0.38341572880744934,
0.0667550340294838,
0.06217871233820915,
-0.09502959996461868,
0.08392464369535446,
-0.02569856308400631,
0.07636865973472595,
0.02536192536354065,
-0.33979275822639465,
-0.09948424994945526,
0.13190679252147675,
0.07841126620769501,
-0.08520666509866714,
-0.09612833708524704,
-0.05589454993605614,
0.09472440183162689,
-0.0009093072731047869,
0.04413650557398796,
0.06827867031097412,
0.05149263143539429,
-0.010980590246617794,
0.06404328346252441,
0.14532434940338135,
-0.09377318620681763,
-0.029061688110232353,
0.0479511022567749,
-0.014537052251398563,
0.07795719802379608,
-0.03706620633602142,
0.036556851118803024,
-0.06322871148586273,
0.010520197451114655,
-0.06095978617668152,
0.08355556428432465,
-0.00990837812423706,
-0.01575426012277603,
-0.09152448177337646,
-0.0818442776799202,
-0.08519051969051361,
-0.0409558042883873,
-0.023724451661109924,
0.03153054416179657,
-0.08954229950904846,
-0.09626389294862747,
0.09227906167507172,
0.10096794366836548,
0.04769822955131531,
0.02151910960674286,
0.007336229085922241,
0.05465973913669586,
0.002036862075328827,
-0.0666099265217781,
-0.06897443532943726,
0.09563958644866943,
0.08458852767944336,
0.057650282979011536,
0.09328773617744446,
-0.016721464693546295,
-0.02933879941701889,
-0.020152581855654716,
-0.0505245104432106,
-0.05121361091732979,
-0.05165862292051315,
0.07849511504173279,
-0.014285988174378872,
-0.1139243096113205,
-0.08904439955949783,
-0.025556884706020355,
-0.06442910432815552,
0.040708884596824646,
0.0009410955244675279,
0.050380509346723557,
0.4561609923839569,
-0.00745666678994894,
-0.35629451274871826,
0.0025926372036337852,
-0.08003292232751846,
-0.3552783727645874,
-0.0248352512717247,
-0.09049839526414871,
-0.20209811627864838,
0.033442310988903046,
0.06050993502140045,
-0.08798244595527649,
-0.1030307188630104,
-0.028748467564582825,
0.040913261473178864,
0.023810744285583496,
-0.08301007747650146,
0.009893365204334259,
-0.014572031795978546,
-0.13004548847675323,
-0.022644219920039177,
0.013615735806524754,
0.05102232098579407,
0.052035942673683167,
-0.05734473839402199,
0.10132014751434326,
-0.05285237729549408,
0.0797196477651596,
-0.08244561403989792,
0.05275081470608711,
-0.07708381116390228,
-0.027145178988575935,
0.05693060904741287,
0.054829373955726624,
-0.04004588723182678,
-0.03734135627746582,
-0.0684426799416542,
0.053865838795900345,
0.008017472922801971,
-0.06440866738557816,
-0.02505028434097767,
0.0675014853477478,
-0.06118355691432953,
-0.09608214348554611,
-0.04214790090918541,
-0.06788850575685501,
-0.037309352308511734,
-0.0025263503193855286,
0.04351065307855606,
-0.03575839102268219,
0.02126443199813366,
0.08681333810091019,
-0.036366380751132965,
-0.07854565978050232,
0.05809837207198143,
0.034424617886543274,
0.0431043803691864,
-0.1031891331076622,
-0.07718387246131897,
0.08762121200561523,
0.006851073820143938,
0.05635618418455124,
0.2610609829425812,
0.024113411083817482,
0.6322611570358276,
0.014689018949866295,
-0.43557611107826233,
0.09090442955493927,
-0.23379631340503693,
-0.3365440368652344,
-0.020719923079013824,
-0.0907328650355339,
-0.24988259375095367,
-0.014082953333854675,
-0.07715842127799988,
-0.0921553298830986,
-0.07710883021354675,
-0.05875556170940399,
-0.1420697271823883,
0.05933447182178497,
0.06399895250797272,
-0.04296643286943436,
-0.06395121663808823,
0.08991866558790207,
0.05552903935313225,
0.0515315979719162,
4.0914757846621796e-05,
-0.027819804847240448,
0.5080695152282715,
0.07388938218355179,
-0.03150666505098343,
-0.033002130687236786,
-0.0480354018509388,
0.050425682216882706,
-0.13218358159065247,
-0.06634623557329178,
0.44366106390953064,
0.008268140256404877,
-0.3751976490020752,
0.04780486226081848,
-0.26051563024520874,
-0.665015697479248,
0.02552725374698639,
-0.04605063423514366,
-0.007135063409805298,
-0.05369420722126961,
-0.00798632949590683,
0.05758887529373169,
-0.01554120797663927,
-0.03481622040271759,
0.05389067158102989,
-0.055395592004060745,
-0.026741156354546547,
-0.09006663411855698,
-0.07451988011598587,
0.0678144171833992,
-0.05645616725087166,
0.039026908576488495,
-0.01628139801323414,
-0.015302091836929321,
-0.13425564765930176,
-0.21472425758838654,
-0.07276702672243118,
-0.07332901656627655,
0.04916084185242653,
0.08857075124979019,
0.20326964557170868,
0.0005056333029642701,
0.41410526633262634,
-0.03796908259391785,
-0.5194191932678223,
-0.09361892193555832,
-0.312542200088501,
-0.6687909960746765,
0.0692865401506424,
-0.06038597971200943,
-0.3135560154914856,
-0.06564882397651672,
-0.0877472385764122,
-0.06262152642011642,
0.08929586410522461,
-0.04747547581791878,
-0.4693165421485901,
-0.07095213979482651,
0.09934878349304199,
0.09286695718765259,
0.07707902789115906,
0.2562887966632843,
0.0509028360247612,
0.08179586380720139,
0.034753214567899704,
0.0846979171037674,
0.005819469690322876,
0.0396946482360363,
0.09032227843999863,
0.04777349531650543,
-0.0002965039457194507,
-0.004876986611634493,
0.04760697856545448,
0.035013239830732346,
-0.024189990013837814,
-0.08516987413167953,
0.1107327863574028,
-0.07099518924951553,
0.17551644146442413,
0.1708906590938568,
0.01818108558654785,
0.049955278635025024,
0.06221092864871025,
-0.00015626716776750982,
0.032753899693489075,
-0.03088311292231083,
0.07637893408536911,
-0.0673123151063919,
0.05080083757638931,
-0.06517984718084335,
-0.05171997472643852,
-0.041385896503925323,
-0.022799883037805557,
0.03698066249489784,
0.0801675096154213,
-0.024226993322372437,
0.01140323095023632,
0.07692083716392517,
-0.08897772431373596,
-0.08683663606643677,
-0.014301255345344543,
-0.013498224318027496,
0.005564021412283182,
-0.029479334130883217,
-0.016923367977142334,
-0.01505252718925476,
0.04474339261651039,
0.03591166436672211,
0.020370984449982643,
0.06485192477703094,
0.03484036400914192,
0.06880199909210205,
0.028845101594924927,
-0.012483431026339531,
0.04304219409823418,
0.03750796616077423,
-0.006412439048290253,
-0.08730839937925339,
0.01585402339696884,
-0.051792532205581665,
0.09209597855806351,
-0.05836162343621254,
0.0771103948354721,
-0.06297579407691956,
0.014842800796031952,
0.03364444896578789,
0.06080736219882965,
-0.032351866364479065,
0.024474292993545532,
-0.09441403299570084,
0.09154115617275238,
-0.07659105956554413,
-0.03944104164838791,
0.09650175273418427,
-0.08298729360103607,
0.02362215518951416,
-0.05394066870212555,
-0.045992132276296616,
0.03741566836833954,
0.0343896746635437,
0.010177485644817352,
0.00192202627658844,
-0.05998418107628822,
-0.04432759806513786,
0.0020928531885147095,
-0.05920431762933731,
0.10164505243301392,
-0.058260250836610794,
0.0986621230840683,
-0.06992609798908234,
-0.0802730843424797,
-0.06022094935178757,
-0.09943904727697372,
0.0488419234752655,
-0.03942028433084488,
0.04031333327293396,
0.03980076313018799,
0.01830662041902542,
-0.03677333891391754,
-0.03103199601173401,
-0.070086769759655,
0.014698818325996399,
-0.062093012034893036,
0.059806324541568756,
0.014123468659818172,
-0.06040668487548828,
-0.07042966037988663,
0.09326788038015366,
-0.06409456580877304,
-0.0371880903840065,
-0.011904245242476463,
-0.03070027567446232,
-0.07880587875843048,
-0.05079125985503197,
0.06535109132528305,
-0.03952019289135933,
0.002634882926940918,
-0.01245366595685482,
-0.035197943449020386,
-0.04803311079740524,
-0.02593359351158142,
0.019071929156780243,
0.07027441263198853,
0.02377888560295105,
-0.07588648051023483,
-0.033798784017562866,
0.07224156707525253,
-0.061425335705280304,
0.04257333278656006,
0.12268409878015518,
-0.06640071421861649,
-0.09318731725215912,
-0.07901336997747421,
-0.012260310351848602,
0.007148102391511202,
-0.06176895648241043,
-0.06118416786193848,
-0.04241868481040001,
0.0644124448299408,
-0.06230147182941437,
0.035606395453214645,
0.05237935483455658,
-0.016902798786759377,
0.10001565515995026,
-0.13480232656002045,
-0.03973722085356712,
0.005132956430315971,
0.050712842494249344,
0.09375253319740295,
-0.018249062821269035,
-0.03680160641670227,
-0.030891932547092438,
-0.07079613953828812,
-0.055165041238069534,
-0.06889782100915909,
0.05124877393245697,
0.0634530782699585,
0.060820311307907104,
-0.04403814673423767,
0.07932104170322418,
-0.0698884129524231,
-0.05191276594996452,
0.023656805977225304,
-0.05573498457670212,
0.028299108147621155,
0.0818457305431366,
-0.03669600933790207,
-0.0389823354780674,
-0.03986894711852074,
-0.01160062849521637,
0.09411627054214478,
-0.08467026799917221,
0.020918533205986023,
0.06120292842388153,
0.0026691968087106943,
-0.023935474455356598,
0.096824511885643,
0.07000978291034698,
-0.010313997976481915,
-0.01360149122774601,
-0.07779279351234436,
0.0634632408618927,
-0.08445270359516144,
0.09482865035533905,
0.02783358097076416,
0.010041974484920502,
0.08039411902427673,
0.006945386528968811,
0.0465310662984848,
0.08739686012268066,
-0.10117560625076294,
-0.09097172319889069,
-0.02650076150894165,
-0.04706360772252083,
-0.003337852656841278,
0.10015121102333069,
0.05472584068775177,
0.0917474776506424,
0.011746414005756378,
-0.032757796347141266,
0.03948815166950226,
-0.026336923241615295,
0.07059809565544128,
-0.018453672528266907,
0.009177379310131073,
0.04841233789920807,
-0.03628963977098465,
-0.04530198499560356,
0.08151854574680328,
-0.054922256618738174,
0.0066009461879730225,
0.00669647753238678,
0.012956663966178894,
-0.011576734483242035,
-0.0723421648144722,
0.07662557065486908,
-0.03942520171403885,
-0.08038599789142609,
0.03219282627105713,
-0.09079036116600037,
0.025321945548057556,
-0.05138411745429039,
-0.06232501566410065,
0.1013384759426117,
0.09974576532840729,
0.08631040155887604,
-0.05097417160868645,
-0.060451019555330276,
0.011982880532741547,
0.054537609219551086,
-0.06902417540550232,
0.10120104253292084,
-0.06679615378379822,
-0.09356679022312164,
0.07133741676807404,
0.08734411001205444,
0.09532211720943451,
0.052947595715522766,
0.03340882062911987,
-0.037933364510536194,
-0.08070795238018036,
-0.03369785100221634,
0.032196059823036194,
0.09249222278594971,
-0.08535915613174438,
0.08708928525447845,
-0.08390403538942337,
0.01026800274848938,
-0.02026508003473282,
-0.08561268448829651,
-0.04447917267680168,
-0.07592391222715378,
0.07157821953296661,
-0.009097956120967865,
0.07724763453006744,
-0.07441917806863785,
-0.0712755098938942,
0.08963063359260559,
-0.034215860068798065,
0.05221696197986603,
-0.05572173371911049,
0.08980521559715271,
0.08527637273073196,
0.09308961033821106,
-0.0902586504817009,
-0.018650822341442108,
0.03441731259226799,
-0.09854663163423538,
-0.006373215466737747,
0.07176628708839417,
-0.014945012517273426,
-0.09749428927898407,
0.07636794447898865,
-0.03540482372045517,
0.030294377356767654,
0.08261308073997498,
-0.036032795906066895,
0.06361541152000427,
-0.09014598280191422,
0.024212777614593506,
-0.049949485808610916,
0.06834394484758377,
-0.01472441852092743,
0.010808132588863373,
-0.050022829324007034,
-0.027283228933811188,
0.09273022413253784,
-0.03875821828842163,
-0.09612005203962326,
-0.05267826095223427,
-0.07290325313806534,
0.05577614903450012,
-0.03453357145190239,
-0.002383418381214142,
-0.13170401751995087,
-0.1393044888973236,
-0.012660743668675423,
0.03147704899311066,
0.052588533610105515,
-0.012747198343276978,
0.10912813246250153,
0.022400520741939545,
-0.041029125452041626,
0.07998014986515045,
0.09187906235456467,
0.010424894280731678,
0.039369869977235794,
0.14871297776699066,
-0.009420156478881836,
-0.056414645165205,
0.14525805413722992,
-0.05022996664047241,
-0.011992394924163818,
0.008093459531664848,
0.06924256682395935,
0.012442521750926971,
0.018193315714597702,
0.0007666051387786865,
-0.06205203756690025,
-0.09558437764644623,
-0.010563633404672146,
0.05780326947569847,
0.0706445649266243,
-0.07386235147714615,
-0.03839107230305672,
-0.03514678776264191,
-0.04282410442829132,
-0.08005225658416748,
0.0916987806558609,
0.08731962740421295,
0.03720669448375702,
-0.06354473531246185,
-0.07729391008615494,
-0.05262193828821182,
0.00764872133731842,
-0.09511369466781616,
0.07568639516830444,
0.04092127084732056,
-0.042810965329408646,
0.04502786695957184,
-0.00043676048517227173,
-0.09560902416706085,
-0.0008685141801834106,
0.09667947888374329,
0.052714213728904724,
0.07753880321979523,
0.011301815509796143,
-0.08231101930141449,
-0.025155894458293915,
0.022858545184135437,
0.08896194398403168,
-0.08288730680942535,
0.056540220975875854,
0.03257189691066742,
0.0431729257106781,
-0.09821774810552597,
0.01944097876548767,
0.04770100116729736,
-0.078109972178936,
-0.04274093732237816,
0.0889848843216896,
-0.006817638874053955,
-0.01349841058254242,
-0.03703092411160469,
0.1452482044696808,
0.0379018671810627,
0.05399344861507416,
0.00929607916623354,
0.09395356476306915,
0.003493690397590399,
0.03657037764787674,
0.04168298840522766,
0.06195344030857086,
0.05413859337568283,
-0.0001240283454535529,
-0.025227820500731468,
0.0647130012512207,
0.058582596480846405,
-0.08556482195854187,
0.07794605195522308,
0.15057706832885742,
-0.073916956782341,
0.01669406145811081,
-0.03627482056617737,
-0.07839540392160416,
-0.025449946522712708,
-0.024574371054768562,
0.06299050152301788,
-0.01333538256585598,
-0.034476689994335175,
0.07843931019306183,
-0.0032457709312438965,
0.051950111985206604,
0.09198875725269318,
0.08829735219478607,
0.01131875067949295,
-0.012965835630893707,
0.013755261898040771,
-0.08909599483013153,
0.007064014673233032,
0.0574285089969635,
-0.014686867594718933,
-0.011323615908622742,
0.04421243071556091,
0.0808052122592926,
-0.00015870481729507446,
-0.09226896613836288,
-0.06619185209274292,
-0.0432397685945034,
-0.06336671113967896,
0.056212931871414185,
-0.079175665974617,
0.09681017696857452,
0.05480474233627319,
0.01702532172203064,
0.08123885095119476,
0.007495060563087463,
-0.017382070422172546,
-0.04079242795705795,
0.101381316781044,
0.059562161564826965,
0.004268214106559753,
-0.10055152326822281,
0.11379779875278473,
0.004221822135150433,
0.05625869333744049,
0.021213537082076073,
-0.06452315300703049,
0.04652075842022896,
0.09539777040481567,
-0.02205481193959713,
-0.050091374665498734,
0.11066355556249619,
0.022245673462748528,
0.09293893724679947,
0.026688063517212868,
-0.04618896543979645,
-0.08965928107500076,
0.0057787769474089146,
-0.05892002955079079,
0.002654150128364563,
-0.09017102420330048,
0.02063349448144436,
-0.059925854206085205,
0.05942077189683914,
-0.01683814823627472,
0.04372280463576317,
0.042271435260772705,
-0.059116680175065994,
0.1046234741806984,
-0.06506728380918503,
-0.02555689960718155,
0.09154476970434189,
0.07080893218517303,
-0.15022629499435425,
0.124175064265728,
-0.0111461840569973,
-0.01119406521320343,
0.047554947435855865,
0.013630821369588375,
0.0811658725142479,
-0.06835869699716568,
0.0008087421301752329,
0.03151001036167145,
0.13848638534545898,
-0.05378507822751999,
0.10376860201358795,
0.017691290006041527,
0.09413149952888489,
-0.0881795808672905,
0.09274471551179886,
0.08114667236804962,
-0.051413148641586304,
-0.012421229854226112,
0.01189409475773573,
-0.015623733401298523,
-0.08436425775289536,
0.04590095579624176,
-0.08753309398889542,
-0.01575041562318802,
-0.05927899852395058,
0.015346337109804153,
-0.06114114820957184,
-0.0742206797003746,
-0.09135744720697403,
-0.012326762080192566,
0.049237996339797974,
0.057292625308036804,
-0.015254229307174683,
-0.10090652853250504,
0.0452340692281723,
-0.08401144295930862,
-0.014269500970840454,
0.012017026543617249,
0.027306675910949707,
-0.026675760746002197,
-0.01227223128080368,
-0.07144995778799057,
-0.030934713780879974,
-0.04598312824964523,
0.03951467573642731,
0.023809954524040222,
-0.06251771748065948,
-0.05359106883406639,
0.09137685596942902,
0.003365635871887207,
0.08714821934700012,
-0.022094324231147766,
0.036673128604888916,
0.005229532718658447,
0.0033668801188468933,
-0.009630441665649414,
0.07081745564937592,
0.03410916030406952,
-0.0754217654466629,
-0.07159513235092163,
0.080594003200531,
0.013319402933120728,
-0.009133480489253998,
-0.044040657579898834,
0.031672582030296326,
0.08157655596733093,
-0.043700914829969406,
0.0760602205991745,
-0.07066074758768082,
0.003699861466884613,
-0.028075791895389557,
-0.052392035722732544,
-0.09756147861480713,
-0.07744906097650528,
0.0835568904876709,
0.05070328712463379,
-0.0206291601061821,
-0.01309465616941452,
0.022855140268802643,
-0.025657452642917633,
0.06812089681625366,
-0.036725156009197235,
0.08123879134654999,
-0.0892089307308197,
-0.08012650161981583,
0.06431826949119568,
0.04904252290725708,
-0.019710883498191833,
0.08242961764335632,
0.023160189390182495,
0.061082273721694946,
0.05901169776916504,
0.01866529881954193,
-0.09576084464788437,
-0.03205545246601105,
0.07818788290023804,
-0.08225575089454651,
-0.07309134304523468,
-0.020818643271923065,
-0.010467514395713806,
-0.0005670860409736633,
0.006941176950931549,
-0.06919820606708527,
0.014503709971904755,
0.09445268660783768,
0.031628161668777466,
0.022006388753652573,
0.004919417668133974,
-0.016699716448783875,
0.024938493967056274,
-0.05737350508570671,
0.05470585823059082,
0.014728091657161713,
-0.04862348362803459,
-0.08632392436265945,
-0.09512776136398315,
0.0960511863231659,
0.03894411027431488,
0.09898245334625244,
-0.07358458638191223,
-0.05978275090456009,
0.01707233488559723,
-0.07962039113044739,
0.020855069160461426,
0.04808001220226288,
-0.07884164154529572,
-0.24150849878787994,
0.011795311234891415,
-0.028979789465665817,
0.10042883455753326,
0.01887902058660984,
0.03825174644589424,
0.018493931740522385,
-0.07141056656837463,
-0.11732704937458038,
-0.06805374473333359,
0.02300986461341381,
0.038526833057403564,
0.08680980652570724,
0.11073978245258331,
-0.09138770401477814,
0.045774124562740326,
0.059969160705804825,
-0.04993753507733345,
0.026320040225982666,
0.08456781506538391,
-0.00746964430436492,
0.04275891184806824,
-0.03827858343720436,
-0.018789008259773254,
0.02049100399017334,
0.00477445125579834,
0.023159058764576912,
0.0761553943157196,
-0.02616056427359581,
-0.003901628078892827,
-0.031835395842790604,
-0.07325820624828339,
0.4562035799026489,
0.592444896697998,
0.04451083764433861,
0.03263141214847565,
-0.07673399895429611,
-0.03997331112623215,
-0.11890430003404617,
0.08361149579286575,
0.4275301992893219,
0.08967569470405579,
-0.23943756520748138,
0.0002629040100146085,
-0.29455944895744324,
-0.6767047643661499,
0.0258416086435318,
-0.027145402505993843,
-0.1271730363368988,
-0.005858791992068291,
0.034157395362854004,
-0.06807952374219894,
-0.07646919786930084,
-0.03727860003709793,
0.03202879801392555,
0.02997402846813202,
-0.09943117201328278,
-0.09159429371356964,
-0.011006316170096397,
-0.044398993253707886,
0.05184878781437874,
-0.05576511099934578,
0.032150425016880035,
0.017180226743221283,
-0.07680816948413849,
0.07438883930444717,
0.023315206170082092,
0.0546412318944931,
-0.07412737607955933,
0.043645184487104416,
-0.0335773341357708,
-0.035300977528095245,
0.026157114654779434,
0.018035870045423508,
0.12093017995357513,
-0.1027064397931099,
0.05747845768928528,
0.06236085668206215,
0.005863860249519348,
-0.038091521710157394,
-0.022176532074809074,
0.02072298526763916,
-0.02142062783241272,
-0.0966215506196022,
-0.043824709951877594,
-0.014758944511413574,
-0.11779515445232391,
-0.06332646310329437,
0.005162210203707218,
-0.006130553781986237,
-0.06372383236885071,
0.015810953453183174,
-0.07963497936725616,
0.04242846369743347,
0.0700545608997345,
-0.07497186213731766,
0.05964107811450958,
0.09554369747638702,
0.04589620232582092,
-0.020495519042015076,
0.059941306710243225,
-0.047371841967105865,
-0.06911960989236832,
-0.09356389194726944,
0.07931825518608093,
-0.009386353194713593,
0.05956116318702698,
0.0070487335324287415,
0.09286859631538391,
-0.07996565848588943,
-0.04652089625597,
-0.09703399986028671,
-0.07699687033891678,
-0.07270420342683792,
-0.09891179203987122,
0.03634113073348999,
-0.012987002730369568,
-0.08853433281183243,
-0.07480298727750778,
0.0335422158241272,
-0.01804117113351822,
-0.06383582949638367,
0.06603816151618958,
-0.050642844289541245,
0.003986872732639313,
0.1011846661567688,
-0.09909555315971375,
-0.003328286111354828,
-0.1607448011636734,
0.002627817913889885,
0.05536621809005737,
-0.01709873229265213,
0.019881850108504295,
0.076667919754982,
0.0864778608083725,
-0.06889691948890686,
0.027886996045708656,
0.05415116623044014,
0.0168142132461071,
0.08651252090930939,
0.001815655268728733,
0.0868038535118103,
-0.0018581822514533997,
-0.0904349684715271,
0.06890244036912918,
-0.05635560303926468,
0.01161021739244461,
0.02238232083618641,
0.0232169721275568,
-0.030799731612205505,
-0.0555378757417202,
-0.0770811140537262,
0.0016609980957582593,
-0.04897473752498627,
-0.10321463644504547,
-0.007524329703301191,
0.007024345453828573,
-0.040659330785274506,
0.07514075189828873,
0.02441808581352234,
-0.18702742457389832,
0.17298437654972076,
-0.10153433680534363,
-0.08606772124767303,
0.008656631223857403,
0.08246135711669922,
-0.013147455640137196,
-0.09128358960151672,
-0.04946887493133545,
-0.06814476102590561,
0.1352638155221939,
0.06738337874412537,
0.19421787559986115,
0.1420956701040268,
-0.09651415795087814,
0.026642855256795883,
-0.04438411444425583,
-0.06692814081907272,
-0.08191396296024323,
0.025953905656933784,
-0.09326084703207016,
0.01477651298046112,
-0.06383133679628372,
0.04002998769283295,
-0.08129839599132538,
-0.07292430102825165,
0.08339151740074158,
0.11469815671443939,
0.0630759671330452,
0.0591319277882576,
-0.020197348669171333,
-0.08144756406545639,
-0.07756058126688004,
-0.016154982149600983,
0.09736219048500061,
-0.05591017007827759,
-0.07911500334739685,
-0.03618872910737991,
-0.0019228830933570862,
0.03785832226276398,
0.03973829746246338,
-0.027086541056632996,
0.06300540268421173,
0.08730877935886383,
0.03894239664077759,
-0.06744366884231567,
0.05819199979305267,
-0.007052429020404816,
-0.04704791307449341,
0.05255398154258728,
0.0006500184535980225,
-0.02609022706747055,
-0.07663549482822418,
-0.012369103729724884,
-0.07992197573184967,
-0.0614120252430439,
0.08582235872745514,
0.06116068363189697,
0.05818690359592438,
-0.015131078660488129,
-0.04626067727804184,
0.01276128739118576,
-0.08659675717353821,
0.008466914296150208,
0.0878608301281929,
0.2970806062221527,
-0.07985951751470566,
-0.05301351100206375,
-0.07413458079099655,
-0.08601908385753632,
-0.02851632609963417,
0.08133763819932938,
-0.1972160041332245,
0.023571006953716278,
0.04074478894472122,
-0.05967608839273453,
0.026507096365094185,
-0.07678267359733582,
0.025175869464874268,
-0.05325846001505852,
-0.03551258146762848,
0.01603652350604534,
0.009960919618606567,
-0.016352128237485886,
0.036564555019140244,
-0.0284639373421669,
0.03603629767894745,
0.023732304573059082,
0.0264437198638916,
0.0223892480134964,
-0.10623610764741898,
-0.03627881407737732,
0.06874984502792358,
-0.014590136706829071,
0.04152734577655792,
-0.021723777055740356,
-0.00902205053716898,
0.02432042360305786,
-0.004592046141624451,
-0.09070616960525513,
0.10160085558891296,
-0.06260648369789124,
-0.0731285810470581,
0.028611913323402405,
-0.005187854170799255,
-0.013139724731445312,
-0.034063197672367096,
0.09717759490013123,
0.09529303759336472,
0.08826133608818054,
-0.0442526750266552,
-0.05806081369519234,
-0.07250680029392242,
-0.0649125725030899,
-0.02415218949317932,
0.0658901184797287,
0.09303247928619385,
0.08084531128406525,
0.06325681507587433,
-0.08897601068019867,
0.05220605432987213,
0.06005074083805084,
0.07554058730602264,
-0.08778133243322372,
-0.053240131586790085,
-0.030759118497371674,
0.05174905061721802,
0.07207511365413666,
0.3546490967273712,
-0.45795944333076477,
-0.014195331372320652,
0.03723406791687012,
0.039017222821712494,
0.02130708284676075,
0.1494094282388687,
-0.007689554709941149,
0.4196693003177643,
0.010962862521409988,
-0.17025384306907654,
-0.07137431204319,
0.021749550476670265,
-0.15546929836273193,
-0.0796172022819519,
-0.013594026677310467,
-0.20173713564872742,
0.026439977809786797,
0.07936717569828033,
0.06828053295612335,
0.013825036585330963,
-0.06134513020515442,
0.18822069466114044,
0.06873908638954163,
0.028878921642899513,
0.07799302041530609,
-0.07106383889913559,
-0.14963878691196442,
0.0720115527510643,
0.09451460838317871,
0.04108479991555214,
0.057931169867515564,
0.014499996788799763,
0.09040223062038422,
0.09496085345745087,
0.08455921709537506,
-0.033609386533498764,
-0.0022633750922977924,
-0.04399164021015167,
-0.0047040763311088085,
-0.05096539482474327,
0.05205078423023224,
-0.034046534448862076,
-0.07135264575481415,
-0.038457147777080536,
-0.05162550136446953,
0.06156343221664429,
-0.024298857897520065,
0.09718061983585358,
0.05743589997291565,
0.0464903861284256,
-0.06321968138217926,
0.006547875702381134,
-0.026274114847183228,
-0.030930669978260994,
0.07441036403179169,
0.014392994344234467,
0.07308468222618103,
-0.09531264752149582,
-0.04788190871477127,
-0.008828641846776009,
0.04273326322436333,
0.07157529890537262,
0.03281062841415405,
0.31910407543182373,
-0.5243178606033325,
-0.04877357929944992,
0.07505364716053009,
-0.09518235176801682,
0.06604058295488358,
0.23131582140922546,
0.06436582654714584,
0.45671772956848145,
-0.021577855572104454,
-0.2364388257265091,
-0.06844358146190643,
-0.12210358679294586,
-0.307892382144928,
-0.008130379021167755,
-0.09079597145318985,
-0.3634690046310425,
-0.0033674435690045357,
-0.04786393791437149,
-0.07557187974452972,
0.021077310666441917,
0.042446568608284,
0.22928157448768616,
-0.06007460504770279,
-0.048459380865097046,
-0.018564850091934204,
-0.027122488245368004,
-0.07984589785337448,
0.008922530338168144,
0.07744958996772766,
0.01739436388015747,
-0.0698915645480156,
0.4118640720844269,
-0.41836223006248474,
-0.04574735462665558,
-0.00757000595331192,
-0.10548242181539536,
0.06685401499271393,
0.12218961864709854,
0.03319757431745529,
0.1390085071325302,
-0.04669027030467987,
-0.45032116770744324,
0.011281639337539673,
-0.019591214135289192,
-0.12203481793403625,
-0.09588338434696198,
-0.020177990198135376,
-0.07751844823360443,
0.09051400423049927,
-0.07428203523159027,
-0.06302917748689651,
-0.08826511353254318,
0.018933258950710297,
0.37394222617149353,
-0.03200465440750122,
-0.060263555496931076,
-0.07400752604007721,
0.08264290541410446,
-0.04581378772854805,
0.06904948502779007,
0.012084497138857841,
0.013376439921557903,
0.08663313090801239,
0.6529145240783691,
-0.36349573731422424,
0.02070712484419346,
-0.02862643450498581,
-0.00831298716366291,
0.07636867463588715,
0.2247847020626068,
-0.02306031808257103,
0.32342877984046936,
0.06636347621679306,
-0.3487902283668518,
0.04929474741220474,
-0.38396432995796204,
-0.6912658214569092,
-0.03495430946350098,
0.056908056139945984,
-0.4732498526573181,
-0.04058324918150902,
-0.08616062253713608,
-0.08816726505756378,
-0.03759501874446869,
-0.07881183922290802,
-0.00966219138354063,
0.032212480902671814,
0.0030961851589381695,
0.021761618554592133,
-0.0838550329208374,
-0.0901976153254509,
-0.027672117576003075,
0.0027212132699787617,
-0.09642979502677917,
0.0955028384923935,
-0.09232889860868454,
0.026492780074477196,
0.06380601972341537,
-0.0686531662940979,
-0.0014275623252615333,
-0.09678959101438522,
0.027808401733636856,
0.0026400177739560604,
-0.05276753380894661,
-0.08484751731157303,
0.1306905597448349,
0.02660311572253704,
0.13177432119846344,
-0.04064003750681877,
-0.08640461415052414,
-0.03965267911553383,
0.04099390655755997,
-0.09191195666790009,
-0.01864936202764511,
-0.1024496853351593,
-0.0474683903157711,
-0.04061810299754143,
-0.02036994695663452,
0.01610373705625534,
0.029545249417424202,
-0.09043838083744049,
-0.060626495629549026,
-0.04420892521739006,
-0.10796815156936646,
-0.09150899201631546,
-0.07667544484138489,
-0.03698153793811798,
0.012674873694777489,
0.045786052942276,
-0.06338681280612946,
0.09350357949733734,
-0.07975020259618759,
0.04979690536856651,
-0.026155591011047363,
-0.04044182598590851,
-0.035402823239564896,
0.028505250811576843,
-0.02846282720565796,
-0.09670228511095047,
0.09897539764642715,
0.08489006757736206,
0.04355289041996002,
-0.09347549080848694,
0.10082405805587769,
-0.10149617493152618,
0.0207948237657547,
-0.0013769082725048065,
0.09492474794387817,
0.02597557008266449,
-0.05727371945977211,
0.053567126393318176,
-0.04967827349901199,
0.07443231344223022,
-0.0024397000670433044,
-0.003190780756995082,
0.0995853990316391,
0.04381299018859863,
0.04329051822423935,
-0.09638487547636032,
-0.086124949157238,
-0.0020811185240745544,
-0.011450298130512238,
0.04823960363864899,
-0.0011388063430786133,
0.0668969601392746,
-0.010663330554962158,
0.033178627490997314,
-0.015681162476539612,
-0.08458361774682999,
0.09126155078411102,
0.08714994788169861,
-0.06040079519152641,
-0.06734757125377655,
0.0054769814014434814,
-0.03949885815382004,
0.08740612864494324,
0.05276872217655182,
0.08941751718521118,
-0.0673491507768631,
-0.005776822566986084,
0.051036909222602844,
0.05638258159160614,
-0.09844643622636795,
-0.0627804696559906,
0.09968847036361694,
0.08777780830860138,
0.043725594878196716,
-0.03390480577945709,
0.04212196171283722,
0.061637550592422485,
0.08692897856235504,
0.09422855824232101,
0.11644000560045242,
-0.09976236522197723,
-0.06536918878555298,
-0.06120556965470314,
-0.07598713040351868,
0.04669637978076935,
-0.06884898245334625,
0.06966879218816757,
-0.10234581679105759,
-0.15264609456062317,
-0.009340801276266575,
-0.00452225748449564,
0.04356718063354492,
-0.07062120735645294,
-0.05311064049601555,
0.026956310495734215,
-0.003712956327944994,
-0.004481866955757141,
-0.09064722061157227,
0.07519063353538513,
0.04127846658229828,
-0.09736764430999756,
-0.0010914579033851624,
-0.092562735080719,
-0.031337037682533264,
-0.013283428736031055,
-0.07119958847761154,
-0.04672667011618614,
0.05751441791653633,
0.05115928500890732,
-0.021559327840805054,
0.010885928757488728,
0.04898857697844505,
-0.10049360990524292,
0.04783940315246582,
0.0077990032732486725,
-0.07797781378030777,
-0.08949778228998184,
0.031692370772361755,
-0.050439730286598206,
-0.09633278101682663,
0.0570579394698143,
0.0027126928325742483,
-0.04728032276034355,
0.0559283047914505,
0.011873990297317505,
0.034616440534591675,
-0.04976612702012062,
0.003521545557305217,
0.08108052611351013,
0.08799317479133606,
0.0007421523914672434,
-0.04947858676314354,
0.0532032735645771,
-0.007094576954841614,
0.05928517132997513,
0.04767632484436035,
0.02477889694273472,
-0.09040195494890213,
0.024240730330348015,
-0.03206203877925873,
-0.03129902854561806,
-0.007081262767314911,
0.03413154184818268,
0.029050802811980247,
0.05046232044696808,
-0.041494205594062805,
-0.07077484577894211,
-0.011451490223407745,
0.04179620370268822,
0.05484241247177124,
0.06976085901260376,
0.013086967170238495,
-0.009866602718830109,
-0.09426577389240265,
0.07495675981044769,
-0.04532444477081299,
-0.035168640315532684,
0.01772838830947876,
-0.007269429974257946,
0.09169493615627289,
-0.04039379581809044,
-0.07178176939487457,
0.03483940660953522,
-0.01843753457069397,
0.05694505572319031,
0.02221197634935379,
-0.011714726686477661,
0.08971437811851501,
0.09703294932842255,
0.08430363237857819,
-0.06886320561170578,
0.03184020519256592,
0.03821299970149994,
0.09618349373340607,
0.061540961265563965,
0.076148122549057,
0.06791594624519348,
0.09700222313404083,
0.0743107944726944,
0.062392473220825195,
-0.04372639209032059,
-0.02225217968225479,
-0.09544504433870316,
0.1018887460231781,
-0.07141026854515076,
-0.06660077720880508,
0.04666699469089508,
-0.045685503631830215,
-0.050933558493852615,
0.07578328251838684,
0.009951010346412659,
0.06279623508453369,
0.0006824582815170288,
0.039448708295822144,
-0.04770839586853981,
-0.022623851895332336,
-0.008021511137485504,
-0.06909787654876709,
0.017542749643325806,
-0.07243609428405762,
0.09582151472568512,
0.07222282886505127,
0.04930095374584198,
-0.07351306825876236,
0.03977462649345398,
-0.07852603495121002,
-0.004142045974731445,
-0.03337399661540985,
-0.03882888704538345,
0.0990993082523346,
-0.009673930704593658,
-0.041358742862939835,
-0.02450740337371826,
0.014363624155521393,
-0.039723701775074005,
-0.03409828245639801,
0.018678881227970123,
-0.015787668526172638,
0.09562881290912628,
0.0783172994852066,
-0.07754749059677124,
0.025284454226493835,
-0.06746700406074524,
0.03208544850349426,
-0.08363880217075348,
0.016219444572925568,
0.002015642821788788,
-0.08551335334777832,
0.06545953452587128,
0.0009337961673736572,
0.04647466540336609,
-0.016204938292503357,
-0.03623805195093155,
0.009142190217971802,
0.09535221755504608,
0.04146979749202728,
-0.007386557757854462,
-0.045956335961818695,
0.08988799899816513,
-0.06130803003907204,
0.047149062156677246,
-0.02034900337457657,
-0.0332607626914978,
-0.08734719455242157,
0.007284761872142553,
-0.04691507667303085,
-0.08758041262626648,
0.048597171902656555,
-0.09632111340761185,
0.007492721080780029,
-0.0027069468051195145,
0.0058976211585104465,
-0.08402968943119049,
0.06543104350566864,
0.058834269642829895,
-0.043061625212430954,
0.0022953301668167114,
-0.038118090480566025,
0.05652576684951782,
-0.04872259125113487,
0.045770853757858276,
0.008436277508735657,
-0.05709501728415489,
-0.03712152689695358,
0.026411890983581543,
-0.02012604847550392,
0.05920126661658287,
0.04542255401611328,
-0.06321042776107788,
-0.006332814693450928,
-0.22159764170646667,
0.15497849881649017,
0.03900035843253136,
-0.04976939409971237,
-0.09978347271680832,
0.08003260940313339,
0.06538224965333939,
-0.1048768013715744,
-0.10005764663219452,
-0.04990498721599579,
0.0839197114109993,
0.08951418101787567,
0.13946844637393951,
0.06652987003326416,
-0.08132091164588928,
0.024868711829185486,
0.09040148556232452,
0.0037937876768410206,
-0.04725365340709686,
-0.0028757755644619465,
-0.013738096691668034,
-0.010370008647441864,
0.01099355984479189,
-0.026681631803512573,
-0.06097419187426567,
-0.0777629166841507,
0.05877017229795456,
0.04635847359895706,
-0.049353860318660736,
0.0227512214332819,
0.03385346010327339,
0.08485783636569977,
-0.08400803804397583,
0.018323726952075958,
0.04096873104572296,
-0.03652464598417282,
0.07940684258937836,
-0.07373233884572983,
0.03718160092830658,
0.017060428857803345,
-0.00771554559469223,
0.06961892545223236,
0.05380471050739288,
-0.09992022067308426,
0.08699236810207367,
-0.03822217881679535,
0.08023473620414734,
-0.011103741824626923,
-0.06628307700157166,
0.0674239993095398,
-0.09969542175531387,
0.0578097403049469,
0.02498529851436615,
0.0066098496317863464,
-0.07756282389163971,
-0.016024820506572723,
-0.011913001537322998,
-0.08232641965150833,
0.03378075361251831,
-0.03337046504020691,
-0.088130421936512,
-0.061629004776477814,
-0.009109511971473694,
-0.08995465189218521,
0.03521161153912544,
-0.2299792766571045,
0.04132659360766411,
-0.08565495163202286,
-0.017427310347557068,
-0.03618694469332695,
0.06010749936103821,
-0.07365074753761292,
0.06432869285345078,
-0.011818554252386093,
0.12533637881278992,
0.06265981495380402,
-0.03617469221353531,
0.0285839531570673,
0.0829039216041565,
-0.08522719144821167,
-0.0903673842549324,
0.02871500700712204,
0.09500420093536377,
-0.029923923313617706,
-0.031236357986927032,
-0.10018835216760635,
0.09068760275840759,
0.09763391315937042,
0.07533536851406097,
-0.024048328399658203,
-0.08385711163282394,
0.10569321364164352,
-0.0796070471405983,
-0.0448012501001358,
-0.10703884810209274,
-0.0918378010392189,
-0.023957423865795135,
0.071489617228508,
-0.059868793934583664,
0.033018290996551514,
0.09007240831851959,
0.008974313735961914,
-0.09249743074178696,
-0.04673486202955246,
-0.07617376744747162,
0.0633205771446228,
0.022425435483455658,
-0.04125320538878441,
-0.04018973559141159,
0.014170050621032715,
0.021838508546352386,
0.05160956084728241,
0.019258305430412292,
-0.08674097806215286,
-0.05365333706140518,
-0.023713134229183197,
-0.06042423099279404,
0.02997937798500061,
0.021561957895755768,
-0.018198750913143158,
-0.0025672316551208496,
0.04461491107940674,
0.08562122285366058,
0.0955001562833786,
0.06891049444675446,
-0.053437281399965286,
0.06235183775424957,
0.03726781904697418,
-0.002779156668111682,
-0.0556124672293663,
0.06458912044763565,
0.0408007949590683,
-0.09447336196899414,
-0.06937281042337418,
-0.0672573372721672,
0.029825881123542786,
0.05542752146720886,
-0.09376311302185059,
-0.008160221390426159,
0.030261661857366562,
0.08877784013748169,
0.057888686656951904,
0.07968240976333618,
0.03006281517446041,
-0.015433781780302525,
-0.008091405965387821,
-0.040873605757951736,
0.08563902229070663,
-0.09169279038906097,
-0.10102089494466782,
0.04977427050471306,
-0.09377914667129517,
0.058259882032871246,
-0.06508351117372513,
0.011154240928590298,
0.03932538628578186,
-0.09631111472845078,
-0.07614434510469437,
0.013461542315781116,
-0.09325753897428513,
0.10089197754859924,
-0.14791199564933777,
0.028806859627366066,
-0.04561496153473854,
-0.020934730768203735,
-0.09983249008655548,
0.05748859792947769,
0.038413047790527344,
0.0710964947938919,
-0.06126696243882179,
0.024042783305048943,
0.051253318786621094,
0.07518893480300903,
0.07366573810577393,
0.028072267770767212,
-0.016565846279263496,
0.010334944352507591,
0.0019171829335391521,
-0.027864821255207062,
-0.005712671205401421,
0.025600994005799294,
-0.09949250519275665,
0.09918151050806046,
-0.0887177586555481,
-0.03411614149808884,
0.07897210121154785,
-0.10003764182329178,
-0.005894094239920378,
-0.033509764820337296,
0.0647086575627327,
-0.08463241159915924,
-0.016152843832969666,
0.05757419764995575,
0.09165006875991821,
0.018631331622600555,
0.04660844802856445,
-0.03275517374277115,
-0.03739002346992493,
0.007665097713470459,
0.034688085317611694,
0.025946974754333496,
0.018417268991470337,
-0.0005494505167007446,
0.03835998475551605,
-0.003740251064300537,
0.030133366584777832,
0.036995649337768555,
-0.10105308890342712,
0.010863959789276123,
-0.09970082342624664,
0.06416526436805725,
0.04574769735336304,
-0.09328602999448776,
0.00354582816362381,
-0.07908181846141815,
-0.035215169191360474,
0.034091442823410034,
0.06343165040016174,
0.012260600924491882,
-0.09338822960853577,
0.0218563973903656,
-0.010587967932224274,
0.08739066123962402,
-0.004803873598575592,
0.0014864131808280945,
0.09578320384025574,
0.014686726033687592,
-0.006676599383354187,
-0.0020355209708213806,
0.022238433361053467,
0.02126937359571457,
-0.04394787549972534,
-0.08684882521629333,
0.03227125108242035,
-0.06073397025465965,
0.08546702563762665,
-0.06388114392757416,
0.09901528060436249,
0.06358546018600464,
-0.0004982501268386841,
0.060019731521606445,
0.03252789378166199,
-0.0701839029788971,
0.004900768399238586,
-0.023193761706352234,
-0.037708304822444916,
-0.029377952218055725,
0.02243620902299881,
0.052546918392181396,
0.060774222016334534,
0.09085717797279358,
0.027427956461906433,
-0.07617545127868652,
0.08499769866466522,
0.04669371247291565,
-0.012009166181087494,
0.013593517243862152,
0.04281196743249893,
-0.08383745700120926,
-0.011404648423194885,
0.07700081169605255,
-0.09354326128959656,
-0.023567095398902893,
0.00095328688621521,
0.06718990951776505,
-0.07816524803638458,
0.06197188049554825,
0.10195066034793854,
0.046853408217430115,
-0.06110427901148796,
-0.004177868366241455,
0.03541429340839386,
-0.07606736570596695,
0.014751620590686798,
-0.08162717521190643,
0.014636814594268799,
-0.05246846750378609,
0.053093940019607544,
-0.0766073688864708,
-0.07293208688497543,
-0.036021262407302856,
-0.05206771939992905,
-0.028085768222808838,
-0.03186556696891785,
0.012529924511909485,
-0.014373868703842163,
0.08270765841007233,
-0.0672653466463089,
-0.0005503867287188768,
-0.13256147503852844,
0.0733889490365982,
0.04054573178291321,
-0.045457810163497925,
0.047655001282691956,
0.11561404913663864,
-0.025352604687213898,
-0.07212016731500626,
0.07158388942480087,
-0.05908656492829323,
-0.00854224432259798,
0.0034204788971692324,
0.04828459024429321,
-0.0403762049973011,
-0.014644364826381207,
0.03671237453818321,
-0.05294237285852432,
-0.02050330489873886,
-0.00744844414293766,
0.09022408723831177,
-0.09091506898403168,
0.1054311990737915,
-0.012205295264720917,
0.058231692761182785,
-0.09624437242746353,
0.011284276843070984,
-0.0032375119626522064,
-0.01642986573278904,
0.04864483326673508,
-0.011351429857313633,
0.013970762491226196,
0.1961010843515396,
0.4197923243045807,
0.07188794016838074,
0.09714537858963013,
-0.06489688158035278,
-0.09893397986888885,
-0.07327932119369507,
0.03541525825858116,
-0.2479059249162674,
0.09462261945009232,
0.011993585154414177,
7.912131695775315e-05,
-0.234312504529953,
-0.4883303940296173,
0.05218268930912018,
-0.06030995398759842,
0.03772467374801636,
-0.022653061896562576,
0.01331803947687149,
0.010890073142945766,
-0.02841646410524845,
0.07469943165779114,
0.11505534499883652,
0.07468736171722412,
0.03210330009460449,
-0.04034215956926346,
-0.10342112183570862,
-0.0676424652338028,
0.04268812760710716,
0.06942511349916458,
-0.000349536188878119,
-0.01848921924829483,
0.08303434401750565,
-0.03755822777748108,
-0.022923668846488,
0.01771899312734604,
0.06656017154455185,
-0.014189296402037144,
0.09311006218194962,
0.06721308827400208,
-0.12348146736621857,
-0.019640041515231133,
0.11862381547689438,
0.062324732542037964,
0.07655433565378189,
-0.007567670661956072,
-0.015930846333503723,
-0.004542995244264603,
0.00823634397238493,
-0.018628332763910294,
0.041094645857810974,
0.005278171505779028,
-0.08719522505998611,
0.06831952929496765,
0.05684492737054825,
0.07278868556022644,
-0.07455404847860336,
-0.056547343730926514,
0.028221430256962776,
-0.12046251446008682,
-0.09463097155094147,
-0.059274084866046906,
0.02808159776031971,
-0.008843883872032166,
0.09038598835468292,
0.043182507157325745,
0.0337093323469162,
0.04053887724876404,
-0.09487510472536087,
-0.03410553187131882,
-0.07948426157236099,
0.07894343137741089,
-0.0076463595032691956,
-0.04945943504571915,
0.059180278331041336,
0.01407352089881897,
-0.03905392438173294,
-0.08629387617111206,
0.06037101149559021,
-0.08301722258329391,
-0.0401981957256794,
0.05111069977283478,
-0.09897632151842117,
-0.05800801143050194,
-0.04293788969516754,
0.03067190945148468,
0.02433532476425171,
0.07688944041728973,
-0.024920105934143066,
0.06905220448970795,
0.040264710783958435,
-0.0014060878893360496,
0.06535395979881287,
0.0660853385925293,
-0.043650347739458084,
0.07776641845703125,
0.05697421357035637,
-0.11717715114355087,
-0.10131792724132538,
0.039973244071006775,
0.06785707920789719,
-0.0931035578250885,
0.060536786913871765,
0.03925921767950058,
-0.00472517404705286,
-0.08067850023508072,
0.04674145579338074,
-0.016065461561083794,
0.09178966283798218,
-0.013225886039435863,
0.018287084996700287,
-0.008260691538453102,
-0.024832841008901596,
-0.02999635599553585,
0.04438622295856476,
-0.01933431439101696,
0.06444356590509415,
-0.0779360681772232,
0.1371075063943863,
-0.07171263545751572,
-0.0758286565542221,
0.06522268056869507,
-0.10485558211803436,
-0.039306774735450745,
0.06165971979498863,
-0.0040316213853657246,
0.044339533895254135,
-0.0005842745304107666,
0.13298073410987854,
-0.04506533592939377,
0.07469054311513901,
0.08418591320514679,
0.08326328545808792,
-0.08439111709594727,
0.1036457046866417,
-0.032523445785045624,
-0.04650305211544037,
0.04027751088142395,
0.05527118220925331,
-0.08869494497776031,
0.0657227486371994,
0.09300901740789413,
-0.03588813543319702,
0.060152534395456314,
0.04299861937761307,
-0.10563475638628006,
0.09364867210388184,
0.05439816042780876,
0.0787961557507515,
0.053364723920822144,
0.04778553545475006,
-0.03342986851930618,
-0.07711166143417358,
-0.09796205163002014,
-0.02761271595954895,
-0.0033421467524021864,
0.0024955393746495247,
0.09674476832151413,
-0.08007863909006119,
-0.002795897424221039,
-0.0982154831290245,
0.00019305944442749023,
-0.10102887451648712,
-0.08398124575614929,
0.06708425283432007,
-0.09878145903348923,
-0.006427377462387085,
0.024458184838294983,
0.007947832345962524,
-0.031378574669361115,
-0.03959789499640465,
0.009587004780769348,
-0.025197431445121765,
-0.00876762717962265,
-0.08893772959709167,
0.06992630660533905,
-0.06881889700889587,
0.08248446881771088,
-0.10103471577167511,
-0.044920045882463455,
0.007604852318763733,
0.0344364196062088,
-0.02786608785390854,
0.08388011157512665,
-0.07324185222387314,
-0.008625447750091553,
-0.10111966729164124,
0.09843754768371582,
-0.001087486743927002,
0.00868428498506546,
-0.01712895929813385,
0.0057427287101745605,
0.32756441831588745,
0.19812029600143433,
0.04149593040347099,
0.09818786382675171,
0.008159632794559002,
0.09016592800617218,
-0.08892721682786942,
-0.10358487814664841,
0.01502664852887392,
-0.02072211354970932,
-0.14805996417999268,
0.008058714680373669,
0.022599291056394577,
-0.03784327954053879,
-0.028706543147563934,
0.018395885825157166,
-0.286868691444397,
-0.05936138331890106,
0.09490600228309631,
-0.0322798490524292,
0.04229249432682991,
0.019671879708766937,
0.1297113299369812,
-0.027609877288341522,
0.00491494731977582,
0.07225103676319122,
-0.0876314640045166,
-0.07517131417989731,
0.08593621850013733,
-0.03492794930934906,
-0.06520798802375793,
0.0618392676115036,
0.020278295502066612,
-0.08450813591480255,
0.026850327849388123,
0.005796022713184357,
0.09877744317054749,
0.09330612421035767,
0.06085745990276337,
0.03311321139335632,
-0.050772566348314285,
-0.020839765667915344,
0.08283290266990662,
-0.025372415781021118,
-0.03400513529777527,
-0.016740739345550537,
0.09081335365772247,
0.09171761572360992,
0.0814753919839859,
-0.06285560876131058,
0.08968114852905273,
0.07305757701396942,
-0.097374327480793,
0.09892705082893372,
0.02913133054971695,
-0.09813985973596573,
-0.09043052047491074,
0.030975207686424255,
-0.01990983635187149,
0.031162932515144348,
-0.055260419845581055,
-0.011894628405570984,
-0.047850627452135086,
0.10007096827030182,
-0.5509787797927856,
-0.23785711824893951,
-0.10422489047050476,
-0.09355099499225616,
0.08579979091882706,
0.07213535159826279,
0.2830864191055298,
-0.07767646759748459,
0.4216937720775604,
0.059516988694667816,
0.3073846101760864,
-0.02594798430800438,
-0.024014975875616074,
-0.3939800262451172,
0.032521843910217285,
-0.0014028303558006883,
0.19245074689388275,
-0.05759921669960022,
-0.07680804282426834,
0.02935987152159214,
-0.05778779461979866,
0.006428278982639313,
-0.07386559247970581,
0.0867847353219986,
0.09145189076662064,
0.08884020149707794,
-0.015067764557898045,
0.15744872391223907,
-0.09838800132274628,
0.08566179126501083,
0.07462667673826218,
-0.0628986805677414,
0.053452786058187485,
-0.03617696464061737,
-0.06128042936325073,
-0.04575057327747345,
0.09226489067077637,
-0.030591178685426712,
0.09740052372217178,
0.09007175266742706,
-0.09722645580768585,
-0.08373170346021652,
-0.038504283875226974,
-0.0749845877289772,
-0.09856367111206055,
0.08156561106443405,
0.011018306016921997,
-0.07698170095682144,
0.06341364234685898,
-0.09679584205150604,
0.05711962282657623,
-0.048897210508584976,
-0.024217933416366577,
0.09802794456481934,
-0.08916039764881134,
-0.027684852480888367,
0.10088825225830078,
-0.06740084290504456,
-0.02743713930249214,
-0.019366556778550148,
-0.0122650982812047,
0.04497354105114937,
-0.027348550036549568,
-0.01269860565662384,
-0.5042750835418701,
-0.24529245495796204,
-0.10301798582077026,
-0.0437612347304821,
0.07385017722845078,
-0.029376473277807236,
0.4959954619407654,
-0.09601712971925735,
0.4958348274230957,
0.0932426005601883,
0.38767141103744507,
0.010997883044183254,
-0.17514124512672424,
-0.5781393647193909,
-0.009241834282875061,
0.09084317833185196,
0.23635563254356384,
-0.09137032181024551,
0.054108500480651855,
0.07486041635274887,
-0.013335180468857288,
-0.0936804786324501,
-0.0722091943025589,
-0.058446962386369705,
-0.087647944688797,
0.06074985861778259,
-0.07781624048948288,
0.2184692621231079,
0.025317760184407234,
-0.029674507677555084,
0.042267296463251114,
-0.09493815153837204,
-0.16480490565299988,
-0.08057592809200287,
-0.02479781024158001,
0.005605295300483704,
-0.07604662328958511,
-0.010855050757527351,
0.08362673968076706,
-0.00888755451887846,
0.3355863392353058,
-0.058701783418655396,
-0.3362123966217041,
0.044650737196207047,
-0.12167390435934067,
-0.6542915105819702,
-0.09562423825263977,
0.026213405653834343,
-0.20063768327236176,
-0.07682820409536362,
0.007171370089054108,
-0.11075135320425034,
-0.02458941750228405,
0.02260175347328186,
-0.3059116303920746,
-0.07603918015956879,
0.08072001487016678,
0.050171464681625366,
0.09659195691347122,
0.038397349417209625,
0.05372011661529541,
-0.0092267245054245,
0.05739826709032059,
0.09188099205493927,
-0.5747206211090088,
-0.37580326199531555,
-0.00872210692614317,
-0.03737449645996094,
0.050028473138809204,
-0.06660372763872147,
0.6349796652793884,
0.021718140691518784,
0.20184475183486938,
0.08573286980390549,
0.5018773078918457,
-0.0729924738407135,
-0.23169906437397003,
-0.6238558292388916,
-0.017799802124500275,
0.07760598510503769,
0.6497601270675659,
-0.03550127521157265,
0.05935944616794586,
0.05710761994123459,
-0.04946480691432953,
-0.0609758198261261,
-0.10415948182344437,
-0.05805319920182228,
-0.0650443360209465,
-0.09783682972192764,
0.07633157819509506,
0.40204331278800964,
-0.0849139615893364,
0.05381031706929207,
0.0008271124097518623,
0.044449582695961,
0.06345322728157043,
0.0022868106607347727,
-0.08564111590385437,
0.03756833076477051,
-0.03977988660335541,
-0.004945745225995779,
0.08479633927345276,
-0.0040208944119513035,
-0.015259216539561749,
-0.0677834078669548,
-0.023792386054992676,
-0.06678853929042816,
0.07108311355113983,
0.04094836860895157,
0.030673518776893616,
0.03474818170070648,
-0.06482599675655365,
-0.05294448137283325,
0.08723101019859314,
-0.04351985454559326,
0.010134292766451836,
-0.07498383522033691,
0.11567997932434082,
0.01885797083377838,
-0.036149319261312485,
0.08834980428218842,
0.035959649831056595,
0.057731304317712784,
-0.061948012560606,
-0.05275614559650421,
-0.09169947355985641,
0.09870368242263794,
0.03284845128655434,
-0.054110296070575714,
-0.06530874222517014,
0.04217824339866638,
-0.0775982216000557,
0.07109144330024719,
0.06512904912233353,
0.07231870293617249,
0.044476985931396484,
-0.019078969955444336,
-0.03999845311045647,
-0.07814529538154602,
0.09851743280887604,
-0.06712241470813751,
0.03561778366565704,
0.06475892663002014,
0.021343007683753967,
-0.026619143784046173,
0.056567177176475525,
-0.06407330930233002,
-0.08083309978246689,
-0.08702665567398071,
-0.03682534769177437,
-0.07040806859731674,
0.049507468938827515,
-0.0208994522690773,
0.014232464134693146,
0.09736142307519913,
0.07380635291337967,
-0.09027531743049622,
0.09739407896995544,
0.05872316658496857,
0.006240740418434143,
0.07184994220733643,
-0.043540287762880325,
0.011155642569065094,
0.06430763006210327,
0.06764718890190125,
0.057610347867012024,
-0.10202693939208984,
0.02626049518585205,
-0.09978903830051422,
-0.04548012837767601,
-0.071515291929245,
0.09563153982162476,
0.09648999571800232,
0.030994370579719543,
0.09335827827453613,
0.010259829461574554,
0.05812846124172211,
0.08640313148498535,
-0.0035497918725013733,
-0.07519914209842682,
-0.04979582130908966,
-0.029531516134738922,
0.08998414874076843,
-0.06072431057691574,
0.004301503300666809,
-0.006997488439083099,
-0.004734322428703308,
0.07389512658119202,
-0.029995068907737732,
0.04580943286418915,
-0.07402125000953674,
-0.04581243917346001,
0.10740343481302261,
-0.065521240234375,
0.05493174493312836,
-0.02421906404197216,
0.023148201406002045,
0.12308319658041,
-0.061723675578832626,
-0.14474162459373474,
-0.07384650409221649,
0.14538328349590302,
-0.08386090397834778,
0.04666247218847275,
-0.018723247572779655,
0.06783144176006317,
-0.01107315719127655,
0.10733404755592346,
-0.03432155027985573,
0.041843414306640625,
-0.07898459583520889,
0.03087170422077179,
0.08644779026508331,
0.020759938284754753,
-0.08965345472097397,
0.011420147493481636,
-0.08041346818208694,
0.07986951619386673,
0.1846998929977417,
-0.0317196361720562,
-0.006310616619884968,
-0.005044085904955864,
0.07726067304611206,
0.04342441260814667,
-0.02027573622763157,
0.051777154207229614,
-0.0007118731737136841,
-0.06161272153258324,
0.10699662566184998,
0.06809283047914505,
-0.008790927939116955,
-0.012546761892735958,
-0.06635318696498871,
-0.016244949772953987,
-0.04332701116800308,
0.04825900122523308,
0.000397988740587607,
0.03719165921211243,
0.09335662424564362,
0.04101064056158066,
-0.040421221405267715,
0.054551929235458374,
0.04114660248160362,
-0.07143266499042511,
-0.006743662059307098,
-0.11453240364789963,
0.0713382214307785,
-0.10432891547679901,
0.05038057267665863,
0.08619463443756104,
-0.041998833417892456,
-0.08450440317392349,
-0.059323664754629135,
0.005837243050336838,
0.07015319168567657,
-0.07811020314693451,
-0.09138549119234085,
0.008666910231113434,
0.01837877184152603,
-0.07536783814430237,
0.07988187670707703,
0.08156724274158478,
-0.10067597031593323,
0.09799772500991821,
-0.016934677958488464,
-0.01542191207408905,
-0.039156824350357056,
0.10118940472602844,
-0.025798041373491287,
0.046762287616729736,
-0.09278261661529541,
-0.023211834952235222,
-0.022806592285633087,
-0.04223696142435074,
0.06750810146331787,
-0.0987997055053711,
0.08420409262180328,
0.03768182545900345,
0.0642612874507904,
0.07109862565994263,
-0.007289320230484009,
0.08580727875232697,
0.04511509835720062,
0.029912248253822327,
0.009807758033275604,
0.009111478924751282,
0.03478547930717468,
0.08752463757991791,
0.0487748384475708,
0.05460025370121002,
0.09837071597576141,
-0.06756050884723663,
0.01115301251411438,
-0.044613517820835114,
0.08260937035083771,
-0.033904366195201874,
0.006058163940906525,
-0.08933994174003601,
0.08172757923603058,
-0.013789795339107513,
0.027137339115142822,
0.061793431639671326,
0.09956607222557068,
0.031994014978408813,
-0.015354536473751068,
-0.027864068746566772,
-0.09233003854751587,
-0.0921296551823616,
-0.03036927431821823,
-0.04801361262798309,
-0.010697759687900543,
0.09426167607307434,
0.08168195188045502,
0.09912353754043579,
-0.05796508491039276,
0.06285050511360168,
0.027831897139549255,
-0.04387776926159859,
0.06761831045150757,
0.0812612920999527,
0.09056717157363892,
0.09142999351024628,
-0.014215357601642609,
-0.052073873579502106,
0.07949112355709076,
-0.09443630278110504,
-0.03581951558589935,
0.032948970794677734,
0.06006290018558502,
0.03448981046676636,
-0.016718082129955292,
-0.07443986088037491,
-0.050241515040397644,
0.01870199292898178,
0.05184626579284668,
0.01879575103521347,
-0.013294212520122528,
0.05651780962944031,
-0.08005496114492416,
-0.04419374093413353,
0.08630990982055664,
-0.03174791485071182,
-0.0483010858297348,
0.007650889456272125,
-0.016795247793197632,
0.05252411961555481,
0.0914926528930664,
0.06044882535934448,
-0.09812252968549728,
0.018204547464847565,
0.02512480318546295,
-0.05603072792291641,
0.04866323992609978,
0.052366554737091064,
0.10069677233695984,
-0.008763411082327366,
0.09878627210855484,
0.08287880569696426,
-0.011124007403850555,
0.047316212207078934,
0.02571551501750946,
0.025397969409823418,
-0.07032662630081177,
0.09555942565202713,
0.08874335885047913,
-0.0316942036151886,
-0.05654256045818329,
-0.008541553281247616,
0.09213106334209442,
0.0905105322599411,
-0.09801788628101349,
-0.029259592294692993,
0.03896069526672363,
-0.01695144921541214,
0.013466767966747284,
-0.019049331545829773,
0.017619594931602478,
0.0778844803571701,
-0.07808860391378403,
-0.05785611271858215,
0.006695166230201721,
0.02643938548862934,
-0.025498509407043457,
0.16093143820762634,
-0.17543940246105194,
-0.08597400039434433,
0.04893241822719574,
-0.09233677387237549,
0.00470850570127368,
0.0952887237071991,
-0.05534728616476059,
-0.03967713937163353,
0.038086097687482834,
0.08615487068891525,
-0.034819986671209335,
0.04375264793634415,
0.034296609461307526,
-0.009645409882068634,
-0.034032538533210754,
-0.06254701316356659,
0.020911013707518578,
-0.020573534071445465,
-0.019152846187353134,
-0.03918910771608353,
0.06767444312572479,
-0.0263774786144495,
-0.027574889361858368,
-0.045708317309617996,
0.07557345926761627,
0.030555639415979385,
-0.1695895493030548,
0.05181051045656204,
-0.043518126010894775,
0.041960690170526505,
0.03227455914020538,
0.021820060908794403,
0.052127912640571594,
-0.007370956242084503,
0.0543832927942276,
-0.06975357234477997,
-0.1016862690448761,
-0.04829836264252663,
-0.026472434401512146,
-0.008500590920448303,
-0.04133915156126022,
0.0668586939573288,
0.008956819772720337,
-0.01374061405658722,
0.09611265361309052,
-0.0911467969417572,
-0.07843907177448273,
-0.031002208590507507,
-0.04045431315898895,
0.09664660692214966,
-0.045284245163202286,
0.06139048933982849,
0.09234480559825897,
0.022459015250205994,
0.10166600346565247,
0.0751567929983139,
0.05966264009475708,
-0.08638806641101837,
0.0576179176568985,
0.07165680825710297,
-0.08152346312999725,
-0.062434468418359756,
-0.07868540287017822,
0.02694346010684967,
-0.08019311726093292,
0.010138111189007759,
0.049141764640808105,
0.020971642807126045,
0.08862701803445816,
0.16735923290252686,
0.06856323778629303,
-0.13274626433849335,
-0.08648452907800674,
0.24794408679008484,
-0.03056729957461357,
-0.07070004940032959,
-0.1376381367444992,
-0.058290254324674606,
-0.004168549086898565,
-0.0031414732802659273,
0.006339417304843664,
-0.022491641342639923,
0.07643378525972366,
0.09204785525798798,
0.07055075466632843,
0.1024680808186531,
-0.022316686809062958,
0.06259735673666,
0.023303434252738953,
-0.03256002813577652,
0.011734825558960438,
0.004923740401864052,
0.08889663219451904,
0.05685443803668022,
-0.00012889504432678223,
-0.021348774433135986,
-0.06798676401376724,
0.04033714532852173,
0.08893612027168274,
0.004954107105731964,
0.04502439498901367,
-0.061862021684646606,
-0.08751074224710464,
-0.09054851531982422,
-0.00028837472200393677,
0.006962515413761139,
0.05200788378715515,
-0.04728277772665024,
0.054801538586616516,
0.05906514823436737,
-0.0967026948928833,
0.024968594312667847,
0.07058684527873993,
-0.03859604150056839,
-0.09574541449546814,
-0.08217465132474899,
-0.023235298693180084,
0.012290947139263153,
0.09162828326225281,
0.08554072678089142,
-0.06179792806506157,
-0.021636471152305603,
-0.1013663113117218,
-0.08056491613388062,
0.06073343753814697,
0.011793859302997589,
-0.0779644250869751,
-0.026811780408024788,
0.0918312817811966,
-0.031662777066230774,
0.04831583797931671,
0.02791323885321617,
0.08142294734716415,
0.08524032682180405,
-0.046472761780023575,
-0.1892966628074646,
-0.007046571932733059,
0.13966475427150726,
-0.08684006333351135,
0.08731596916913986,
-0.015754850581288338,
0.09226365387439728,
-0.034851279109716415,
-0.021843653172254562,
0.07682099938392639,
-0.086590476334095,
-0.09273558855056763,
0.09908989071846008,
-0.05998486280441284,
0.05000291392207146,
-0.08793069422245026,
-0.05491748824715614,
0.025999799370765686,
0.09460072964429855,
0.07967206090688705,
0.007187405601143837,
0.016186250373721123,
0.04684942215681076,
0.074614018201828,
0.13473159074783325,
0.036683470010757446,
-0.013772828504443169,
-0.09180445969104767,
-0.017095360904932022,
-0.03303257003426552,
0.08500546216964722,
0.051760654896497726,
-0.05672353878617287,
-0.027834411710500717,
0.010071825236082077,
-0.06895469129085541,
0.12312279641628265,
0.02415461465716362,
0.03579491376876831,
-0.017888695001602173,
0.10453713685274124,
0.015170695260167122,
-0.08242873847484589,
0.08668816834688187,
-0.09880892932415009,
0.020848892629146576,
0.03563886135816574,
-0.04990449547767639,
0.08128653466701508,
0.03724890947341919,
-0.05451415479183197,
-0.021634645760059357,
-0.06301958858966827,
0.06414342671632767,
