constexpr int conv2d_weights_dims[4] = {3,3,1,32};
constexpr float conv2d_weights[288] = { 
0.07157520949840546,
0.156854048371315,
-0.12295439839363098,
-0.102935291826725,
-0.027857698500156403,
-0.004343213979154825,
0.10636639595031738,
0.17360256612300873,
0.030271798372268677,
0.025437572970986366,
0.02230423130095005,
-0.2914406955242157,
0.054942548274993896,
-0.007021293044090271,
-0.03372732549905777,
0.10348367691040039,
0.08553552627563477,
0.07845060527324677,
-0.2166370451450348,
-0.09015293419361115,
0.06692595034837723,
-0.11333991587162018,
-0.10555315017700195,
-0.07884235680103302,
0.07835184037685394,
-0.0639694407582283,
-0.2700996398925781,
-0.19252711534500122,
0.2523520290851593,
-0.04598706588149071,
-0.1383001208305359,
-0.006368115544319153,
0.07442086189985275,
0.1368696689605713,
-0.09023948758840561,
-0.06298171728849411,
-0.10583268105983734,
0.25200986862182617,
-0.055979032069444656,
0.014938383363187313,
-0.09228712320327759,
0.20136843621730804,
0.21646463871002197,
-0.06523266434669495,
-0.054146092385053635,
0.03014170564711094,
-0.14112132787704468,
-0.14007005095481873,
0.06503184884786606,
0.3074771463871002,
-0.04670663923025131,
0.017919018864631653,
0.10953547805547714,
0.0784376710653305,
0.02220976911485195,
-0.08526631444692612,
0.11364349722862244,
0.031937941908836365,
-0.07487944513559341,
-0.15407204627990723,
0.07859122008085251,
0.23715756833553314,
0.020457549020648003,
-0.07055361568927765,
-0.01469985581934452,
0.13021039962768555,
-0.12980546057224274,
0.06297944486141205,
0.04096044600009918,
0.22147589921951294,
0.020034488290548325,
-0.16280442476272583,
-0.10538255423307419,
0.07860357314348221,
0.29435503482818604,
0.08865901082754135,
0.13571710884571075,
0.21028649806976318,
-0.023924902081489563,
0.05489487946033478,
0.0121400011703372,
0.2810336947441101,
-0.032455477863550186,
-0.1060941219329834,
0.1096656322479248,
0.02618667483329773,
-0.05064687132835388,
0.05966995656490326,
-0.016893282532691956,
-0.09185506403446198,
0.12485186755657196,
0.10343942046165466,
-0.154619038105011,
0.1746702492237091,
0.10699967294931412,
-0.13203667104244232,
-0.1465165913105011,
0.14323250949382782,
0.11348436772823334,
0.0032102749682962894,
0.09335722029209137,
0.21271920204162598,
0.050578027963638306,
0.25123658776283264,
0.008189931511878967,
0.25813090801239014,
0.0989408865571022,
-0.11179360002279282,
-0.10663322359323502,
-0.03280496969819069,
-0.1412682682275772,
-0.07029634714126587,
-0.009100303053855896,
0.10224023461341858,
-0.12228959798812866,
-0.06551050394773483,
-0.09526830911636353,
-0.09970784187316895,
-0.04394291341304779,
0.10442018508911133,
0.09314622730016708,
0.06235271692276001,
-0.021626709029078484,
-0.029748808592557907,
0.21174806356430054,
0.10073186457157135,
-0.027334000915288925,
-0.1332668513059616,
-0.06794673204421997,
0.19282440841197968,
0.027115732431411743,
-0.14167162775993347,
-0.00894215703010559,
0.18644045293331146,
-0.12171761691570282,
-0.07536087185144424,
-0.06699954718351364,
0.2545962929725647,
-0.07019198685884476,
-0.04219500720500946,
0.17514748871326447,
0.250398188829422,
-0.14185336232185364,
0.059807538986206055,
0.11264190077781677,
0.199252188205719,
-0.08985692262649536,
0.13987483084201813,
-0.10245504230260849,
-0.1290777027606964,
-0.04214048013091087,
-0.09208177030086517,
-0.14345675706863403,
0.07738876342773438,
-0.07034581154584885,
0.02233411744236946,
0.10227683931589127,
0.2660489082336426,
-0.1390625536441803,
-0.036999620497226715,
0.030304839834570885,
0.09766445308923721,
-0.04754427820444107,
-0.08074955642223358,
-0.0482453778386116,
0.16082239151000977,
-0.12344612181186676,
-0.2472257763147354,
-0.06480541080236435,
0.36189165711402893,
0.16220881044864655,
0.09172672033309937,
0.24185912311077118,
0.17385627329349518,
-0.07688315957784653,
-0.07737961411476135,
0.017975198104977608,
0.03444909304380417,
0.08341100811958313,
-0.07877319306135178,
0.13709379732608795,
0.014024138450622559,
0.11790630221366882,
-0.04214850068092346,
0.03342617303133011,
-0.10379303246736526,
0.14111709594726562,
0.15324629843235016,
-0.08186536282300949,
0.22489015758037567,
-0.04172758385539055,
0.10239182412624359,
-0.13211467862129211,
-0.08730998635292053,
-0.12027234584093094,
-0.011535188183188438,
-0.09805573523044586,
0.2295948714017868,
0.057916682213544846,
0.04646427184343338,
0.04350924491882324,
0.32177627086639404,
-0.12335681915283203,
-0.1583329439163208,
0.14183275401592255,
0.0664849504828453,
0.029648780822753906,
-0.012589827179908752,
0.13888202607631683,
0.16601546108722687,
0.008804745972156525,
0.029980137944221497,
-0.02768094278872013,
-0.050099149346351624,
-0.13826197385787964,
-0.03805873543024063,
-0.10189568251371384,
-0.07581333816051483,
-0.1443558633327484,
-0.18555137515068054,
-0.08468492329120636,
0.1840585470199585,
-0.11650606989860535,
0.0707474797964096,
-0.09396166354417801,
-0.034137021750211716,
0.012704268097877502,
-0.03171407803893089,
-0.14024880528450012,
0.17996437847614288,
-0.019753895699977875,
0.0008076761732809246,
-0.07883869856595993,
0.2948659360408783,
-0.1365504115819931,
0.0316014438867569,
0.22056478261947632,
0.27487871050834656,
0.08779996633529663,
-0.11898577958345413,
-0.07301809638738632,
0.15081635117530823,
0.14475823938846588,
-0.1406625658273697,
0.09878212958574295,
-0.012310147285461426,
-0.08776631206274033,
-0.0790586993098259,
-0.132165789604187,
0.0549720823764801,
0.13400456309318542,
-0.03374049812555313,
-0.15450836718082428,
0.061909593641757965,
0.1062331274151802,
-0.07582885771989822,
0.07082565128803253,
0.0344751738011837,
0.0028400570154190063,
0.11805257946252823,
-0.10018183290958405,
0.03377927467226982,
-0.09682732820510864,
-0.1972137987613678,
0.1401786059141159,
0.29732033610343933,
-0.242914080619812,
0.24481713771820068,
0.15786515176296234,
0.15711113810539246,
0.12936390936374664,
-0.03163871169090271,
0.1005517765879631,
0.23033268749713898,
0.27900171279907227,
-0.10782460868358612,
0.12220905721187592,
0.03676627576351166,
0.04196995124220848,
-0.13074079155921936,
-0.08569487929344177,
-0.1260867714881897,
0.16608926653862,
0.14965619146823883,
-0.2443566471338272,
0.10435113310813904,
0.15829695761203766,
0.01324683427810669
};
constexpr int conv2d_bias_dims[1] = {32};
constexpr float conv2d_bias[32] = { 
-0.01780223473906517,
-0.10682486742734909,
0.0,
-0.019005220383405685,
0.0,
-0.048414383083581924,
-0.007691349368542433,
0.11259808391332626,
0.0,
-0.22790966928005219,
-0.06607862561941147,
0.10679484158754349,
-0.09898469597101212,
-0.2148384004831314,
0.0,
0.0,
-0.062137432396411896,
-0.1358281373977661,
0.015961723402142525,
0.0,
-0.06475313007831573,
0.0,
-0.015067878179252148,
0.0,
-0.016380146145820618,
0.0,
0.009558784775435925,
0.09085000306367874,
0.05515226349234581,
-0.1728905737400055,
0.04352041333913803,
0.0
};

//------------------------------------------------------------------
//------------------------------------------------------------------
//------------------------------------------------------------------
constexpr int conv2d_1_weights_dims[4] = {3,3,32,32};
constexpr float conv2d_1_weights[9216] = { 
0.005984869319945574,
-0.04980146512389183,
0.0489439032971859,
0.02999989688396454,
-0.06188651919364929,
-0.04017546772956848,
0.11278914660215378,
0.05114789307117462,
0.08774632215499878,
-0.07270436733961105,
0.007379643619060516,
-0.03364881873130798,
-0.06545630842447281,
0.060025885701179504,
0.02163712866604328,
0.06899423897266388,
-0.10198221355676651,
-0.008582023903727531,
-0.001979188295081258,
0.008596381172537804,
0.1042364090681076,
-0.08120651543140411,
0.11971314996480942,
0.009949743747711182,
0.022182632237672806,
0.05511324852705002,
-0.05491859093308449,
-0.02792862057685852,
0.03491199016571045,
0.08390697836875916,
-0.08615830540657043,
-0.07925070077180862,
-0.0523650161921978,
-0.10622459650039673,
-0.04082287847995758,
-0.09815078228712082,
-0.033884890377521515,
-0.0016156744677573442,
0.05072726309299469,
-0.11450519412755966,
-0.08933067321777344,
-0.07365421205759048,
-0.06764096021652222,
-0.07415374368429184,
0.03698188439011574,
0.05337999388575554,
-0.0030716420151293278,
0.08749733120203018,
-0.09196681529283524,
0.012218277901411057,
0.08858669549226761,
-0.07615938782691956,
-0.06087486073374748,
-0.020831085741519928,
0.01328066922724247,
-0.059436459094285965,
0.11318150162696838,
0.05440700426697731,
0.01325872540473938,
0.036671772599220276,
0.012588568031787872,
0.09213367104530334,
-0.07583361119031906,
0.006989424582570791,
0.09231984615325928,
0.02987043559551239,
0.010593414306640625,
0.010838598012924194,
0.029091447591781616,
-0.012525402009487152,
-0.023098938167095184,
0.026109471917152405,
-0.0010475292801856995,
0.061494410037994385,
0.0954863578081131,
-0.014585547149181366,
0.09546665847301483,
0.01298600435256958,
0.007502652704715729,
-0.01343856006860733,
-0.04119619354605675,
0.020891278982162476,
0.017862126231193542,
0.0703137218952179,
0.10191100835800171,
-0.03706492483615875,
0.007190205156803131,
-0.05148923769593239,
0.005964994430541992,
-0.05297375097870827,
-0.040858663618564606,
0.012714885175228119,
0.0787213146686554,
0.05541400611400604,
0.047350406646728516,
-0.02283686399459839,
0.09949958324432373,
0.01507808268070221,
-0.018310174345970154,
0.10195502638816833,
0.09824474155902863,
-0.05035329982638359,
-0.0977313369512558,
-0.021639995276927948,
-0.055703967809677124,
-0.007156056351959705,
0.09317682683467865,
-0.05285140126943588,
-0.06125079095363617,
-0.0030830278992652893,
0.09499456733465195,
-0.07851637899875641,
-0.08929506689310074,
0.08381059765815735,
0.07621131837368011,
-0.025552090257406235,
0.030730461701750755,
0.060487985610961914,
-0.05662655830383301,
0.08090892434120178,
0.10102403908967972,
0.0662340596318245,
0.06781353056430817,
-0.07975607365369797,
0.05398283898830414,
-0.08084267377853394,
-0.08050844818353653,
-0.06457929313182831,
0.0411214679479599,
0.08466540277004242,
0.09790930151939392,
0.049299657344818115,
0.007256247103214264,
0.018042802810668945,
0.06325645744800568,
-0.005247078835964203,
-0.07609592378139496,
0.05447889864444733,
-0.004529118537902832,
-0.009607523679733276,
-0.0762997418642044,
0.019945800304412842,
-0.08084419369697571,
0.08080099523067474,
-0.045248087495565414,
0.024107173085212708,
-0.004442907869815826,
-0.015387676656246185,
-0.06006453186273575,
0.011801697313785553,
0.07502926886081696,
-0.035069361329078674,
-0.08330868929624557,
0.04984976351261139,
0.07291585206985474,
-0.09887005388736725,
-0.05384206771850586,
-0.05101911351084709,
0.005651138722896576,
0.04006035625934601,
-0.07599939405918121,
-0.0439312718808651,
-0.13321058452129364,
-0.02875032089650631,
0.05128498375415802,
-0.07446902245283127,
-0.030981676653027534,
-0.029041577130556107,
-0.09508301317691803,
0.08195120096206665,
-0.01629185676574707,
-0.10941337794065475,
0.11512051522731781,
-0.016097523272037506,
-0.0029001038055866957,
-0.07977326959371567,
-0.05163003131747246,
-0.0335703082382679,
-0.07219689339399338,
-0.028342818841338158,
-0.017606841400265694,
0.004900570493191481,
0.11719577759504318,
0.01222984492778778,
0.14607873558998108,
0.11753631383180618,
0.004171125590801239,
-0.02333063632249832,
0.004707701504230499,
-0.09916584938764572,
0.001319024944677949,
0.08064167201519012,
-0.027627520263195038,
0.0527903288602829,
-0.04790031537413597,
0.09205271303653717,
0.07466063648462296,
0.08505428582429886,
0.02392008528113365,
0.051015883684158325,
0.08982539176940918,
0.02469995617866516,
0.04844701290130615,
-0.03771613538265228,
0.005893171764910221,
-0.09683947265148163,
0.02741890214383602,
-0.07658667862415314,
0.08057786524295807,
-0.007780805230140686,
0.089625783264637,
0.11122367531061172,
0.0010965156834572554,
-0.07620826363563538,
-0.08162526041269302,
0.013085141777992249,
0.0015904204919934273,
0.03162567317485809,
0.08801588416099548,
-0.05809220299124718,
0.046071723103523254,
0.025474324822425842,
-0.014937624335289001,
0.03566058352589607,
-0.06559515744447708,
-0.009040040895342827,
-0.1683868169784546,
-0.04270869120955467,
0.029749924317002296,
0.17494741082191467,
0.2851806879043579,
-0.009534094482660294,
-0.0726863443851471,
0.018891174346208572,
-0.04985183849930763,
-0.024066394194960594,
-0.33286651968955994,
-0.012670877389609814,
0.16873864829540253,
-0.06601784378290176,
-0.06389223784208298,
-0.07078231126070023,
-0.06344112008810043,
-0.14465099573135376,
-0.22962386906147003,
-0.008988700807094574,
-0.5433651208877563,
-0.09075503051280975,
0.09444102644920349,
-0.18060089647769928,
-0.0639406368136406,
0.00028137117624282837,
0.0052098482847213745,
0.041874319314956665,
-0.06509705632925034,
0.0901283547282219,
-0.0844084620475769,
0.07685945928096771,
-0.03263126313686371,
-0.09950274974107742,
0.0878056138753891,
-0.06749042868614197,
0.09463600814342499,
-0.09425432980060577,
-0.07003743946552277,
-0.06340736895799637,
-0.0274968221783638,
-0.02120719850063324,
0.05840021371841431,
0.022596202790737152,
0.03745114803314209,
-0.05118012800812721,
-0.05135795846581459,
0.07542726397514343,
0.006415866315364838,
0.04115881025791168,
-0.014913149178028107,
0.07352258265018463,
-0.08020943403244019,
-0.02718503773212433,
0.07369694113731384,
0.00470743328332901,
-0.07299841940402985,
0.018428631126880646,
0.04441040754318237,
0.050698429346084595,
0.03685091435909271,
0.07243220508098602,
-0.12824156880378723,
0.009010410867631435,
0.021820252761244774,
-0.0631130114197731,
-0.030781282112002373,
-0.10811841487884521,
-0.14262086153030396,
0.03873143345117569,
0.046429798007011414,
0.020875655114650726,
-0.0748249888420105,
0.004513832274824381,
0.11881258338689804,
0.02460748329758644,
-0.09369082003831863,
-0.01036562118679285,
-0.07871705293655396,
-0.05443107336759567,
0.004039454273879528,
-0.00751992454752326,
0.02421622723340988,
0.06714469194412231,
0.03031560406088829,
-0.01573006808757782,
0.07963621616363525,
0.06074781343340874,
-0.022417692467570305,
-0.09151185303926468,
-0.05520566925406456,
-0.0913100466132164,
-0.033068373799324036,
0.06429098546504974,
-0.09331626445055008,
0.05010994151234627,
-0.07652876526117325,
-0.10141773521900177,
-0.07842198014259338,
-0.0889064222574234,
-0.09164026379585266,
0.012171920388936996,
-0.007562361657619476,
-0.02247966267168522,
0.005839966237545013,
-0.05793814733624458,
0.2055702954530716,
-0.03699381276965141,
0.1461619883775711,
0.03091450035572052,
-0.03512802720069885,
0.05870356783270836,
-0.0846768319606781,
-0.04698996618390083,
-0.014254768379032612,
-0.10317421704530716,
0.04980967566370964,
-0.09815020114183426,
0.12654875218868256,
0.09093805402517319,
0.048222512006759644,
0.08313067257404327,
-0.06770177185535431,
-0.057194385677576065,
0.06882288306951523,
0.09476128965616226,
-0.018046488985419273,
0.013426737859845161,
0.1727903187274933,
-0.08728863298892975,
-0.021378593519330025,
0.01679728738963604,
0.17549526691436768,
-0.05071461945772171,
-0.08191851526498795,
-0.03445468470454216,
0.016824834048748016,
0.09598107635974884,
0.27644968032836914,
-0.05154252424836159,
-0.12982596457004547,
0.08143779635429382,
-0.06901317834854126,
0.08224566280841827,
0.0636606439948082,
0.09899786859750748,
0.003609069623053074,
0.015595408156514168,
-0.050760556012392044,
-0.01646392047405243,
-0.2290344089269638,
-0.01823844574391842,
-0.07069757580757141,
0.08898578584194183,
-0.08553403615951538,
-0.10238026827573776,
0.03170466795563698,
0.09898114949464798,
-0.1206374540925026,
0.08946282416582108,
-0.046858128160238266,
0.07767434418201447,
-0.029597075656056404,
-0.092073455452919,
-0.126901775598526,
-0.09103403240442276,
-0.02221567928791046,
-0.01933140680193901,
0.008171550929546356,
-0.10473501682281494,
0.13058002293109894,
-0.002456793561577797,
-0.03601343557238579,
-0.08669941872358322,
-0.0069655850529670715,
0.01116232294589281,
0.06835572421550751,
0.010415471158921719,
0.11150064319372177,
-0.0910734087228775,
0.13048452138900757,
0.004407599568367004,
0.0370032824575901,
0.15084321796894073,
0.04942959547042847,
0.029256671667099,
-0.07600097358226776,
-0.027689483016729355,
0.05859697237610817,
-0.07370024174451828,
0.030840329825878143,
0.07028886675834656,
0.023894932121038437,
0.0492761954665184,
-0.07649967074394226,
-0.11644966155290604,
-0.17309194803237915,
-0.0009293759358115494,
0.08768375217914581,
-0.08939104527235031,
-0.06856471300125122,
0.057718824595212936,
0.017927728593349457,
-0.06520149856805801,
0.015684662386775017,
-0.08345697075128555,
-0.0008967146277427673,
-0.1009526178240776,
-0.028304221108555794,
0.065061055123806,
0.056414894759655,
-0.021812232211232185,
-0.03277234733104706,
-0.05459176003932953,
0.0025644332636147738,
0.09801916778087616,
0.008585640229284763,
0.04710245132446289,
-0.07837848365306854,
-0.007953423075377941,
0.0686875507235527,
0.03272707015275955,
0.08809162676334381,
0.06097932159900665,
0.07988283038139343,
0.041326165199279785,
0.04779268801212311,
0.007360033690929413,
-0.017188839614391327,
-0.018338888883590698,
0.01564130187034607,
0.05122312903404236,
0.017392143607139587,
-0.020913518965244293,
0.09265013039112091,
0.045122817158699036,
-0.021025456488132477,
0.04541712999343872,
-0.0777011588215828,
0.06499026715755463,
0.0154428631067276,
-0.012775987386703491,
0.0639985054731369,
0.01398438960313797,
0.01906140148639679,
-0.09771346300840378,
-0.01638510823249817,
-0.012965686619281769,
0.0013774484395980835,
0.025660932064056396,
0.04357118904590607,
-0.09524351358413696,
-0.016928665339946747,
-0.03178122639656067,
-0.09725558012723923,
-0.049970462918281555,
-0.008577361702919006,
-0.08202147483825684,
0.04653805494308472,
0.000934600830078125,
-0.0903480052947998,
-0.07285448908805847,
0.05127254128456116,
0.07795342803001404,
-0.04487641528248787,
-0.09984417259693146,
-0.08742078393697739,
0.023589789867401123,
-0.055479615926742554,
-0.02098333090543747,
-0.007135115563869476,
0.060622647404670715,
-0.05291863530874252,
-0.017596036195755005,
0.03410801291465759,
-0.0006279051303863525,
-0.030578099191188812,
0.1017586886882782,
0.07900762557983398,
-0.06122962012887001,
-0.06604930758476257,
0.09998771548271179,
-0.047226350754499435,
0.006828024983406067,
-0.07475598156452179,
0.06101551651954651,
0.03529268130660057,
0.0478452667593956,
-0.021322820335626602,
-0.01669248379766941,
-0.07667500525712967,
-0.09727460145950317,
-0.015591795556247234,
0.027181735262274742,
0.07472814619541168,
0.07317175716161728,
0.1003236174583435,
0.04669136554002762,
0.03369469940662384,
0.05355585366487503,
-0.03463983163237572,
0.09610000997781754,
-0.02790307253599167,
-0.06673344224691391,
0.0035509781446307898,
-0.08349944651126862,
0.10417700558900833,
-0.08446145802736282,
0.009755411185324192,
-0.07531345635652542,
-0.024899838492274284,
0.09837741404771805,
0.053243931382894516,
-0.04413682222366333,
-0.09147218614816666,
0.08611162006855011,
-0.0519210547208786,
-0.016771668568253517,
-0.0245127622038126,
-0.06822744011878967,
-0.02465909719467163,
-0.06426936388015747,
0.04478597268462181,
0.04721418395638466,
-0.14307215809822083,
0.0272226519882679,
-0.005407586693763733,
0.08084645867347717,
0.019138269126415253,
-0.018018368631601334,
0.08822665363550186,
-0.045666519552469254,
0.07491202652454376,
0.014073948375880718,
0.0472293496131897,
0.054926056414842606,
-0.05502813309431076,
0.0836428701877594,
0.047924626618623734,
-0.05592724308371544,
0.05098167061805725,
-0.07416883111000061,
0.02574683539569378,
0.023966625332832336,
-0.012174805626273155,
0.03513985872268677,
0.05359293520450592,
0.046528834849596024,
-0.005695638246834278,
-0.05992882326245308,
-0.043460309505462646,
-0.09872820973396301,
0.12611694633960724,
-0.08979814499616623,
-0.07311432808637619,
0.15779288113117218,
-0.15208745002746582,
-0.00488876411691308,
0.0918521136045456,
-0.008044470101594925,
-0.08401715755462646,
0.047043416649103165,
0.0187714584171772,
-0.06661458313465118,
-0.1279025375843048,
0.046297747641801834,
0.023667439818382263,
-0.00886106863617897,
-0.05738525092601776,
-0.0713905617594719,
-0.008978346362709999,
0.07369306683540344,
-0.03943793475627899,
-0.0573989674448967,
-0.3406394422054291,
-0.02209804393351078,
-0.03812091052532196,
0.07363739609718323,
0.07287478446960449,
0.03841520845890045,
-0.03526006639003754,
-0.0365770049393177,
0.09347164630889893,
0.0744694322347641,
-0.046678945422172546,
-0.001883000135421753,
0.014862947165966034,
0.0849747508764267,
0.09515935182571411,
0.03519749641418457,
-0.06828071177005768,
-0.05402442440390587,
0.0663260817527771,
0.02215506136417389,
-0.08896846324205399,
-0.06944125145673752,
0.01301112025976181,
-0.06852176040410995,
0.003009691834449768,
0.09471061825752258,
-0.037952907383441925,
0.013348527252674103,
0.03185662627220154,
-0.033986933529376984,
0.0020492225885391235,
0.08917780220508575,
-0.07810543477535248,
0.057806000113487244,
-0.08713608235120773,
0.01663481444120407,
0.029040053486824036,
-0.0036366432905197144,
0.021136805415153503,
-0.055936623364686966,
0.05015428736805916,
-0.0996551662683487,
0.006264617200940847,
0.008593320846557617,
-0.09487331658601761,
-0.10325133055448532,
-0.12102088332176208,
-0.023031728342175484,
-0.008036233484745026,
0.05754294991493225,
0.009630493819713593,
-0.013811139389872551,
0.051245760172605515,
-0.03804565593600273,
0.08858954906463623,
-0.06373291462659836,
-0.08488503843545914,
-0.03576875478029251,
0.04902774840593338,
0.09477044641971588,
0.08464490622282028,
-0.11006508022546768,
-0.04290815442800522,
-0.07090149819850922,
0.09616287797689438,
0.13734027743339539,
-0.020862001925706863,
-0.08352053910493851,
-0.05063004791736603,
-0.031117476522922516,
-0.0431993268430233,
-0.05321463942527771,
0.08593137562274933,
-0.055905744433403015,
-0.04753492400050163,
0.07835841178894043,
-0.09068548679351807,
0.10144753754138947,
0.08437274396419525,
0.04511263966560364,
-0.017611682415008545,
0.06276310980319977,
0.09563009440898895,
0.03180103003978729,
-0.012091144919395447,
-0.09410767257213593,
0.01637089252471924,
-0.004011593759059906,
-0.09407655149698257,
-0.032492369413375854,
0.018584296107292175,
-0.008013211190700531,
-0.07437063008546829,
0.08434697985649109,
0.09445910155773163,
-0.06253448128700256,
0.09560652077198029,
-0.07133755832910538,
0.1017550677061081,
-0.007131807506084442,
0.019475139677524567,
0.04872006177902222,
-0.0381181538105011,
-0.06956125795841217,
0.04260566830635071,
-0.019222958013415337,
0.0777541846036911,
0.07275080680847168,
-0.029851458966732025,
-0.027965515851974487,
-0.07157967984676361,
-0.03561416268348694,
-0.07141455262899399,
-0.1013399064540863,
0.013618536293506622,
-0.032138049602508545,
-0.07044471800327301,
0.05196179449558258,
-0.013366363942623138,
-0.07694781571626663,
-0.06343194842338562,
-0.07777649164199829,
-0.02732432633638382,
-0.06683935970067978,
-0.03447850048542023,
-0.07007075846195221,
0.03212569281458855,
0.05668896436691284,
0.09045402705669403,
0.008211840875446796,
0.0219414159655571,
0.08880122005939484,
-0.07508530467748642,
0.04244144260883331,
-0.06589259952306747,
0.07356685400009155,
0.10038989782333374,
0.04613010585308075,
0.024006813764572144,
0.0006522387266159058,
-0.044311318546533585,
-0.07971730828285217,
-0.003867104649543762,
-0.025998346507549286,
0.07890580594539642,
0.07075469195842743,
-0.05772493779659271,
0.06018882989883423,
-0.04445333033800125,
0.08822931349277496,
0.044261783361434937,
-0.05544418469071388,
-0.10118626803159714,
-0.09761428087949753,
-0.01126183569431305,
0.03999647498130798,
-0.00172366201877594,
-0.02826615422964096,
0.06714333593845367,
-0.09869767725467682,
0.07746830582618713,
0.09135521948337555,
-0.09631377458572388,
-0.08147715777158737,
-0.09987162053585052,
0.01945110410451889,
0.009723395109176636,
-0.01968720555305481,
0.04823650047183037,
0.029861578717827797,
0.07973984628915787,
0.01075723022222519,
-0.03734692931175232,
0.10372424870729446,
-0.010380793362855911,
-0.09292609244585037,
0.0976513922214508,
0.04856560751795769,
-0.02415885031223297,
-0.08535309135913849,
-0.03556428849697113,
-0.028957054018974304,
0.052491262555122375,
0.009366068057715893,
-0.04721737280488014,
-0.04307479411363602,
0.09325875341892242,
0.046914372593164444,
-0.0906643494963646,
0.018434852361679077,
-0.046933241188526154,
0.08904781937599182,
0.0904964953660965,
-0.005314151756465435,
-0.067002072930336,
-0.01058061420917511,
-0.035804472863674164,
-0.03300094231963158,
0.014686492271721363,
0.09020956605672836,
-0.03407273441553116,
-0.06292828917503357,
-0.08385205268859863,
-0.029180750250816345,
-0.01773855835199356,
-0.04582914337515831,
0.08057749271392822,
-0.027905188500881195,
-0.03286880999803543,
0.05529983341693878,
-0.06670460850000381,
-0.019206352531909943,
-0.07350506633520126,
-0.0332636684179306,
-0.008244067430496216,
0.05311658978462219,
0.08256761729717255,
-0.05037843808531761,
-0.010929927229881287,
-0.02438388764858246,
-0.009725973010063171,
-0.04338168352842331,
0.015163980424404144,
-0.007758468389511108,
0.056776389479637146,
-0.08713950961828232,
0.04892222583293915,
-0.04473382234573364,
-0.06839960813522339,
0.09649087488651276,
0.04136650264263153,
0.09106336534023285,
-0.14307430386543274,
-0.08640806376934052,
0.3186173141002655,
-0.04794186353683472,
-0.0021243810188025236,
0.009544565342366695,
0.015406206250190735,
0.004336006008088589,
-0.07659906893968582,
0.09427878260612488,
-0.0411783829331398,
-0.07622800767421722,
0.12976521253585815,
0.021474963054060936,
-0.03963342681527138,
0.004294275771826506,
-0.05462877079844475,
-0.02251254767179489,
0.021086351945996284,
-0.04081661254167557,
-0.11726828664541245,
0.06965165585279465,
0.01769188977777958,
0.04337635636329651,
-0.20106381177902222,
0.12813016772270203,
-0.059322286397218704,
0.04740060865879059,
-0.07442282885313034,
-0.06902442872524261,
-0.0011288730893284082,
0.04189256951212883,
-0.09084450453519821,
0.06599630415439606,
0.3761281371116638,
0.07912825047969818,
-0.02890220284461975,
0.07520812749862671,
0.24474339187145233,
-0.007007782347500324,
-0.060643792152404785,
0.07667151838541031,
0.04173405468463898,
0.0022274476941674948,
0.31138375401496887,
-0.08118382841348648,
-0.1750795543193817,
0.04784007370471954,
-0.0020141825079917908,
-0.10666894167661667,
-0.09739402681589127,
0.01583079807460308,
-0.060457389801740646,
0.002669973997399211,
-0.09019528329372406,
-0.09887202829122543,
-0.311514288187027,
-0.05492511764168739,
-0.07039451599121094,
0.023940905928611755,
-0.04351566359400749,
0.05092674121260643,
-0.0683833658695221,
0.04898751527070999,
0.01848641410470009,
-0.011918816715478897,
0.02789044938981533,
-0.0037299320101737976,
-0.02004932053387165,
0.30650582909584045,
0.23496103286743164,
-0.0718909427523613,
0.0509800910949707,
-0.0047136880457401276,
-0.07213117182254791,
-0.06613915413618088,
0.177411749958992,
-0.05160178244113922,
0.45943424105644226,
-0.02530442178249359,
0.08835241198539734,
0.08318251371383667,
-0.09063807874917984,
-0.06494691967964172,
-0.36489996314048767,
0.010174336843192577,
-0.45588240027427673,
-0.06627672910690308,
0.27556148171424866,
-0.2913130819797516,
0.03211626037955284,
0.0926407128572464,
0.07809513807296753,
-0.07061470299959183,
-0.0969369187951088,
-0.041774749755859375,
0.013321301899850368,
0.09523005038499832,
-0.10340403020381927,
-0.0366998054087162,
0.05533719062805176,
-0.12349975109100342,
-0.17252857983112335,
-0.06394622474908829,
-0.07037139683961868,
-0.07610727101564407,
0.03144451975822449,
-0.09685350209474564,
0.10539928078651428,
-0.060543909668922424,
0.08710025250911713,
0.07876516878604889,
0.028575018048286438,
0.09247522801160812,
-0.057951901108026505,
0.08406318724155426,
0.006179077085107565,
0.07011022418737411,
0.09377306699752808,
0.03965514898300171,
0.20386852324008942,
0.0890418067574501,
-0.09030330181121826,
0.09409348666667938,
-0.017481692135334015,
0.012163796462118626,
0.022407716140151024,
0.09854203462600708,
-0.07875216007232666,
-0.05496846139431,
0.1228751391172409,
-0.022252537310123444,
0.04126714542508125,
0.08467907458543777,
0.05188407748937607,
0.05825119838118553,
0.06894628703594208,
-0.09540238976478577,
-0.03469710797071457,
0.09206906706094742,
-0.03991856798529625,
-0.034314390271902084,
-0.05844350904226303,
-0.07875911146402359,
-0.09715250134468079,
-0.04260847344994545,
0.028988691046833992,
0.00651474017649889,
0.01906701922416687,
-0.017894092947244644,
0.020681437104940414,
-0.0885062962770462,
0.07509054988622665,
-0.015073810704052448,
0.08767139911651611,
0.047451525926589966,
-0.03286579251289368,
0.06583425402641296,
-0.0054656886495649815,
0.09810391813516617,
0.06328611075878143,
0.00088539719581604,
-0.09284330904483795,
0.00945456326007843,
0.011285312473773956,
0.033727020025253296,
0.01227600872516632,
0.05748206377029419,
-0.048372238874435425,
0.08187456429004669,
-0.013690635561943054,
0.0661577433347702,
0.012856721878051758,
0.007626436650753021,
0.08033907413482666,
-0.0341673418879509,
0.09928484261035919,
-0.08438323438167572,
0.010117359459400177,
0.08887441456317902,
0.0006604567170143127,
-0.03198937326669693,
0.01627086102962494,
0.03646846115589142,
0.04036194086074829,
0.0018494948744773865,
0.07302705943584442,
0.0689539760351181,
0.007535964250564575,
-0.08841446787118912,
-0.08954918384552002,
-0.08653460443019867,
-0.03747865930199623,
-0.0009937387658283114,
0.08047528564929962,
0.0335957407951355,
-0.08649025857448578,
0.017214084044098854,
0.10685069113969803,
-0.00040121376514434814,
0.07584334909915924,
0.04349780082702637,
-0.05388696491718292,
0.056387126445770264,
-0.022379470989108086,
-0.003630727529525757,
0.03975152596831322,
-0.052073024213314056,
0.09736296534538269,
0.095769003033638,
0.03230734169483185,
0.019787412136793137,
-0.0023439410142600536,
0.011599510908126831,
0.08040613681077957,
-0.016678273677825928,
-0.08886449784040451,
0.002403350081294775,
-0.08904401957988739,
0.06946733593940735,
-0.010752364993095398,
0.029873859137296677,
-0.09796855598688126,
-0.0631026104092598,
-0.11409955471754074,
-0.003361255396157503,
-0.10236268490552902,
-0.1053117960691452,
0.03679751232266426,
-0.1051909402012825,
0.08320315182209015,
-0.11288599669933319,
0.009870544075965881,
0.038533248007297516,
0.0602731853723526,
-0.07279996573925018,
0.14900614321231842,
-0.11123276501893997,
0.06854905188083649,
-0.07294492423534393,
0.0780264288187027,
-0.05130646005272865,
-0.07659105211496353,
0.10988376289606094,
0.07244106382131577,
-0.0459805391728878,
0.10681115090847015,
-0.046086739748716354,
0.006040637847036123,
0.08820657432079315,
0.005303638055920601,
-0.06887486577033997,
-0.03297417610883713,
0.062132567167282104,
0.01810276322066784,
-0.0027516260743141174,
-0.07174850255250931,
0.10198545455932617,
0.04868815839290619,
0.0432702898979187,
-0.09674182534217834,
0.09608727693557739,
0.058659180998802185,
-0.05138324201107025,
0.08793480694293976,
0.045259833335876465,
0.059377506375312805,
-0.039839211851358414,
-0.07237793505191803,
-0.0006442517042160034,
-0.1019173413515091,
0.06345710158348083,
0.03250938653945923,
-0.0426727756857872,
-0.06482839584350586,
-0.0839596837759018,
-0.07080446183681488,
-0.015227437019348145,
0.05947259068489075,
-0.05390075966715813,
-0.04054339975118637,
-0.02003062516450882,
0.06065124273300171,
-0.09046582877635956,
0.03748771548271179,
0.017195947468280792,
0.02954210340976715,
0.07436583936214447,
0.0764317512512207,
0.009371097199618816,
0.06896629184484482,
0.034470781683921814,
0.03763455152511597,
0.04009247571229935,
0.07242044806480408,
-0.048408180475234985,
0.10014671087265015,
-0.09363750368356705,
-0.04806665703654289,
-0.03811715543270111,
-0.0321619026362896,
0.016288794577121735,
0.013611112721264362,
0.0017598196864128113,
0.027868136763572693,
-0.04944717139005661,
-0.05014340206980705,
0.05970632657408714,
0.05512556433677673,
0.007626235485076904,
-0.06554398685693741,
0.07681939005851746,
0.04788149893283844,
-0.08177854865789413,
0.09135119616985321,
0.04902303218841553,
-0.014302641153335571,
0.07482293993234634,
-0.0690138041973114,
0.0001568049192428589,
0.07019828259944916,
-0.05936757102608681,
-0.09925460070371628,
-0.006551206111907959,
-0.0869770348072052,
-0.05620720982551575,
-0.05623522028326988,
0.0982149988412857,
-0.06220931187272072,
-0.0411989688873291,
-0.03885701298713684,
0.05469965934753418,
0.08596274256706238,
0.030647382140159607,
0.048050254583358765,
-0.030237384140491486,
0.09862937033176422,
0.07872508466243744,
-0.021809332072734833,
-0.03363380581140518,
0.0636177510023117,
-0.06131960451602936,
0.00739915668964386,
-0.021593011915683746,
-0.010795384645462036,
-0.01928577572107315,
-0.011153839528560638,
0.010706372559070587,
-0.05190682411193848,
-0.07178565859794617,
-0.05719999223947525,
-0.012703955173492432,
-0.013483894988894463,
-0.03347751870751381,
0.10863775759935379,
-0.1143682673573494,
-0.053547799587249756,
-0.019143247976899147,
0.03640396520495415,
0.08175276964902878,
0.04035024344921112,
0.01935635507106781,
-0.08545634150505066,
0.06924381852149963,
0.07942964136600494,
-0.09460166096687317,
-0.08050614595413208,
-0.03971204534173012,
-0.049694690853357315,
-0.10268926620483398,
0.002816970692947507,
0.08847423642873764,
-0.009454848244786263,
0.026997240260243416,
0.1654660999774933,
-0.04157019779086113,
0.07149983942508698,
0.10511554777622223,
0.026944151148200035,
-0.018349960446357727,
-0.012921817600727081,
-0.09381787478923798,
0.052313823252916336,
-0.03879079967737198,
0.08850014209747314,
0.014717943966388702,
0.03558821603655815,
0.08805340528488159,
0.0818050429224968,
0.1119527518749237,
0.11218386888504028,
0.08374786376953125,
-0.018375195562839508,
-0.08724383264780045,
0.03444875776767731,
0.060589566826820374,
0.05459795519709587,
0.07729305326938629,
0.022983605042099953,
0.050692975521087646,
-0.026680074632167816,
-0.044524919241666794,
-0.02481810934841633,
0.1133115217089653,
0.1313367784023285,
-0.00705780740827322,
-0.10785143077373505,
0.00562836229801178,
0.01971587724983692,
-0.06922341883182526,
-0.06160642206668854,
0.017434246838092804,
-0.05922507494688034,
0.005028881132602692,
-0.009270377457141876,
-0.02188326232135296,
-0.12889599800109863,
-0.02435975894331932,
-0.47376614809036255,
0.013828381896018982,
-0.05617472901940346,
-0.10292752832174301,
-0.28395411372184753,
-0.09393960237503052,
0.07702206075191498,
-0.0807327851653099,
0.008019469678401947,
-0.08328110724687576,
-0.3217180073261261,
0.02741013839840889,
0.12599898874759674,
-0.04830271750688553,
-0.048377349972724915,
0.041730847209692,
-0.09656646102666855,
-0.016785502433776855,
0.541000247001648,
-0.0903349295258522,
-0.4159911274909973,
-0.038312725722789764,
0.4104492664337158,
0.4695647656917572,
-0.04347464069724083,
-0.029394663870334625,
-0.052985794842243195,
-0.07089940458536148,
0.02818256989121437,
0.07742630690336227,
-0.072626993060112,
0.07988126575946808,
-0.02726181596517563,
-0.04141974449157715,
0.03623583912849426,
-0.008143201470375061,
-0.019867323338985443,
0.07145966589450836,
0.027846157550811768,
-0.051527272909879684,
-0.068974070250988,
0.03274497389793396,
0.10158677399158478,
-0.09019854664802551,
-0.01586030423641205,
0.04146495461463928,
-0.03416687995195389,
0.046722233295440674,
-0.06898032128810883,
0.01892128586769104,
0.055364370346069336,
-0.0193999782204628,
0.09637139737606049,
0.07631650567054749,
0.043320432305336,
0.06411810219287872,
0.09469720721244812,
0.011833205819129944,
-0.022610612213611603,
0.0070206522941589355,
0.09296704828739166,
0.060867294669151306,
-0.031859494745731354,
-0.04191271588206291,
0.07504510134458542,
-0.02908151037991047,
-0.11379270255565643,
0.02192084863781929,
0.0711129680275917,
-0.008173739537596703,
0.09301963448524475,
0.0839196965098381,
-0.0766015276312828,
0.022702448070049286,
0.16817666590213776,
-0.0976233035326004,
0.06165110319852829,
-0.07251673936843872,
0.04690752923488617,
0.08177536725997925,
-0.016571983695030212,
-0.08294813334941864,
0.08674565702676773,
-0.05805405601859093,
0.1837330460548401,
-0.03302013874053955,
-0.04388884827494621,
-0.0021143080666661263,
-0.035513076931238174,
0.054451748728752136,
-0.08765812963247299,
0.09409624338150024,
-0.0648035928606987,
-0.05739080533385277,
-0.030474118888378143,
0.08263375610113144,
0.043472710996866226,
-0.05775373801589012,
-0.047459669411182404,
0.005500927567481995,
-0.006927995011210442,
-0.07335463911294937,
0.0020440369844436646,
-0.04401635751128197,
0.037744149565696716,
-0.06402093172073364,
0.14757344126701355,
0.047933004796504974,
0.0023743819911032915,
-0.0872742161154747,
0.09335058927536011,
0.003715193597599864,
-0.025703761726617813,
-0.08357345312833786,
0.021291879937052727,
-0.01776852458715439,
0.08583412319421768,
0.05151994526386261,
0.11704544723033905,
0.04237908497452736,
-0.047681182622909546,
-0.047825101763010025,
-0.013155028223991394,
0.05570829659700394,
0.03337438777089119,
0.008995112031698227,
-0.09384997934103012,
-0.07719168066978455,
0.0294981487095356,
0.05389024689793587,
-0.018387041985988617,
0.0560968816280365,
0.33191007375717163,
-0.0949292778968811,
0.07542093098163605,
-0.07420644909143448,
-0.0745333731174469,
-0.052654415369033813,
-0.11902127414941788,
-0.045897409319877625,
0.27347975969314575,
0.029835417866706848,
-0.06064147874712944,
-0.07750406861305237,
0.005765756592154503,
0.03577195107936859,
-0.2161358743906021,
0.026957299560308456,
-0.2218611091375351,
-0.008464574813842773,
-0.2807197570800781,
-0.28986355662345886,
-0.08975064754486084,
0.03214766085147858,
-0.002640940248966217,
0.05396626889705658,
-0.07697650790214539,
0.09722063690423965,
0.026819106191396713,
0.040216684341430664,
0.06488946825265884,
-0.08938413858413696,
0.05012285336852074,
0.0011348484549671412,
-0.03881414607167244,
-0.02525157481431961,
0.030618250370025635,
-0.0896337702870369,
0.0882677286863327,
-0.0535508431494236,
-0.007135982159525156,
-0.0365019217133522,
0.042901329696178436,
0.05159401148557663,
0.06492330133914948,
-0.03465959057211876,
-0.038886185735464096,
0.016451118513941765,
-0.013201639987528324,
0.08186517655849457,
0.06646590679883957,
-0.03270241618156433,
-0.05373608320951462,
0.06355439126491547,
0.04390848055481911,
0.022860832512378693,
0.03652194142341614,
0.02799387089908123,
0.025983817875385284,
-0.012112393043935299,
-0.12283092737197876,
-0.01783733069896698,
0.010095864534378052,
0.05020558461546898,
-0.07871159166097641,
-0.009130781516432762,
-0.03104286827147007,
0.030272530391812325,
0.06905588507652283,
0.01173586118966341,
-0.030944563448429108,
-0.08156196027994156,
0.1656608134508133,
-0.07445526868104935,
-0.022448014467954636,
-0.05717582255601883,
0.029431357979774475,
-0.09065543860197067,
-0.059193432331085205,
0.10427895188331604,
-0.024142088368535042,
0.05643784999847412,
0.15389403700828552,
0.033846139907836914,
0.04796884208917618,
-0.006512685678899288,
0.08076013624668121,
-0.0017635002732276917,
-0.1006845086812973,
-0.02828889898955822,
-0.10373843461275101,
-0.0978517010807991,
0.08078579604625702,
0.034085944294929504,
-0.039192430675029755,
0.058641284704208374,
-0.006888352334499359,
0.06410253047943115,
-0.0652225986123085,
0.04789820313453674,
0.0027166903018951416,
0.100767582654953,
0.03762216866016388,
0.06799332797527313,
-0.10131384432315826,
-0.09313467890024185,
-0.09316606819629669,
0.026769012212753296,
-0.008620209991931915,
0.09182076156139374,
0.07256007194519043,
0.023438066244125366,
0.010575339198112488,
-0.006507284939289093,
-0.09592565894126892,
-0.049048662185668945,
0.020466439425945282,
0.03986223042011261,
0.043696776032447815,
-0.019622795283794403,
0.04203805327415466,
-0.03497923165559769,
0.007021039724349976,
0.023269444704055786,
-0.09038163721561432,
-0.04756889119744301,
0.09295015037059784,
-0.02376735210418701,
-0.06165874004364014,
0.01507820188999176,
0.029887884855270386,
-0.09868358820676804,
-0.019387491047382355,
-0.0712028220295906,
-0.08540560305118561,
0.08920642733573914,
-0.028124846518039703,
0.01950468122959137,
-0.03982439264655113,
0.0377478152513504,
-0.08350437879562378,
-0.05390793830156326,
-0.06151320040225983,
0.007983967661857605,
0.07977758347988129,
-0.02792350947856903,
0.0001615285873413086,
0.01792582869529724,
-0.037048548460006714,
-0.09490508586168289,
-0.08704249560832977,
0.003145545721054077,
-0.024487115442752838,
-0.0038460269570350647,
0.0329788476228714,
0.03521563112735748,
-0.06333070248365402,
0.0939348042011261,
-0.04936191067099571,
0.019459549337625504,
-0.060779452323913574,
-0.024167297407984734,
-0.06199018657207489,
-0.10677871853113174,
0.05859844386577606,
-0.005588355008512735,
0.026055559515953064,
0.07404008507728577,
0.03847070783376694,
-0.047927990555763245,
-0.08782398700714111,
0.0367111898958683,
-0.0781588926911354,
0.026489712297916412,
0.05164819955825806,
0.10859572887420654,
0.09330624341964722,
0.034490056335926056,
0.05764315649867058,
-0.08272142708301544,
0.04576234519481659,
0.021079454571008682,
0.023224331438541412,
-0.02222621440887451,
0.018838703632354736,
-0.06808063387870789,
-0.08176199346780777,
0.014101712964475155,
0.028170431032776833,
-0.0616828128695488,
-0.07179885357618332,
0.051630765199661255,
0.0552857406437397,
-0.05109698697924614,
0.11701153963804245,
-0.038768474012613297,
-0.07526209205389023,
0.0899810642004013,
0.054765522480010986,
0.0479627326130867,
0.12950073182582855,
0.06047747656702995,
-0.12695688009262085,
-0.03463025763630867,
-0.07327370345592499,
-0.0067497072741389275,
0.07948172092437744,
0.022846775129437447,
-0.009808427654206753,
0.004475836176425219,
0.08836708217859268,
0.1004435271024704,
-0.02132042869925499,
0.022492969408631325,
-0.07459834218025208,
-0.05419137701392174,
-0.07398411631584167,
-0.0906606912612915,
0.08660820126533508,
-0.046159155666828156,
-0.019584575667977333,
-0.081025131046772,
-0.01440215203911066,
-0.07219640165567398,
-0.006315462291240692,
0.3165869414806366,
0.1752665638923645,
-0.016080252826213837,
-0.023217149078845978,
0.0511309877038002,
0.033085912466049194,
-0.07289674133062363,
-0.2216922789812088,
0.06029482185840607,
0.340839684009552,
0.04080430045723915,
0.009398594498634338,
0.07581111788749695,
0.06346982717514038,
-0.06076423451304436,
-0.13479144871234894,
-0.02693043276667595,
0.07362469285726547,
0.047348231077194214,
-0.4406347870826721,
-0.334978312253952,
-0.09120270609855652,
-0.009844891726970673,
-0.03933592140674591,
-0.045252203941345215,
-0.0596432201564312,
-0.04916290566325188,
0.08302970230579376,
0.018183544278144836,
0.09454424679279327,
0.07137449085712433,
0.08815857768058777,
0.08650515973567963,
-0.047956038266420364,
0.08106550574302673,
0.04976046085357666,
0.07510769367218018,
-0.07631203532218933,
-0.0805252343416214,
-0.05495958402752876,
-0.01913464069366455,
-0.07522320747375488,
0.0744793713092804,
0.041153684258461,
-0.04143789783120155,
0.06426286697387695,
-0.09754563122987747,
-0.09880832582712173,
-0.03184473514556885,
0.0769643634557724,
0.10185828804969788,
-0.06121513992547989,
-0.07094410806894302,
0.07835635542869568,
0.06856405735015869,
0.08749271929264069,
0.021437659859657288,
-0.014414362609386444,
-0.002300076186656952,
-0.05654141679406166,
-0.04126633331179619,
-0.04377613589167595,
0.05934837833046913,
-0.009526388719677925,
-0.0016551349544897676,
0.09567508101463318,
0.06647803634405136,
-0.07713063061237335,
-0.0829288512468338,
-0.022457480430603027,
0.015468912199139595,
0.09789733588695526,
-0.11574273556470871,
-0.0394807867705822,
0.08440783619880676,
0.0602194219827652,
0.04802180454134941,
0.0038457673508673906,
-0.06712634861469269,
-0.050742119550704956,
-0.1080036386847496,
0.1277150809764862,
-0.0027368590235710144,
-0.08704940229654312,
-0.10687189549207687,
0.025834480300545692,
-0.08392851054668427,
-0.007379643619060516,
-0.01793600618839264,
0.06413070112466812,
-0.03801117092370987,
-0.03896580636501312,
-0.020760610699653625,
-0.016368195414543152,
-0.05382223427295685,
0.05635802447795868,
0.07314641773700714,
0.04925559461116791,
-0.09372376650571823,
-0.055900074541568756,
0.014440253376960754,
-0.010962970554828644,
-0.025646701455116272,
0.01747959852218628,
0.029670000076293945,
0.04387490451335907,
0.07346729934215546,
0.004372172057628632,
-0.06807389855384827,
0.09484997391700745,
-0.0666356235742569,
0.037452369928359985,
-0.030173897743225098,
-0.09143301099538803,
-0.05102339759469032,
0.07857277989387512,
-0.05510341748595238,
0.053375378251075745,
-0.019036218523979187,
-0.05839775875210762,
0.04185168445110321,
-0.024935021996498108,
-0.019323326647281647,
-0.09554950892925262,
-0.05364552512764931,
-0.07188250124454498,
-0.05988475680351257,
-0.07756352424621582,
-0.08407821506261826,
-0.02414862811565399,
0.09908638894557953,
0.07984866201877594,
0.023557335138320923,
0.03815540671348572,
-0.06477824598550797,
0.014610528945922852,
-0.005197905004024506,
-0.05566146597266197,
0.09132188558578491,
-0.0948629379272461,
-0.07970394939184189,
-0.06527924537658691,
0.01847892999649048,
-0.06499658524990082,
-0.07222405076026917,
0.03749769926071167,
0.08168445527553558,
0.07200157642364502,
-0.028206780552864075,
-0.09173616021871567,
0.02985621988773346,
0.008450925350189209,
-0.008586950600147247,
0.09769465029239655,
-0.09145413339138031,
0.03731657564640045,
-0.0016507580876350403,
0.055938854813575745,
-0.07524746656417847,
-0.04988544061779976,
-0.021111689507961273,
-0.06462538242340088,
0.08705295622348785,
-0.01421421766281128,
-0.05524805560708046,
-0.03485441952943802,
-0.06520135700702667,
-0.030675508081912994,
-0.050522759556770325,
0.08243203163146973,
-0.06188002973794937,
0.05299966037273407,
0.08842743933200836,
-0.07846377044916153,
0.015039950609207153,
-0.016262218356132507,
-0.007653392851352692,
0.07301898300647736,
-0.05591564625501633,
-0.04202122241258621,
-0.07137870788574219,
0.10060112178325653,
-0.0015729889273643494,
0.04564119875431061,
0.09735120832920074,
-0.09598274528980255,
0.03407195210456848,
0.03455791994929314,
-0.04080574959516525,
0.04724675044417381,
0.10095424950122833,
0.05191653221845627,
0.025205451995134354,
-0.015741471201181412,
0.07836611568927765,
-0.07330292463302612,
-0.034907564520835876,
-0.05341046303510666,
0.0857226699590683,
-0.03340722247958183,
-0.08125915378332138,
0.03618181124329567,
0.04002675041556358,
-0.02838674932718277,
-0.05746174603700638,
0.066166952252388,
0.00788072682917118,
0.0063557932153344154,
0.03150944411754608,
0.09610744565725327,
-0.008468106389045715,
0.028960803523659706,
-0.03457016497850418,
0.04962047562003136,
-0.044498056173324585,
-0.06550382077693939,
0.0634259358048439,
-0.020616518333554268,
-0.014029773883521557,
-0.07813582569360733,
-0.007597818970680237,
-0.08078693598508835,
-0.05976243317127228,
0.04726661741733551,
-0.07329154014587402,
-0.09649931639432907,
-0.018999911844730377,
-0.02907538414001465,
0.014627814292907715,
-0.07532401382923126,
0.028776109218597412,
0.04412485659122467,
-0.03673253208398819,
-0.019162602722644806,
0.025894969701766968,
0.012191571295261383,
-0.06658053398132324,
0.027602896094322205,
0.02894490957260132,
0.03551487624645233,
-0.04888543114066124,
0.020718172192573547,
0.10126940906047821,
0.08411230146884918,
-0.06967198103666306,
0.08924272656440735,
0.07499144971370697,
-0.02714226394891739,
0.07111068069934845,
0.07394459843635559,
-0.021650798618793488,
-0.04323253408074379,
0.04895632714033127,
0.04332899674773216,
0.07504560798406601,
0.04803632199764252,
0.09439408034086227,
0.30900612473487854,
-0.015897775068879128,
-0.08942151069641113,
0.06529390811920166,
0.021801695227622986,
-0.0299131590873003,
0.047028787434101105,
0.01485420111566782,
0.127183198928833,
0.05141856521368027,
-0.03552033007144928,
-0.014672167599201202,
0.04553748294711113,
0.007274308241903782,
-0.027557946741580963,
-0.09067296236753464,
0.09408285468816757,
0.0763607919216156,
-0.30245569348335266,
-0.2583223581314087,
-0.05661506578326225,
0.08898742496967316,
0.0038522332906723022,
0.08632230758666992,
0.019495945423841476,
0.08683493733406067,
-0.11180062592029572,
-0.08909792453050613,
0.06462210416793823,
-0.10081680864095688,
-0.028634965419769287,
-0.029365714639425278,
0.4530946910381317,
0.005704140290617943,
0.020148448646068573,
0.038115501403808594,
-0.0924542173743248,
0.04383424296975136,
-0.018212933093309402,
0.027083007618784904,
0.17135603725910187,
-0.02601541206240654,
0.0116158127784729,
-0.073021300137043,
0.003734018886461854,
-0.023932095617055893,
-0.15056566894054413,
0.10002180188894272,
-0.15174873173236847,
-0.025354504585266113,
-0.4232674837112427,
-0.2728631794452667,
-0.05091224983334541,
-0.015119470655918121,
-0.07443192601203918,
0.0900438129901886,
-0.016786986961960793,
-0.046160005033016205,
-0.06929419189691544,
0.043088149279356,
-0.3881591558456421,
0.026970654726028442,
-0.10472630709409714,
0.023081015795469284,
-0.18183395266532898,
-0.09826721251010895,
-0.05056235194206238,
-0.0594400055706501,
-0.0015617460012435913,
0.00032835389720276,
-0.047189049422740936,
-0.04561750963330269,
0.21367418766021729,
-0.07014869153499603,
-0.08112818747758865,
0.020407112315297127,
0.0020485727582126856,
0.06801055371761322,
0.17584025859832764,
0.05192398279905319,
-0.03873981162905693,
0.017798490822315216,
0.5218421220779419,
0.40249961614608765,
0.05869948863983154,
-0.09484860301017761,
-0.017022058367729187,
-0.046957746148109436,
0.01678655296564102,
-0.06612563878297806,
-0.11741922795772552,
0.05150168389081955,
0.030440030619502068,
-0.023614462465047836,
-0.00039976194966584444,
-0.12180337309837341,
0.08195000886917114,
-0.09027928858995438,
-0.07768137753009796,
-0.05048211291432381,
-0.014842145144939423,
-0.09399309754371643,
0.1686641275882721,
0.016384558752179146,
-0.10757745802402496,
-0.08231206238269806,
0.05802108347415924,
0.04670628532767296,
0.022036397829651833,
-0.025918859988451004,
-0.0023495627101510763,
0.05847623199224472,
0.11054938286542892,
-0.08916985243558884,
-0.04358544573187828,
0.04974675551056862,
-0.012623923830688,
-0.042541470378637314,
0.017948724329471588,
-0.021243834868073463,
0.03542143478989601,
-0.017046688124537468,
-0.01564326137304306,
-0.04605522379279137,
-0.07489083707332611,
-0.0845942497253418,
-0.005900937132537365,
0.04172087460756302,
0.17557580769062042,
0.04261957108974457,
0.07296290993690491,
0.08337205648422241,
-0.09831021726131439,
-0.08195231854915619,
0.031672701239585876,
0.014306789264082909,
0.022553248330950737,
-0.0678246021270752,
0.0822555422782898,
-0.09146025031805038,
0.07462669909000397,
0.01602262631058693,
-0.004518864676356316,
0.05817520618438721,
-0.10439932346343994,
-0.05203085392713547,
-0.058874476701021194,
0.007987546734511852,
-0.09929807484149933,
-0.031241118907928467,
-0.07053621113300323,
0.08172821998596191,
-0.038827769458293915,
0.057601042091846466,
-0.03615901619195938,
-0.10086535662412643,
0.03519165515899658,
0.04439334571361542,
-0.06240463629364967,
0.0011759400367736816,
-0.09801796823740005,
0.09616130590438843,
0.09322524070739746,
0.03309917449951172,
0.08615076541900635,
-0.07552196830511093,
0.06657731533050537,
0.028247252106666565,
-0.02998580038547516,
0.023531123995780945,
0.011957526206970215,
0.0324140340089798,
0.07243570685386658,
0.004095889627933502,
0.021448783576488495,
0.07506084442138672,
0.009913608431816101,
-0.010560639202594757,
0.005452431738376617,
-0.025076977908611298,
0.021130546927452087,
0.0012130215764045715,
0.031607404351234436,
-0.010167509317398071,
-0.060498178005218506,
0.025142312049865723,
0.08020266890525818,
0.049097687005996704,
-0.03503300994634628,
0.07595160603523254,
-0.06635811924934387,
-0.11640754342079163,
-0.020845482125878334,
0.07765154540538788,
-0.05391333997249603,
-0.02062363177537918,
0.05021640658378601,
-0.001771092414855957,
0.07628575712442398,
-0.004026681184768677,
-0.051656320691108704,
-0.06337043642997742,
0.02959512174129486,
-0.06922975182533264,
-0.03697673976421356,
0.05744054540991783,
-0.07627248018980026,
-0.09608589112758636,
-0.009339235723018646,
0.013681992888450623,
-0.10177906602621078,
-0.027112402021884918,
-0.09706496447324753,
-0.0002791285514831543,
-0.10104084759950638,
-0.08215249329805374,
-0.06571181118488312,
0.07800654321908951,
0.04881579428911209,
0.09859474003314972,
0.00035704619949683547,
-0.0658518448472023,
-0.07075626403093338,
-0.0907907709479332,
-0.01487579382956028,
0.015458076260983944,
0.004943571984767914,
0.06046935170888901,
-0.08423280715942383,
0.027533618733286858,
0.04190504178404808,
0.00026729656383395195,
-0.04730616509914398,
-0.07025972008705139,
0.05186694860458374,
0.08639702945947647,
-0.05390326306223869,
-0.046101685613393784,
-0.1099420115351677,
-0.07026738673448563,
0.037792596966028214,
0.006253145635128021,
-0.08162472397089005,
-0.001301508047617972,
-0.06023670732975006,
0.004233807325363159,
0.048921793699264526,
0.003444862086325884,
-0.08205380290746689,
-0.09715473651885986,
-0.09069475531578064,
-0.0740647092461586,
0.016638100147247314,
0.011080838739871979,
0.0442454069852829,
0.036172300577163696,
-0.049293700605630875,
-0.05248761549592018,
-0.030513182282447815,
0.05189794301986694,
-0.05576168745756149,
-0.06128264218568802,
0.009858280420303345,
0.03312881290912628,
-0.03470243513584137,
-0.028280802071094513,
-0.03358373045921326,
-0.030404627323150635,
-0.06635391712188721,
-0.0879126638174057,
0.034845784306526184,
-0.09742999821901321,
-0.0795663446187973,
0.007485665380954742,
0.012601658701896667,
0.039616018533706665,
-0.03624768555164337,
-0.051678553223609924,
-0.07639320939779282,
-0.00866900384426117,
-0.0183023139834404,
-0.08023135364055634,
0.010265402495861053,
0.05662468075752258,
-0.04722634702920914,
-0.038605332374572754,
-0.04471968486905098,
-0.022742848843336105,
-0.08014877885580063,
0.045919641852378845,
-0.04583323374390602,
-0.10122232884168625,
0.08935470879077911,
-0.01749570667743683,
0.09956083446741104,
-0.0431998148560524,
0.07882920652627945,
-0.08885611593723297,
0.05841328203678131,
-0.06796225160360336,
-0.0801011472940445,
-0.03589407354593277,
-0.03631960600614548,
0.08092784881591797,
0.019968554377555847,
0.03346697986125946,
-0.053125083446502686,
0.02295047789812088,
0.04334302246570587,
0.03221489489078522,
-0.09623787552118301,
-0.06287012994289398,
-0.050293028354644775,
-0.04960762709379196,
-0.009425699710845947,
0.022844456136226654,
0.0076663196086883545,
-0.07779715210199356,
-0.04877038300037384,
0.003461584448814392,
0.07315307855606079,
-0.05479477345943451,
-0.029968231916427612,
0.03644084930419922,
0.055651694536209106,
-0.07147258520126343,
-0.08010411262512207,
-0.04616818204522133,
-0.0220969095826149,
0.0675760805606842,
0.013080202043056488,
0.035478994250297546,
0.048381879925727844,
-0.07911323010921478,
-0.08981291204690933,
-0.041243668645620346,
-0.09375104308128357,
0.0680646002292633,
-0.030998364090919495,
0.04384776949882507,
-0.04097035527229309,
0.09032486379146576,
-0.0791492685675621,
0.020126797258853912,
-0.06259557604789734,
0.07579311728477478,
-0.0459587499499321,
0.09170710295438766,
-0.006442800629884005,
-0.1252783238887787,
0.06451775878667831,
-0.07158801704645157,
0.09284916520118713,
-0.08136823773384094,
0.010161645710468292,
-0.07149025052785873,
0.032871097326278687,
-0.017477259039878845,
0.1040787622332573,
-0.08955731987953186,
0.03707192838191986,
-0.02325606718659401,
-0.09949540346860886,
0.04933295398950577,
-0.04063606634736061,
-0.06043785810470581,
-0.13601040840148926,
-0.09140536934137344,
0.13817337155342102,
0.04224547743797302,
-0.10348451882600784,
-0.13947001099586487,
0.06523973494768143,
-0.10030675679445267,
-0.03718401491641998,
0.06450769305229187,
0.030234064906835556,
-0.0697721391916275,
-0.013180069625377655,
-0.061837371438741684,
-0.014740810729563236,
0.05135791003704071,
0.023010924458503723,
0.054800502955913544,
-0.1116076335310936,
-0.07475733757019043,
0.053139954805374146,
-0.002501070499420166,
-0.0957549586892128,
-0.03385283052921295,
0.037035997956991196,
0.040044933557510376,
-0.02599800005555153,
-0.026697300374507904,
0.085616335272789,
0.08662024140357971,
-0.04128951206803322,
-0.09507333487272263,
0.03476637601852417,
-0.09920118749141693,
0.09696690738201141,
-0.08143610507249832,
-0.0420890636742115,
-0.024280887097120285,
0.08209675550460815,
0.0714409202337265,
0.09746149182319641,
0.031008053570985794,
0.05786721408367157,
0.04631386697292328,
-0.06931764632463455,
0.08900416642427444,
-0.4755619466304779,
0.07206155359745026,
0.007487700320780277,
-0.21216163039207458,
0.04961659386754036,
0.024222757667303085,
0.08216102421283722,
0.044487807899713516,
0.08978624641895294,
-0.10021355748176575,
-0.27265235781669617,
-0.08057308942079544,
-0.5300298929214478,
0.048642948269844055,
0.03513871133327484,
-0.029620768502354622,
-0.018929291516542435,
0.03102102316915989,
0.6848263144493103,
-0.050736453384160995,
-0.01813368685543537,
0.0774037092924118,
0.46251994371414185,
0.3530943691730499,
-0.09784461557865143,
-0.01310509443283081,
-0.049835558980703354,
0.03788262978196144,
-0.015333003364503384,
-0.04223741963505745,
0.019839927554130554,
0.05134657025337219,
-0.019882559776306152,
-0.05177342891693115,
0.002032555639743805,
-0.09207013249397278,
0.05501791834831238,
0.041947588324546814,
0.002377063035964966,
-0.04457460716366768,
-0.060655105859041214,
-0.0749523714184761,
-0.04004774987697601,
0.03888589143753052,
-0.0306205153465271,
0.043364062905311584,
0.0847150981426239,
0.005643226206302643,
-0.07607641071081161,
-0.028422176837921143,
-0.035968899726867676,
0.043901681900024414,
-0.06377366185188293,
-0.06573260575532913,
0.047482892870903015,
0.0026077479124069214,
-0.07366150617599487,
-0.009217530488967896,
-0.09641081839799881,
-0.10189700126647949,
-0.07378759980201721,
0.0954885333776474,
-0.10041426122188568,
0.026739297434687614,
-0.018055977299809456,
0.015279312618076801,
-0.08274883776903152,
-0.013708570972084999,
0.14955243468284607,
0.0549798347055912,
0.06566497683525085,
-0.0703611895442009,
-0.06767548620700836,
-0.058445535600185394,
0.15628698468208313,
0.06579823791980743,
-0.06207846850156784,
-0.01065491046756506,
0.06822428107261658,
-0.1040794774889946,
-0.03748922049999237,
-0.07879099249839783,
-0.16153918206691742,
-0.09266262501478195,
0.14984340965747833,
0.09506836533546448,
0.024222401902079582,
-0.0502682588994503,
-0.10801295936107635,
-0.041696954518556595,
-0.06103293225169182,
-0.07527848333120346,
0.018726129084825516,
0.06590138375759125,
0.02953111007809639,
0.044310979545116425,
0.020217152312397957,
-0.11094193160533905,
0.0308309867978096,
-0.14273159205913544,
0.13799868524074554,
0.05145379528403282,
-0.0006369501352310181,
-0.03135443851351738,
-0.048247870057821274,
-0.019020354375243187,
-0.009127911180257797,
-0.0753304660320282,
0.05443155765533447,
-0.010688094422221184,
0.026468738913536072,
0.029690101742744446,
-0.047719504684209824,
-0.05413300171494484,
0.0625050812959671,
-0.05299459025263786,
0.08980818837881088,
0.0014947056770324707,
0.1311475783586502,
0.07863706350326538,
-0.07904242724180222,
0.053677260875701904,
-0.016735777258872986,
-0.09006411582231522,
-0.012565413489937782,
-0.04765930399298668,
-0.058893945068120956,
-0.07824047654867172,
-0.18971382081508636,
0.0004617819213308394,
0.07178104668855667,
0.08534467965364456,
0.03850339353084564,
0.05824900045990944,
0.04542931914329529,
0.06719426810741425,
-0.025211937725543976,
0.0976332426071167,
-0.2592448890209198,
0.032619278877973557,
0.42581403255462646,
-0.08684900403022766,
0.05511218309402466,
-0.003542487509548664,
0.07314245402812958,
-0.045404136180877686,
-0.006267200224101543,
-0.113461434841156,
-0.4050878584384918,
-0.0446942076086998,
0.1394931524991989,
0.29292014241218567,
0.08249160647392273,
-0.0005883127450942993,
0.08066712319850922,
0.06135931983590126,
-0.0038329805247485638,
-0.02009703777730465,
-0.003155612386763096,
-0.002694362075999379,
0.0267605222761631,
-0.11221878230571747,
-0.06172582879662514,
-0.04719392955303192,
0.12141706794500351,
0.0522574782371521,
0.004020042717456818,
0.08546458929777145,
0.04548528790473938,
-0.06765797734260559,
0.1692647635936737,
0.02268383838236332,
0.055319640785455704,
-0.02659887820482254,
0.07233034074306488,
0.05660009756684303,
0.07329794019460678,
0.09438826143741608,
-0.16560804843902588,
-0.08927441388368607,
0.10899986326694489,
0.07142418622970581,
-0.029878202825784683,
-0.012793514877557755,
-0.03837326914072037,
-0.0064239948987960815,
0.005457445979118347,
0.003982221707701683,
0.013842958956956863,
0.0464341938495636,
0.030502120032906532,
-0.0752510279417038,
-0.010455993004143238,
-0.03152123838663101,
0.0701075941324234,
-0.006866395473480225,
-0.008619685657322407,
-0.06314445286989212,
-0.08672527968883514,
-0.09002630412578583,
0.06360708177089691,
-0.014538921415805817,
0.13716836273670197,
-0.041880685836076736,
0.10317877680063248,
0.01088598184287548,
-0.08175993710756302,
0.03546833246946335,
0.06907486915588379,
-0.06411473453044891,
-0.11861080676317215,
-0.008268678560853004,
0.13990403711795807,
-0.08579299598932266,
0.0577993169426918,
-0.0627271831035614,
0.07570250332355499,
-0.10086043924093246,
0.07105942070484161,
-0.0955505445599556,
-0.09667332470417023,
-0.05951972305774689,
0.08428716659545898,
-0.05366448312997818,
0.09837248921394348,
-0.020849645137786865,
-0.08662515133619308,
-0.09546268731355667,
-0.031956352293491364,
-0.025526612997055054,
0.09293057024478912,
0.016840361058712006,
-0.018339231610298157,
0.038801878690719604,
0.045145198702812195,
0.048074498772621155,
-0.06434299051761627,
-0.04904656857252121,
-0.0827467292547226,
0.055410146713256836,
0.10046853125095367,
-0.07886889576911926,
-0.0866427943110466,
-0.0410541333258152,
-0.07105650752782822,
0.03407740592956543,
0.09077221155166626,
-0.02988623082637787,
-0.0819239690899849,
0.09201635420322418,
-0.02785564959049225,
0.05649702250957489,
-0.022455312311649323,
-0.09233997017145157,
-0.01388607919216156,
0.06792427599430084,
0.0904204398393631,
0.03511664271354675,
-0.039421647787094116,
0.08835847675800323,
-0.06773549318313599,
0.008126050233840942,
0.0001466125249862671,
0.06513766944408417,
0.0144171342253685,
0.01938898116350174,
0.05659666657447815,
0.09497548639774323,
0.09582445025444031,
0.06155605614185333,
0.040196746587753296,
-0.07229305803775787,
-0.025129444897174835,
0.03579983115196228,
-0.014775566756725311,
0.08391466736793518,
0.07665160298347473,
0.09744055569171906,
0.023420825600624084,
0.0696134865283966,
0.015971727669239044,
-0.01591571420431137,
0.05916735529899597,
0.043086349964141846,
-0.09371519833803177,
0.0100388303399086,
-0.008505168370902538,
-0.04098113626241684,
0.12253598123788834,
-0.11371950805187225,
0.0224629957228899,
0.03466450423002243,
0.02258335053920746,
-0.018506601452827454,
0.0865853875875473,
-0.020597470924258232,
-0.09931261092424393,
-0.06832648813724518,
0.06731384247541428,
-0.11041682958602905,
-0.09115055203437805,
0.07728072255849838,
-0.05929882824420929,
-0.017095860093832016,
-0.07842346280813217,
0.03667278587818146,
-0.11783929914236069,
-0.1117883026599884,
0.11925631016492844,
0.07583937048912048,
0.04576776176691055,
-0.04955022782087326,
0.08623099327087402,
0.020006075501441956,
-0.03312540799379349,
0.07231471687555313,
-0.07086498290300369,
-0.07203357666730881,
0.011348060332238674,
0.062279112637043,
0.13295884430408478,
-0.038353368639945984,
-0.049241382628679276,
-0.102358877658844,
0.05676000937819481,
-0.04813753068447113,
-0.010070711374282837,
-0.046348750591278076,
-0.08184181898832321,
-0.09850289672613144,
0.10157926380634308,
-0.011928806081414223,
-0.005371523555368185,
-0.0025417874567210674,
-0.05843978375196457,
0.03189102187752724,
0.004090214613825083,
0.06437303125858307,
-0.04393219202756882,
-0.051855988800525665,
0.14614063501358032,
0.05234809219837189,
0.06863971799612045,
0.031225737184286118,
-0.05714952573180199,
0.041482046246528625,
-0.0697142705321312,
-0.024705367162823677,
-0.07225841283798218,
-0.0835898295044899,
-0.0021573391277343035,
0.03793872147798538,
-0.1913224160671234,
-0.016982518136501312,
-0.023989902809262276,
0.2512684166431427,
-0.10566195845603943,
0.035906001925468445,
0.050011277198791504,
-0.015233471058309078,
-0.04009116068482399,
-0.0465388260781765,
-0.10803545266389847,
0.037898704409599304,
0.5293107628822327,
-0.06336286664009094,
0.0462985634803772,
-0.03340784087777138,
-0.008238723501563072,
-0.18542742729187012,
-0.17321670055389404,
0.09014494717121124,
-0.18301722407341003,
-0.025234319269657135,
0.31946322321891785,
0.19422726333141327,
-0.10428677499294281,
0.06104759871959686,
0.03613930940628052,
-0.050405748188495636,
0.02205091156065464,
0.07887755334377289,
-0.07097737491130829,
-0.03132694214582443,
0.011720128357410431,
0.04548698663711548,
-0.036280855536460876,
-0.08010109513998032,
0.08797825872898102,
0.08337602019309998,
0.05103673040866852,
0.0938129723072052,
-0.018464818596839905,
-0.01852535456418991,
0.06182999908924103,
0.030918478965759277,
0.020803533494472504,
0.04241384565830231,
-0.08868546783924103,
-0.015131853520870209,
0.0024918466806411743,
-0.009076803922653198,
0.023670390248298645,
-0.044321514666080475,
-0.010248392820358276,
-0.05416293069720268,
0.0018124058842658997,
-0.09406988322734833,
-0.022578760981559753,
0.026661530137062073,
0.03601717948913574,
0.016042225062847137,
0.0027278587222099304,
-0.08857095241546631,
-0.07370968908071518,
-0.03431084379553795,
0.07215525209903717,
0.0028974113520234823,
-0.09432463347911835,
0.047596003860235214,
0.020154552534222603,
-0.05263558402657509,
0.021707303822040558,
0.004593470599502325,
-0.04608260467648506,
-0.036717623472213745,
0.06481790542602539,
-0.08021946251392365,
-0.03491095453500748,
-0.059063781052827835,
-0.05179520696401596,
-0.017162073403596878,
0.011022406630218029,
-0.040392499417066574,
-0.14794614911079407,
0.02133907377719879,
0.1401076763868332,
-0.03584206849336624,
-0.012385385110974312,
-0.024109531193971634,
-0.05588424950838089,
-0.07045087218284607,
0.07436765730381012,
0.017984677106142044,
-0.04346007481217384,
0.0901399552822113,
-0.02095676213502884,
0.07883237302303314,
0.02389521896839142,
-0.01751459389925003,
0.020126111805438995,
-0.01262076199054718,
-0.025056853890419006,
-0.0379045307636261,
-0.08527656644582748,
0.018193908035755157,
0.07698674499988556,
0.1001196801662445,
-0.05663589388132095,
0.0818202793598175,
0.055977240204811096,
0.10058355331420898,
0.06553418934345245,
0.01641605794429779,
0.07833659648895264,
-0.04588725417852402,
0.013564802706241608,
-0.08377379924058914,
-0.10019136965274811,
0.039998963475227356,
0.046728312969207764,
0.048173680901527405,
0.10074709355831146,
0.0709470808506012,
-0.04852050170302391,
-0.01715024560689926,
0.07631887495517731,
0.053137972950935364,
0.008152693510055542,
0.044585198163986206,
-0.03729245066642761,
-0.023371055722236633,
-0.027799315750598907,
-0.025212710723280907,
0.029328040778636932,
0.01183946430683136,
-0.030033595860004425,
0.08479152619838715,
-0.06717796623706818,
-0.012943178415298462,
-0.0684126764535904,
-0.0004892498254776001,
0.007529180031269789,
-0.06548579037189484,
-0.09621811658143997,
-0.052923355251550674,
0.0738288015127182,
-0.012147843837738037,
0.0606333464384079,
-0.04880009591579437,
0.01857662945985794,
-0.060113854706287384,
0.09248483180999756,
-0.0655955821275711,
-0.07116787880659103,
0.09133635461330414,
-0.0766492486000061,
0.06853628158569336,
0.04503089189529419,
-0.03426114469766617,
0.023957937955856323,
0.07661508023738861,
0.07711033523082733,
0.03910703957080841,
0.016294948756694794,
0.050205931067466736,
-0.031237393617630005,
-0.06912559270858765,
0.05114586651325226,
0.09292395412921906,
0.06128858029842377,
-0.0789484903216362,
0.03202861547470093,
-0.06280688941478729,
-0.004892416298389435,
-0.04067759960889816,
0.02342084050178528,
0.0027084127068519592,
0.08278851211071014,
0.0029773488640785217,
-0.07605088502168655,
-0.03940274566411972,
-0.09441778063774109,
0.08446265757083893,
-0.09509028494358063,
0.07298544049263,
-0.04484010860323906,
-0.012274548411369324,
-0.07895708084106445,
-0.07663009315729141,
0.08739866316318512,
0.06860955059528351,
0.012738604098558426,
-0.11638965457677841,
0.016908273100852966,
-0.07703977078199387,
-0.08154319226741791,
0.08025983721017838,
0.055549830198287964,
-0.06320591270923615,
0.0178021639585495,
-0.09323777258396149,
0.060627877712249756,
-0.0769873559474945,
-0.08982401341199875,
-0.04204270616173744,
0.0465816892683506,
0.00046036142157390714,
-0.0027498826384544373,
-0.08319651335477829,
-0.015598154626786709,
0.06789656728506088,
0.054339103400707245,
0.04366585612297058,
-0.08503834158182144,
0.07871915400028229,
-0.05279002711176872,
-0.07911251485347748,
0.09211551398038864,
0.030187547206878662,
-0.06766485422849655,
-0.05299805849790573,
0.03818395361304283,
-0.022738274186849594,
0.06581668555736542,
-0.03048565983772278,
0.08831189572811127,
0.03484031558036804,
0.04382890462875366,
-0.01915019005537033,
0.01789592206478119,
-0.022453680634498596,
0.05521717667579651,
0.03491613268852234,
0.02866588532924652,
0.05957426130771637,
-0.026013962924480438,
0.06118007004261017,
0.018792904913425446,
-0.07928697019815445,
0.04928041994571686,
-0.023828960955142975,
0.05245327949523926,
0.0507592111825943,
0.045639216899871826,
0.038224831223487854,
0.03528332710266113,
0.09626688063144684,
0.02997562289237976,
0.06576219201087952,
-0.024187080562114716,
-0.012170374393463135,
-0.06993964314460754,
-0.03783559054136276,
0.07527588307857513,
0.022884048521518707,
-0.06064450740814209,
0.0903756394982338,
-0.03190528601408005,
-0.10004542022943497,
-0.06442269682884216,
0.06422246247529984,
0.054925449192523956,
0.0758461058139801,
-0.049501288682222366,
-0.016471095383167267,
0.09361572563648224,
-0.00981268659234047,
-0.12119192630052567,
-0.008714377880096436,
0.3374841511249542,
0.06842479109764099,
0.03248925507068634,
0.03588985651731491,
0.00365059869363904,
-0.04897937551140785,
-0.09409214556217194,
0.011080879718065262,
-0.1844669133424759,
-0.07616473734378815,
0.2735733687877655,
0.07283373177051544,
0.0028796009719371796,
0.0074411556124687195,
-0.08338697254657745,
-0.07023132592439651,
0.06313479691743851,
-0.03286784887313843,
-0.013768387958407402,
0.02589995414018631,
-0.036135315895080566,
-0.10613046586513519,
0.07139068841934204,
0.13783560693264008,
0.16620288789272308,
0.05178804323077202,
0.09362749755382538,
0.027974965050816536,
0.013735868036746979,
-0.09774471819400787,
-0.27988722920417786,
-0.10885240137577057,
0.32288023829460144,
-0.07678861916065216,
-0.03262659162282944,
0.021099185571074486,
-0.06067242473363876,
-0.015946976840496063,
0.06204523891210556,
-0.04956561326980591,
-0.34066417813301086,
-0.10100077092647552,
0.14319665729999542,
0.26889869570732117,
0.022605784237384796,
-0.02357012778520584,
0.06633108854293823,
0.09073799848556519,
0.05978058651089668,
-0.011242043226957321,
0.0557069405913353,
0.005760429427027702,
-0.2378210872411728,
0.00629454106092453,
-0.10510030388832092,
-0.15200987458229065,
-0.02876877598464489,
0.03547578677535057,
-0.014319971203804016,
-0.015805602073669434,
-0.0756567046046257,
-0.016424572095274925,
-0.2683914601802826,
0.04175209626555443,
-0.48957639932632446,
-0.04949173331260681,
-0.030871659517288208,
0.03950602933764458,
-0.10235448181629181,
0.17129197716712952,
0.4708085358142853,
-0.10622607171535492,
0.3963565528392792,
-0.015583924949169159,
0.633733868598938,
0.4225073456764221,
-0.09848764538764954,
0.029395833611488342,
-0.0034902766346931458,
-0.10751821100711823,
-0.09572086483240128,
-0.061286114156246185,
-0.06297264248132706,
-0.0988568589091301,
0.13890090584754944,
0.05251077935099602,
-0.013876133598387241,
-0.005147345829755068,
0.1584884077310562,
0.06500738114118576,
-0.004225216805934906,
-0.028584104031324387,
0.0778769850730896,
0.07058101147413254,
0.13973233103752136,
0.07711387425661087,
0.05917711183428764,
0.08149300515651703,
0.05430367588996887,
-0.09597460180521011,
-0.07122090458869934,
-0.05060577765107155,
0.03443285822868347,
0.0007740676519460976,
0.15707163512706757,
-0.019282959401607513,
-0.08203957229852676,
-0.08425211161375046,
-0.10152821242809296,
0.07059219479560852,
-0.018731683492660522,
0.0191804189234972,
0.05075213313102722,
-0.026890043169260025,
-0.07123736292123795,
-0.12738767266273499,
-0.12947441637516022,
0.06996515393257141,
0.06926868110895157,
-0.01534257922321558,
0.05884050950407982,
-0.01355460099875927,
0.07478147745132446,
0.05413176864385605,
-0.05675181746482849,
-0.06471453607082367,
-0.19700638949871063,
-0.03664233908057213,
0.16503608226776123,
-0.05529346317052841,
-0.045419540256261826,
0.07474996894598007,
-0.01001206785440445,
-0.04647393897175789,
0.08132786303758621,
-0.03726140037178993,
-0.01778518222272396,
0.0896274596452713,
-0.017223350703716278,
-0.04783480986952782,
-0.012332550249993801,
-0.077031210064888,
-0.022707194089889526,
0.014708856120705605,
0.0763654038310051,
-0.023479385301470757,
0.07056142389774323,
0.01384945958852768,
-0.04150693118572235,
-0.017557784914970398,
-0.04115275666117668,
-0.08464576303958893,
0.005392543971538544,
-0.05075979232788086,
0.04334065318107605,
-0.10189680010080338,
0.07528644800186157,
0.09440194070339203,
0.05055183172225952,
0.049178242683410645,
0.03692352771759033,
0.09098091721534729,
0.05566848814487457,
0.10000061988830566,
-0.06436411291360855,
-0.02056540548801422,
-0.02693912386894226,
0.09198331832885742,
0.04829704761505127,
0.04581481218338013,
0.026695817708969116,
0.04147109389305115,
0.0628332644701004,
0.09922213852405548,
0.05191434919834137,
-0.03651469945907593,
0.005957789719104767,
-0.03990498557686806,
-0.0154745914041996,
-0.01610337197780609,
-0.07317426055669785,
0.056376323103904724,
0.028807373717427254,
0.032111700624227524,
-0.0779980942606926,
-0.0007656514644622803,
0.05025765299797058,
0.1004653200507164,
-0.018654055893421173,
-0.01703622005879879,
-0.057974573224782944,
0.03581614792346954,
-0.1027730256319046,
0.032127633690834045,
0.05933000147342682,
-0.017825599759817123,
0.008543530479073524,
-0.09139594435691833,
0.044684574007987976,
-0.05415765196084976,
0.07910978049039841,
0.0519087016582489,
0.012614098377525806,
-0.11452101171016693,
0.0779050886631012,
0.001995854079723358,
-0.06243198737502098,
-0.0064850240014493465,
-0.05836230888962746,
0.05506434664130211,
-0.06565380096435547,
-0.08415260910987854,
-0.008558889850974083,
-0.07043106108903885,
0.03182978555560112,
-0.046906501054763794,
-0.14727625250816345,
0.08113469183444977,
-0.02975171059370041,
-0.014309513382613659,
-0.010167650878429413,
-0.03386836498975754,
-0.02311527170240879,
-0.0463310107588768,
-0.02126545086503029,
-0.10375503450632095,
0.09617841243743896,
-0.08729102462530136,
0.024662623181939125,
-0.007226352579891682,
-0.011370155960321426,
-0.030873537063598633,
-0.0517793670296669,
-0.0040559321641922,
0.12304144352674484,
0.08740480989217758,
-0.09098946303129196,
-0.03918634355068207,
0.10120536386966705,
-0.046645015478134155,
-0.014438988640904427,
0.018939614295959473,
0.06010429561138153,
-0.02798987179994583,
-0.0437476821243763,
0.09366820752620697,
0.04370230436325073,
-0.08077827095985413,
0.08528140187263489,
0.051016077399253845,
0.006803572177886963,
-0.05758020281791687,
-0.025636576116085052,
-0.046675585210323334,
-0.052557747811079025,
0.08411210775375366,
0.09516873955726624,
-0.042738184332847595,
0.011536218225955963,
-0.05832481011748314,
0.02568933367729187,
-0.09476979076862335,
-0.0764884203672409,
-0.04369483143091202,
-0.007113650441169739,
0.049854591488838196,
-0.04403243213891983,
0.031356602907180786,
0.07889433205127716,
-0.0635068416595459,
0.009146913886070251,
0.05035649240016937,
-0.06674261391162872,
0.012385770678520203,
-0.0345657542347908,
0.0029296576976776123,
-0.001883070101030171,
0.09912721812725067,
-0.011079937219619751,
-0.06983130425214767,
0.03835047408938408,
0.07069775462150574,
-0.002400010824203491,
-0.06872861832380295,
-0.07196146994829178,
0.05824689567089081,
0.003712550038471818,
-0.08216886222362518,
-0.08589132875204086,
-0.010245032608509064,
-0.01832117885351181,
-0.041733160614967346,
0.01824931800365448,
0.009488827548921108,
-0.05900163948535919,
-0.08975431323051453,
0.09043563157320023,
-0.05704452469944954,
-0.028680061921477318,
0.08304095268249512,
-0.0058680251240730286,
0.06520305573940277,
0.016439758241176605,
0.05444931238889694,
-0.09631767123937607,
0.055423811078071594,
0.014326952397823334,
-0.08484751731157303,
-0.06720402836799622,
0.03016112744808197,
0.05047842860221863,
-0.05810120701789856,
-0.07312164455652237,
-0.07619646936655045,
-0.04577495530247688,
-0.07549235969781876,
-0.03100084513425827,
0.03452271223068237,
0.04076315462589264,
0.01244429498910904,
0.0022454187273979187,
-0.09481461346149445,
0.09172999858856201,
0.006346464157104492,
-0.0028923973441123962,
-0.05834390968084335,
-0.09974521398544312,
-0.051438186317682266,
-0.027853794395923615,
0.015920601785182953,
0.05285130441188812,
0.019575685262680054,
0.09623695909976959,
0.05405080318450928,
-0.09870602190494537,
-0.019372262060642242,
0.01608872413635254,
0.014648571610450745,
-0.12282616645097733,
0.024324888363480568,
-0.06092354655265808,
-0.05138128995895386,
-0.08608456701040268,
-0.02579307183623314,
-0.04813763499259949,
-0.057086456567049026,
0.037433937191963196,
-0.040925752371549606,
-0.06286083906888962,
0.09019630402326584,
-0.06750357151031494,
0.012911168858408928,
-0.012823115102946758,
0.04899803549051285,
-0.07784601300954819,
0.04843585565686226,
0.061524663120508194,
0.09395496547222137,
0.07939483225345612,
0.027089018374681473,
-0.009811018593609333,
-0.032424941658973694,
0.11158381402492523,
0.12122710794210434,
-0.01812710426747799,
-0.0555495023727417,
-0.04503399878740311,
-0.013458014465868473,
0.049449373036623,
0.03515079244971275,
-0.05571000277996063,
-0.08649326115846634,
-0.0018861002754420042,
0.02941146492958069,
-0.060202259570360184,
0.12441819906234741,
-0.010094044730067253,
-0.05757385119795799,
-0.019346028566360474,
-0.02066429704427719,
-0.031418971717357635,
0.025267288088798523,
-0.02217157930135727,
0.030472472310066223,
-0.06009883061051369,
-0.09376499056816101,
-0.01779685914516449,
-0.07324099540710449,
-0.06632159650325775,
0.03965969383716583,
-0.030959852039813995,
0.041731975972652435,
-0.03960125148296356,
-0.016288042068481445,
-0.017124664038419724,
-0.092447929084301,
-0.007087960839271545,
-0.030028216540813446,
0.010349616408348083,
-0.0033552274107933044,
0.07898436486721039,
-0.08564998209476471,
0.044303905218839645,
-0.002185201272368431,
-0.35009220242500305,
0.09235809743404388,
-0.04980272799730301,
-0.3838406801223755,
0.5261083841323853,
-0.03180522099137306,
-0.04909355565905571,
-0.08861146867275238,
0.06376567482948303,
0.016419237479567528,
0.0017864451510831714,
-0.11677734553813934,
0.20121242105960846,
0.006396181881427765,
0.09407852590084076,
-0.05373625084757805,
0.07111357897520065,
-0.1366875171661377,
-0.3355748951435089,
0.03754705935716629,
0.16850528120994568,
0.03457412123680115,
0.3295171558856964,
0.09200987964868546,
-0.013491973280906677,
-0.04218267276883125,
-0.06653513014316559,
0.04944143071770668,
0.012445949018001556,
0.002902520354837179,
-0.09526573121547699,
-0.07024980336427689,
0.07093384861946106,
0.08054296672344208,
-0.08344140648841858,
0.08205661177635193,
-0.07368326187133789,
0.06737402081489563,
-0.06971129775047302,
-0.015689797699451447,
0.06951954960823059,
0.0557439923286438,
-0.08422423899173737,
0.007125526666641235,
0.04300062358379364,
0.10120035707950592,
0.01072113960981369,
-0.09943203628063202,
0.06071271002292633,
0.06562767922878265,
-0.010595850646495819,
0.022114038467407227,
-0.010057054460048676,
0.033825621008872986,
-0.023766599595546722,
0.056357741355895996,
-0.03337883949279785,
0.006021149456501007,
0.07288601994514465,
0.02826009690761566,
-0.10101666301488876,
0.05962918698787689,
0.04179125279188156,
-0.08991937339305878,
-0.02255089394748211,
-0.06619508564472198,
-0.10089254379272461,
-0.03243567422032356,
-0.11439891904592514,
-0.11412248760461807,
-0.04614119976758957,
-0.0973474383354187,
-0.05321209877729416,
-0.0059647830203175545,
-0.176668182015419,
0.004453185014426708,
-0.11813453584909439,
0.0389697439968586,
0.021860845386981964,
0.020980361849069595,
-0.09950891882181168,
0.0286394190043211,
0.14060108363628387,
-0.06274152547121048,
0.09260199964046478,
-0.016914092004299164,
0.046369828283786774,
0.03686433658003807,
-0.007355949841439724,
0.05959656834602356,
0.022815033793449402,
-0.08962852507829666,
0.018758606165647507,
-0.06682770699262619,
-0.08445987105369568,
0.021315380930900574,
-0.09778665006160736,
0.07591849565505981,
-0.09386639297008514,
-0.026628421619534492,
-0.08117970824241638,
-0.01652797870337963,
-0.08137811720371246,
0.011955791153013706,
-0.09717048704624176,
0.05784961208701134,
0.06562906503677368,
0.005689837038516998,
-0.030524814501404762,
0.05013173446059227,
-0.006427593529224396,
0.022376056760549545,
-0.02161363512277603,
0.07293791323900223,
0.08172833919525146,
0.008265135809779167,
0.09543593227863312,
-0.030269771814346313,
0.16123929619789124,
0.0025464133359491825,
-0.09480132162570953,
-0.027588218450546265,
-0.012407675385475159,
-0.08711206912994385,
0.006471958011388779,
0.09740044176578522,
-0.03941301256418228,
-0.08549775183200836,
0.27858901023864746,
-0.08776421844959259,
-0.00610856618732214,
0.2536838948726654,
0.07942856103181839,
-0.04602232575416565,
-0.0557519793510437,
-0.07079510390758514,
0.0687355101108551,
0.0682479590177536,
0.3014351725578308,
0.005835006944835186,
0.018369050696492195,
-0.02719562128186226,
-0.01721932739019394,
0.016594525426626205,
0.053065959364175797,
0.16812683641910553,
0.0018292655004188418,
-0.010089843533933163,
-0.1027669906616211,
0.08074775338172913,
-0.3512481451034546,
-0.015020082704722881,
0.07543113082647324,
0.06659182906150818,
-0.017626114189624786,
-0.012377884238958359,
-0.1058121845126152,
0.046183787286281586,
-0.04135819524526596,
-0.004668873734772205,
0.0909581184387207,
-0.07939077913761139,
-0.034364309161901474,
0.10258014500141144,
-0.04878238961100578,
-0.038257960230112076,
0.07723617553710938,
-0.012306871823966503,
-0.04134440794587135,
-0.03494899347424507,
-0.14516450464725494,
0.04485994204878807,
-0.055533308535814285,
-0.02629118598997593,
-0.07916039228439331,
-0.09731440246105194,
-0.03126055747270584,
0.03761773183941841,
0.010470358654856682,
-0.04946528747677803,
-0.055751267820596695,
-0.03586616367101669,
0.01430684793740511,
0.05734788253903389,
0.052763670682907104,
0.07010246813297272,
0.07061725854873657,
-0.027810513973236084,
0.08419778198003769,
0.01218110229820013,
0.03078029491007328,
0.07039189338684082,
0.08212461322546005,
0.07437190413475037,
-0.029971947893500328,
-0.03660397231578827,
-0.07770764827728271,
0.009129339829087257,
0.0043550655245780945,
-0.0773925632238388,
-0.07746735960245132,
0.03681589663028717,
-0.17579154670238495,
-0.10851790010929108,
-0.05009854584932327,
-0.0725046694278717,
-0.06108461692929268,
0.09041441231966019,
-0.0014761319616809487,
-0.03758341446518898,
0.12242021411657333,
0.07692322134971619,
-0.05057401955127716,
0.0723884254693985,
0.014385358430445194,
0.0840940997004509,
0.040266890078783035,
0.007687240839004517,
-0.08918669074773788,
-0.012315013445913792,
0.0014091796474531293,
-0.020011557266116142,
-0.06525637209415436,
-0.017719529569149017,
-0.07445237040519714,
-0.017162077128887177,
0.05777740478515625,
0.05474726855754852,
-0.07845564186573029,
-0.08498368412256241,
-0.01727074384689331,
0.07267794013023376,
0.0026852041482925415,
0.0561574250459671,
-0.023916780948638916,
0.07457524538040161,
-0.09915757924318314,
-0.0032759904861450195,
-0.010495476424694061,
-0.00370759516954422,
-0.0645364448428154,
-0.017706461250782013,
0.03834924101829529,
-0.05698103830218315,
0.035825639963150024,
-0.06156861037015915,
-0.027587853372097015,
-0.0018896684050559998,
0.06158381700515747,
-0.023577675223350525,
-0.07143552601337433,
0.06500838696956635,
0.04983298480510712,
0.08749695122241974,
-0.06944826245307922,
0.07673843204975128,
0.010925590991973877,
0.09541888535022736,
0.08346493542194366,
0.10156871378421783,
0.015762820839881897,
0.018477201461791992,
-0.03232374042272568,
0.042187079787254333,
-0.02120254933834076,
0.05795477330684662,
0.05434158444404602,
0.09626422822475433,
-0.004408448934555054,
0.05264025926589966,
-0.05404099449515343,
0.03172963857650757,
-0.047911386936903,
0.09068219363689423,
0.0481773316860199,
-0.0583665631711483,
-0.04804307967424393,
0.09889957308769226,
0.05072715878486633,
-0.09113237261772156,
-0.045049939304590225,
-0.02191350609064102,
-0.09136725962162018,
0.08030912280082703,
0.01601109653711319,
-0.07010205090045929,
-0.0507894791662693,
0.040643516927957535,
-0.04887597635388374,
0.07502792775630951,
0.08039946109056473,
-0.056347474455833435,
0.009458971209824085,
-0.09572824090719223,
0.0012347772717475891,
-0.022544274106621742,
0.036189302802085876,
-0.087369903922081,
-0.07352042198181152,
0.03145058825612068,
-0.02959153987467289,
0.052129823714494705,
-0.0677042305469513,
0.09015991538763046,
0.07013027369976044,
-0.0973639264702797,
-0.06895358115434647,
0.03297265246510506,
0.0007737528067082167,
0.07640984654426575,
0.017964651808142662,
0.06413155049085617,
-0.07505939155817032,
0.040229782462120056,
-0.04567893594503403,
0.028953563421964645,
-0.08435408025979996,
-0.056653860956430435,
0.026827355846762657,
-0.05246611312031746,
-0.10599572211503983,
-0.07057338207960129,
0.06674180179834366,
0.006995375733822584,
-0.05148318037390709,
0.07835564762353897,
-0.07406534254550934,
-0.0733414739370346,
0.013777405023574829,
0.03847403824329376,
-0.15786559879779816,
0.04084756225347519,
0.02236466482281685,
-0.008933722041547298,
0.05914956331253052,
-0.0836489200592041,
0.043837931007146835,
0.05531654134392738,
0.13439440727233887,
0.00710806529968977,
0.047383032739162445,
-0.06405846029520035,
-0.02835473231971264,
0.00343280634842813,
0.06756192445755005,
-0.09432105720043182,
0.07189351320266724,
-0.010371992364525795,
-0.0029805658850818872,
0.019997654482722282,
-0.02024676650762558,
-0.002426347928121686,
0.13462108373641968,
0.017716962844133377,
-0.019690578803420067,
0.3164982497692108,
-0.10232002288103104,
0.060151439160108566,
0.04444855451583862,
-0.012336564250290394,
-0.06259579956531525,
-0.0197345819324255,
-0.06478577107191086,
0.02204989083111286,
0.12360884994268417,
-0.08913102000951767,
0.09405718743801117,
-0.10609655827283859,
0.08222336322069168,
0.04538005217909813,
0.12853330373764038,
0.0636473149061203,
-0.04785284399986267,
-0.03741343319416046,
-0.3898676633834839,
-0.09989482164382935,
0.036360230296850204,
-0.027414798736572266,
0.0022107213735580444,
-0.07624630630016327,
0.05652587115764618,
-0.06197558343410492,
0.0032102465629577637,
0.057005226612091064,
0.08963295817375183,
0.02716115117073059,
0.04328387975692749,
0.030556082725524902,
-0.04377131164073944,
-0.06142151355743408,
-0.012685954570770264,
0.05004553496837616,
-0.03224068880081177,
-0.06641876697540283,
0.03502684831619263,
-0.005808383226394653,
0.028221458196640015,
-0.007795087993144989,
-0.030465364456176758,
-0.014643214643001556,
-0.06542539596557617,
0.0025323405861854553,
0.0943385511636734,
-0.02328876405954361,
0.013664595782756805,
-0.014897771179676056,
0.09900878369808197,
-0.05351271480321884,
0.050328776240348816,
-0.08890894800424576,
-0.05000839754939079,
-0.038616843521595,
-0.07831241190433502,
0.09393948316574097,
0.058547571301460266,
-0.06966467201709747,
-0.028360463678836823,
0.07631976157426834,
-0.08288493007421494,
-0.08117115497589111,
-0.13954946398735046,
-0.09239733219146729,
-0.05394988879561424,
0.0070512741804122925,
0.01484949141740799,
-0.017518891021609306,
0.05706042796373367,
0.054157983511686325,
-0.1115633100271225,
-0.03608611226081848,
-0.030596062541007996,
0.010517561808228493,
-0.01539914682507515,
-0.026430806145071983,
0.07972148805856705,
-0.10243817418813705,
0.0018864793237298727,
0.0784306526184082,
-0.14988195896148682,
-0.016763759776949883,
-0.07579867541790009,
0.06521765887737274,
0.050596147775650024,
0.05902872607111931,
-0.009562172926962376,
0.01851426251232624,
0.0932241678237915,
0.03554292023181915,
-0.02313896268606186,
0.02304893732070923,
-0.029160432517528534,
-0.07833341509103775,
-0.012221835553646088,
0.03399693965911865,
-0.05154060572385788,
0.0344395786523819,
0.011650048196315765,
0.0022322610020637512,
0.016097530722618103,
0.08732381463050842,
-0.0320572629570961,
-0.005381718277931213,
-0.020848914980888367,
-0.08513173460960388,
0.1012701690196991,
0.021695278584957123,
-0.08023577928543091,
-0.01680128276348114,
-0.07844284176826477,
0.04175971448421478,
0.08118429780006409,
-0.05054083839058876,
-0.07508036494255066,
-0.07449152320623398,
-0.01236521452665329,
0.053642988204956055,
-0.05238498002290726,
-0.0526115708053112,
-0.006609827280044556,
-0.037120044231414795,
0.024681195616722107,
-0.0524146668612957,
-0.078337162733078,
0.05830986797809601,
-0.007790513336658478,
-0.014098122715950012,
0.030023977160453796,
0.03587941825389862,
0.072450652718544,
-0.058306168764829636,
-0.09401992708444595,
0.06149546802043915,
0.05718541145324707,
-0.035559073090553284,
0.04300647974014282,
0.018715910613536835,
0.011713244020938873,
-0.06313766539096832,
0.03616037964820862,
0.020340636372566223,
0.007083831820636988,
-0.0790506899356842,
-0.06642039120197296,
0.03553435951471329,
-0.06989973783493042,
-0.03888870030641556,
0.05900570750236511,
-0.05122740939259529,
0.028355583548545837,
-0.06819678843021393,
0.08376902341842651,
-0.050861943513154984,
-0.08368077129125595,
-0.03520088642835617,
-0.004430912435054779,
0.10009323060512543,
-0.010706447064876556,
-0.001000814139842987,
-0.06354735791683197,
-0.03924725204706192,
-0.03925798088312149,
0.03734500706195831,
0.10169418156147003,
0.028786838054656982,
-0.007241018116474152,
-0.05594874173402786,
-0.0621209554374218,
0.06376640498638153,
-0.041597817093133926,
-0.046476904302835464,
-0.044498980045318604,
0.06322331726551056,
-0.0977875292301178,
-0.03668062388896942,
0.08536097407341003,
0.03869865834712982,
-0.012944638729095459,
-0.09715082496404648,
0.005403786897659302,
0.07783341407775879,
-0.018309980630874634,
0.08642919361591339,
0.07881173491477966,
-0.022365055978298187,
-0.08834787458181381,
0.03362160921096802,
0.0435449555516243,
-0.08328190445899963,
-0.10391965508460999,
-0.050496041774749756,
-0.013922236859798431,
0.086850605905056,
0.028908804059028625,
-0.06609936058521271,
0.09411408007144928,
-0.03934478014707565,
0.042792461812496185,
0.009549579583108425,
-0.04658832773566246,
-0.09266907721757889,
-0.05412613973021507,
-0.00443555973470211,
-0.0015632882714271545,
0.024624917656183243,
0.03097667545080185,
-0.09526244550943375,
-0.06898555904626846,
-0.06974372267723083,
-0.06051495298743248,
-0.033807963132858276,
0.0841093361377716,
-0.024194905534386635,
0.06009164825081825,
-0.08238361030817032,
0.07388682663440704,
0.0790865421295166,
-0.09301868081092834,
-0.05029531568288803,
0.08297744393348694,
-0.039864130318164825,
-0.043837789446115494,
-0.09478329867124557,
0.0018084868788719177,
0.09742163121700287,
0.006682731211185455,
-0.07277445495128632,
-0.06872129440307617,
-0.007548592984676361,
0.09413298964500427,
-0.08483152836561203,
-0.07043711841106415,
0.04789575934410095,
0.014175474643707275,
-0.008285917341709137,
0.002981632947921753,
0.056764617562294006,
-0.07596494257450104,
-0.0529649443924427,
-0.07422704249620438,
-0.03502631187438965,
-0.05478966236114502,
0.04368297755718231,
0.03721937537193298,
0.0862613171339035,
0.020418576896190643,
0.01983068138360977,
-0.10126254707574844,
0.024561841040849686,
0.24837586283683777,
-0.05517158657312393,
-0.0045741256326437,
0.1059228777885437,
-0.021756039932370186,
0.08588100969791412,
0.012820273637771606,
0.09855054318904877,
0.0633658617734909,
-0.022820569574832916,
0.028999829664826393,
-0.06641910970211029,
0.06670913845300674,
0.09088651835918427,
-0.08864235132932663,
-0.020688341930508614,
0.05650535225868225,
0.15769711136817932,
-0.0009781132685020566,
-0.08555431663990021,
-0.11517001688480377,
0.01732678711414337,
-0.3912946879863739,
-0.06205003336071968,
0.06273223459720612,
0.04991768300533295,
-0.0040711909532547,
-0.04231862723827362,
-0.050673823803663254,
0.07492482662200928,
0.007561782840639353,
0.00941278412938118,
0.3242936134338379,
-0.024885430932044983,
0.05242060124874115,
0.17923375964164734,
0.16099007427692413,
-0.064205601811409,
-0.07371073216199875,
-0.06985128670930862,
-0.09016715735197067,
0.08313876390457153,
0.4937303960323334,
-0.06895572692155838,
0.07350046932697296,
-0.056104596704244614,
-0.09896638989448547,
-0.041756339371204376,
-0.029298972338438034,
0.031146230176091194,
-0.022457249462604523,
-0.095100998878479,
-0.05539988726377487,
-0.0991501584649086,
-0.28403225541114807,
-0.20284107327461243,
-0.03918274864554405,
-0.05089433118700981,
0.055531665682792664,
-0.04650042951107025,
-0.07749822735786438,
-0.020588435232639313,
-0.09944131970405579,
0.0285330917686224,
-0.3085176348686218,
0.01955553889274597,
0.016223598271608353,
-0.359253853559494,
0.26462608575820923,
0.010882538743317127,
-0.024970129132270813,
0.01693960838019848,
0.0790596455335617,
0.037184763699769974,
0.10103384405374527,
0.0039695375598967075,
0.21005722880363464,
0.008515994064509869,
0.04144570231437683,
0.032932352274656296,
0.059223879128694534,
-0.1394760012626648,
-0.33540257811546326,
-0.050841134041547775,
0.31678053736686707,
0.008494727313518524,
0.5333989262580872,
-0.0043087489902973175,
0.004405253566801548,
-0.09257731586694717,
0.01598997414112091,
0.03295562043786049,
0.017879687249660492,
-0.06660472601652145,
-0.04805809259414673,
0.07187987864017487,
0.06633397936820984,
0.02287895791232586,
-0.013242780230939388,
0.08876608312129974,
-0.2063094526529312,
0.015572327189147472,
-0.03401097655296326,
-0.09077277779579163,
-0.05328436940908432,
0.07957369834184647,
-0.08613205701112747,
-0.08281819522380829,
-0.0818951427936554,
0.02748447097837925,
-0.09176046401262283,
0.02869555726647377,
0.0032448668498545885,
0.09251387417316437,
0.13969992101192474,
-0.08869074285030365,
0.09989885240793228,
0.02942657470703125,
0.0776200070977211,
0.12208811193704605,
-0.07836722582578659,
-0.030264422297477722,
-0.0487385056912899,
-0.03837186470627785,
0.04528605937957764,
-0.04350505396723747,
-0.034250300377607346,
-0.10275190323591232,
-0.0191057026386261,
-0.09520717710256577,
0.002668470609933138,
-0.030422624200582504,
-0.08084197342395782,
0.0029285987839102745,
0.02001011371612549,
-0.005166679620742798,
-0.0002926364541053772,
-0.023278092965483665,
0.125177264213562,
-0.014189857058227062,
0.047889042645692825,
-0.09875904768705368,
0.009685121476650238,
0.08791515976190567,
-0.01398866530507803,
0.022365974262356758,
-0.06276814639568329,
-0.03237663209438324,
0.038081228733062744,
-0.10146955400705338,
-0.07029428333044052,
0.015241565182805061,
-0.005207122303545475,
0.004998005926609039,
-0.017096400260925293,
-0.04377421364188194,
0.05946950986981392,
0.043234970420598984,
0.01049070805311203,
-0.056884776800870895,
-0.02970297634601593,
-0.07107040286064148,
-0.024193331599235535,
-0.09349819272756577,
-0.018026277422904968,
0.04495471715927124,
-0.08149832487106323,
-0.05546241253614426,
0.06612201035022736,
-0.07605002820491791,
-0.04920420050621033,
0.0954505205154419,
-0.06000637635588646,
-0.006027236580848694,
-0.057770028710365295,
-0.09683093428611755,
-0.0645226463675499,
0.05819585919380188,
0.02716684341430664,
0.0031644031405448914,
-0.006843261420726776,
-0.02135132998228073,
0.07201400399208069,
0.0856783539056778,
-0.0572221614420414,
0.02167443186044693,
-0.09981687366962433,
-0.09160607308149338,
-0.05881902202963829,
-0.09663889557123184,
0.07030545920133591,
0.07345432788133621,
-0.057067181915044785,
0.004668377339839935,
-0.08452144265174866,
0.09185829758644104,
0.05562746152281761,
0.02660667896270752,
0.08102807402610779,
0.08019289374351501,
-0.006384328007698059,
0.0003602355718612671,
-0.016309477388858795,
0.034553006291389465,
-0.07477327436208725,
0.07081358879804611,
0.03184466063976288,
-0.07129594683647156,
0.09928913414478302,
0.009954564273357391,
-0.11221534013748169,
0.06880278885364532,
0.05910810828208923,
0.03318174183368683,
-0.036879342049360275,
-0.08396568894386292,
0.07753363996744156,
-0.04529356583952904,
-0.025977417826652527,
-0.000934735347982496,
-0.04621211439371109,
-0.09904088824987411,
-0.13026311993598938,
0.03935692459344864,
-0.0680537298321724,
0.011264855973422527,
0.04962237551808357,
-0.08548025041818619,
0.00046442088205367327,
-0.0380861759185791,
-0.00985005497932434,
0.015156610868871212,
0.06062038242816925,
0.09065712988376617,
0.05914738029241562,
0.02025686949491501,
-0.07238151133060455,
0.05183887854218483,
0.017316393554210663,
0.008311042562127113,
-0.06796938925981522,
-0.04844361171126366,
0.03931480646133423,
-0.0645313635468483,
0.0934477150440216,
-0.01876102387905121,
0.0049362764693796635,
-0.049471765756607056,
-0.03857051208615303,
0.07281136512756348,
0.007385969161987305,
-0.036529913544654846,
-0.029436087235808372,
0.07274183630943298,
0.09164027869701385,
0.03756760060787201,
0.02738673985004425,
0.031669631600379944,
0.07267697155475616,
0.0694756805896759,
0.061765462160110474,
-0.035626716911792755,
-0.005844056606292725,
-0.048940740525722504,
-0.0024209171533584595,
-0.03874150663614273,
0.039337143301963806,
-0.059056613594293594,
-0.07561618834733963,
0.03841349482536316,
-0.028880424797534943,
0.09108419716358185,
0.03976050019264221,
-0.01676402986049652,
-0.06321686506271362,
0.08255147933959961,
0.07055436074733734,
0.04975688457489014,
0.07832160592079163,
-0.08334723114967346,
-0.04067324101924896,
0.01601146161556244,
0.030334889888763428,
0.03986254334449768,
0.09691043198108673,
0.050746336579322815,
0.05298103392124176,
-0.07502926886081696,
-0.0278446264564991,
-0.10110567510128021,
0.0919823944568634,
-0.0869293063879013,
0.03084815852344036,
0.0519062876701355,
0.01567739248275757,
-0.09496990591287613,
-0.025463178753852844,
-0.044368866831064224,
0.08382782340049744,
0.08113501965999603,
0.06163351982831955,
0.07126487791538239,
-0.08783793449401855,
0.030731573700904846,
-0.03820490092039108,
0.023335376754403114,
0.06870442628860474,
0.05191999673843384,
-0.012817521579563618,
0.013717226684093475,
-0.08795265108346939,
-0.06953337788581848,
0.09427499771118164,
0.021553657948970795,
0.03398860991001129,
-0.05382116138935089,
-0.0844620019197464,
0.013988278806209564,
0.07605275511741638,
-0.05927354842424393,
-0.10006901621818542,
0.08346977829933167,
-0.07150572538375854,
-0.06075470149517059,
0.07051607966423035,
-0.046118177473545074,
-0.07031311839818954,
-0.05430596321821213,
-0.07995453476905823,
0.08941583335399628,
-0.025471016764640808,
0.10164083540439606,
0.052083805203437805,
0.04114118218421936,
0.008573226630687714,
-0.016029275953769684,
-0.03235785663127899,
-0.04640640690922737,
-0.06562546640634537,
0.010271385312080383,
0.02388693392276764,
-0.03775923699140549,
0.07572391629219055,
-0.07696083188056946,
0.03980480134487152,
0.10179609060287476,
-0.07213075459003448,
-0.0682615339756012,
-0.07949694246053696,
0.013843350112438202,
-0.08811577409505844,
0.047581203281879425,
0.046073753386735916,
-0.046492449939250946,
-0.11191538721323013,
-0.01794443652033806,
0.029102511703968048,
-0.10206153988838196,
0.08576257526874542,
-0.0703086331486702,
0.02547752857208252,
-0.028547974303364754,
