#define layer2 const ap_fixed<32,24> layer2_weights[n_layer1][n_layer2] = {{0.3035296, -0.2862462, 0.35752538, 0.011110084, 0.28085992, 0.44925267, -0.467053, -0.46619654, -0.39373687, 0.4143384, -0.33548078, 0.5354268, 0.20143794, 0.4068846, -0.6337565, -0.5505381}, {0.32984608, -0.17861603, 0.51550007, 0.11614651, -0.41744044, -0.049327236, -0.06201875, -0.33498627, -0.26663306, 0.4861352, -0.5991843, -0.12377141, -0.44758382, 0.48204267, -0.35639668, -0.09194755}, {0.7224655, -0.07487802, 0.53098243, -0.081225984, 0.02319084, 0.6502879, 0.3199081, 0.37654802, -0.08349233, 0.570072, 0.28452766, -0.8572283, -0.19539326, -0.21740627, 0.14158511, 0.07736012}, {-0.3275064, -0.3151436, -0.33462182, -0.011172212, -0.03975089, 0.4250863, 0.70007116, 0.46609378, -0.03675343, 0.5167141, -0.28386602, -0.6418388, -0.07864746, -0.10989456, 0.8797868, 0.5109198}, {0.2667378, 0.5140695, -0.10083377, -0.4221374, 0.6127278, -0.08805302, 0.23387894, -0.58587945, 0.37382397, 0.28590453, -0.23103374, 0.6224136, -0.56465155, -0.14106297, 0.6009285, -0.08624021}, {0.22519371, 0.08000799, -0.064655654, 0.66264284, -0.46137583, 0.023012467, 0.70332336, 0.37415737, -0.03279772, 0.06980442, 0.25623658, -0.41420805, 0.60970217, -0.33719543, 0.27275062, 0.065827675}, {-0.04628082, 0.38333103, 0.13478924, -0.4594141, 0.52463704, 0.09035465, 0.6133179, -0.3028236, 0.24313138, -0.3454318, 0.42887285, -0.4034782, 0.2220186, -0.077432305, 0.5207424, 0.5451711}, {0.15821387, 0.5663359, -0.75594205, 0.21329896, 0.4711606, -0.3314155, 0.7194377, 0.103309974, 0.32068014, -0.69583607, 0.27618936, -0.072807804, -0.28020185, 0.023216914, 0.0741634, 0.01911439}, {-0.37699917, -0.19434209, 0.25744855, 0.22944868, -0.039526023, 0.19936444, -0.2998343, 0.4899523, 0.4206389, 0.096493185, -0.21438834, 0.18112276, 0.35162506, 0.1642685, 0.12656638, -0.12753493}, {-0.3730971, 0.6629697, 0.08365623, -0.6001952, 0.36180937, 0.38726866, 0.3064096, -0.48977095, 0.49396694, 0.6134572, -0.34413895, 0.6324131, -0.7407393, 0.36756802, 0.3200824, 0.32049248}, {0.13028346, -0.39461133, 0.34436843, -0.45234057, 0.2558102, 0.57996583, 0.010021524, 0.02126026, -0.09651265, 0.5733116, 0.5570303, 0.1643434, 0.24015307, -0.21114773, 0.46741593, 0.09387441}, {-0.4132271, 0.37080854, -0.22879899, 0.5371695, -0.37495145, -0.6119428, -0.018869726, 0.21958989, 0.57709485, 0.2837834, -0.6264047, 0.57718337, -0.25888675, 0.33552036, -0.18708952, 0.54410315}, {0.32346296, 0.7039702, -0.038171623, 0.5092231, 0.09799118, 0.55554956, 0.41162175, -0.2785382, -0.25049588, -0.1299202, 0.23275834, 0.6874919, 0.34358993, 0.13824892, 0.08354162, -0.18534306}, {0.032985106, 0.52462584, 0.2644059, -0.025514359, 0.42960155, -0.32964966, 0.2955499, 0.61753696, 0.25826827, -0.44558272, 0.4729346, -0.08399475, 0.23537405, -0.009843515, -0.3452356, -0.049312957}, {0.58393043, 0.24480395, -0.11969765, -0.16521443, 0.033274032, 0.25584364, 0.170278, 0.4935353, -0.46046665, 0.27676436, 0.19300283, 0.46377447, 0.46143287, -0.73428077, 0.5731523, 0.052388124}, {0.2769536, -0.14889672, 0.54468244, 0.21533334, -0.5353117, 0.29444778, 0.07188785, 0.41545528, 0.15589696, 0.20748596, -0.5933342, 0.39584184, -0.32420328, 0.25779232, -0.30442476, -0.3311415}, {-0.22765237, 0.33654752, -0.32770422, 0.3131353, 0.7352703, -0.16275209, -0.28472042, -0.25116417, 0.38086027, -0.8520679, 0.23751977, -0.60708785, 0.45126495, 0.52807987, -0.028712785, 0.58649284}, {-0.6757055, 0.1854439, 0.019586325, -0.39666218, 0.64351493, 0.104816705, -0.25247017, -0.28609398, 0.45717967, -0.6001121, 0.27994266, -0.2848009, 0.68756527, -0.3299588, 0.0852436, 0.1503695}, {-0.55413246, -0.39981586, -0.33130017, 0.34087262, 0.5146159, 0.60868126, 0.52236253, 0.16141547, 0.18693936, 0.2526544, -0.4227923, -0.22074683, 0.23729077, -0.48087472, 0.4151424, -0.019221975}, {0.024523085, 0.10603849, 0.45030135, 0.61479217, 0.050886374, 0.38747808, 0.43861026, 0.19294532, 0.1475409, 0.26993743, 0.04186628, 0.55861, 0.17164928, 0.3471005, -0.24074648, -0.064588994}, {-0.30703065, -0.6884109, -0.8912233, -0.33290508, 1.0047413, 0.5615782, -0.4245671, 0.81235045, 0.9253457, -0.5660296, 0.6057438, -0.77380544, 0.039351232, -0.12636903, 0.3600563, -0.07558112}, {1.0965405, 0.6244522, 0.06781704, -0.97709626, 0.17030029, -0.0010912265, -0.8380787, 0.639509, 0.40029928, -0.85675424, 0.34174162, 0.29654834, 0.21941142, 0.46997905, 0.55109537, -0.17384583}, {-0.06284823, -0.12692341, 0.62632513, 0.5869664, 0.59268504, 0.26253617, 0.22807595, -0.81362945, -0.16643973, -0.32771656, 0.27199128, -0.23390514, 0.1327135, 0.69343996, -0.08817095, 0.38921016}, {-0.07987608, -0.045020167, 0.21095636, 0.17556268, -0.43714967, -0.7438546, 0.019931734, 0.7595238, 0.25992852, -0.36599368, 0.46974277, 0.2894931, 0.3869502, 0.3501384, 0.04441054, 0.70916253}, {0.40898106, -0.122975044, -0.44159797, 0.02804757, 0.37350658, 0.027838236, 0.35572156, -0.49299294, -0.15018333, 0.29153723, 0.1478594, -0.03886272, -0.083149716, 0.051058367, 0.19804847, 0.21699299}, {-0.07685845, 0.81258965, -0.24468061, -0.4837072, 0.29815322, 0.47128323, -0.49514276, 0.23638421, 0.31990975, -0.20530057, -0.09087805, 0.52354866, -0.20897967, 0.5534185, -0.25020796, -0.43589666}, {-0.018077211, 0.65161765, 0.29964802, -0.5843618, -0.085749485, -0.03178116, -0.28414854, -0.42754313, 0.33570373, 0.7926385, 0.2141448, 0.9607818, -0.13598281, -0.10441598, 0.6218265, -0.6192753}, {0.33282715, -0.11432967, -0.17382596, 0.39199463, 0.15802057, 0.21824463, 0.38412425, 0.49072826, 0.3588303, -0.12021919, 0.11138492, 0.13918157, 0.37523237, -0.012351682, -0.29547673, -0.19549106}, {-0.13855629, 0.47718167, -0.09719721, -0.2378272, -0.027480083, -0.48629504, 0.8436316, 0.6541778, 0.62479776, -0.02834813, -0.3728453, -0.7517401, -0.91316277, 0.4040293, 0.36280745, 0.04954906}, {0.47586873, -0.35528255, 0.70532715, 0.5530268, -0.4288559, -0.35424778, -0.4105969, 0.44329488, 0.36172265, 0.2677536, 0.00073835696, 0.39013302, -0.09218866, 0.74345404, -0.13411283, 0.21994978}, {0.53326195, -0.32759562, -0.3621062, 0.34860775, 0.5095045, -0.5058571, 0.02742984, -0.18373726, 0.1633473, -0.7987831, 0.5154275, -0.14546368, 0.52514106, 0.5230434, -0.5628883, 0.12910679}, {-0.6458865, -0.57539016, -0.98378694, -0.28158724, 1.0180781, 0.24379742, -0.18790466, -0.077731304, 0.6613725, 0.011858283, 0.058135908, -0.6256707, 0.5402325, -0.28019884, 0.111835, -0.5649055}};