{{0.26360086, 0.22587603, 0.23180763, -0.29160732, -0.16392109, 0.093283154, 0.07024728, -0.12475824, 0.25461823, -0.12896983, -0.15374307, 0.34259006, 0.118707694, -0.17872134, 0.27285886, -0.14930029}, 
{0.04303492, -0.12301489, 0.25629488, 0.33349958, -0.036304925, 0.009068326, 0.230784, 0.026813446, -0.34261835, 0.084023915, 0.015483602, -0.18355398, -0.06857054, 0.01583529, -0.004925924, 0.33067882}, 
{-0.06763649, -0.042126644, 0.13398963, 0.06498664, 0.26563954, -0.007927255, -0.21788976, -0.09239805, 0.014259249, -0.017887061, 0.32060143, 0.30508664, 0.103341, -0.30165106, 0.18501046, 0.30137563}, 
{-0.23670112, 0.32514352, 0.115682065, 0.38196367, -0.198153, 0.18757185, 0.25738168, -0.026664985, 0.30128852, -0.014459306, 0.06435648, -0.10802889, 0.31968755, 0.13657477, 0.18274666, -0.26142147}, 
{0.14387599, -0.035380002, 0.14662263, -0.028483493, 0.054539286, 0.59232134, -0.119687274, -0.308888, 0.025958674, 0.13752392, -0.1706387, -0.29113445, -0.008111802, -0.15959327, 0.05648446, 0.29130507}, 
{0.34460965, -0.22248538, -0.09235652, -0.17227158, 0.27304727, 0.21178754, 0.20814401, -0.11186604, 0.08519517, 0.18107627, 0.33849704, 0.25286636, -0.18999067, 0.09606512, -0.09302546, 0.14703172}, 
{-0.45848057, 0.23745976, 0.13102831, -0.22907399, 0.028169435, 0.07505229, 0.00828355, 0.21692008, 0.09485946, 0.12958682, -0.0050235204, 0.18920879, 0.17532454, 0.51162064, -0.36875927, 0.022563405}, 
{0.02029515, 0.24051791, -0.33460468, -0.22959164, 0.20801106, 0.13941285, -0.30105317, -0.23083784, -0.15125544, 0.095409036, 0.33813837, 0.27509123, 0.33133608, 0.14324477, -0.30114043, -0.17826003}, 
{-0.10063825, 0.10813209, -0.22751668, -0.30963752, -0.2960233, -0.15711887, 0.26062873, -0.1592897, -0.011141995, -0.25368345, 0.093421355, -0.3469541, -0.12558506, 0.012139347, 0.045276444, 0.3450373}, 
{-0.21477273, 0.32395852, -0.18090762, 0.066247016, 0.10814395, 0.23138313, 0.14326468, -0.09553728, -0.19108105, -0.14165145, 0.2817142, 0.006289349, 0.46507016, -0.0039953706, 0.206614, 0.049288973}, 
{0.07756212, 0.035599843, 0.16845345, 0.17635606, 0.12688473, 0.112801, -0.11860562, 0.3891776, -0.45998824, 0.20862354, -0.3468116, -0.17168826, 0.1281557, 0.24445975, 0.21355078, 0.08807353}, 
{-0.23217197, -0.05093123, 0.23505542, 0.18233815, -0.07554715, -0.3325048, -0.16428159, 0.37006807, 0.081511185, -0.09600368, -0.31954688, -0.16976137, -0.14275816, 0.08811667, 0.10913995, 0.20886914}, 
{0.14121568, 0.013104074, -0.121893995, 0.13075076, 0.15492678, -0.18314919, -0.10519053, 0.32760423, -0.111781634, -0.3542984, -0.2647306, 0.22389802, -0.1923204, 0.15535559, -0.16033639, -0.09698265}, 
{-0.112934425, 0.018781792, 0.019263629, 0.12508188, -0.2004506, -0.1975986, 0.40779206, -0.07120702, -0.074979655, 0.26046252, 0.13496768, -0.031426705, 0.27301082, -0.21557616, 0.41416612, 0.25160635}, 
{-0.09569199, 0.3056208, -0.07972315, -0.12628554, -0.017232446, 0.06003201, 0.12150491, 0.27418315, 0.030094393, 0.10371276, 0.41371894, 0.35647675, 0.24402532, 0.21316943, -0.07102616, -0.20296289}, 
{-0.25714427, -0.06533205, 0.29503274, 0.085309625, 0.1195529, 0.1389986, -0.33102313, 0.21820338, -0.15628767, 0.06566475, 0.14945227, -0.0015823294, -0.28556675, -0.16409048, -0.22785544, 0.16715331}, 
{0.3902427, -0.14816754, -0.100938626, -0.18126163, 0.19126295, -0.29353398, 0.29377156, -0.01891519, 0.17917034, -0.011717324, 0.13915282, -0.11984345, -0.060724594, -0.04562231, 0.05779012, 0.4078959}, 
{-0.26780418, 0.3202967, 0.2972159, 0.20509268, -0.34905738, -0.28411824, -0.10139466, 0.13123453, 0.20057671, 0.14186542, 0.043491438, 0.29756597, -0.11802742, -0.24129179, 0.23871008, 0.03815506}, 
{-0.24372259, -0.25708166, -0.09456026, -0.29583243, -0.16976503, -0.2113135, 0.3053136, -0.36285612, -0.04615028, -0.20713033, -0.09481088, -0.008178661, -0.15652643, 0.044641864, -0.46910807, -0.12764376}, 
{-0.10742687, 0.24132961, -0.21434173, -0.10270671, -0.053145442, 0.15302193, 0.12257222, -0.26458293, -0.0021664016, 0.02363868, -0.24954939, 0.00666797, 0.31667647, -0.13744393, 0.26348, -0.3213673}, 
{0.03169379, -0.31423834, 0.26392373, 0.21946754, 0.23032658, 0.33669895, 0.13608092, -0.31169617, 0.34593377, -0.022223609, 0.05076267, -0.13179319, 0.19313303, 0.24357791, -0.1826911, 0.13873595}, 
{0.06654838, -0.12671538, -0.08103557, -0.28394383, -0.06769431, 0.30997843, -0.26653147, -0.15269378, 0.33978283, -0.14764346, -0.1121214, -0.008390776, -0.069707885, -0.19264106, 0.016071398, 0.3169847}, 
{0.07657813, -0.047281414, -0.20264737, 0.12594825, -0.23192774, -0.32485718, -0.16922967, -0.28036973, -0.031765204, -0.2405549, 0.31928912, -0.09955073, -0.35889506, -0.06777066, 0.22912967, 0.3392091}, 
{0.18492645, 0.23031649, -0.0008344264, -0.21142231, -0.31211936, 0.2813566, -0.020212421, -0.09989636, -0.24031828, 0.06524421, -0.27442852, -0.20666543, -0.2369078, -0.13669999, -0.1844726, -0.065418124}, 
{-0.015263319, -0.13043341, 0.1308553, 0.0022019716, -0.07601246, 0.3501052, 0.26858318, 0.09673011, 0.023891173, -0.1303817, -0.14928785, 0.17252895, -0.12957564, -0.19894606, -0.32483003, -0.04827}, 
{0.22508374, -0.13563664, 0.14255457, 0.24096338, -0.09302534, 0.0052858726, 0.05129263, -0.2712659, -0.25900725, -0.32015157, 0.12465473, 0.18751945, 0.17699188, -0.0033912887, 0.10999395, -0.31660292}, 
{-0.20834708, 0.15556507, 0.14990635, 0.13258323, 0.040912606, -0.14290354, 0.21743613, -0.32616627, 0.34634298, -0.16070566, 0.0761374, 0.27795848, -0.21976411, 0.32393402, -0.092396826, -0.03610557}, 
{0.39616376, -0.07644676, -0.034937993, -0.045209117, -0.097148955, -0.18926574, 0.046116587, 0.027736599, 0.15147205, -0.22220936, 0.24430211, -0.08534163, -0.23026721, 0.0961188, 0.103209086, -0.13488872}, 
{-0.2526198, 0.08462221, -0.041438397, -0.2827131, -0.062910855, 0.17978838, 0.17107768, -0.1873783, -0.17455275, -0.26792496, 0.037796427, 0.21881622, 0.104696535, 0.2267597, -0.32627633, -0.24047902}, 
{0.19932827, -0.26453936, -0.2545011, -0.24684414, -0.18621795, -0.26622894, 0.0409066, -0.0650882, -0.019731173, -0.20060252, 0.3122686, 0.06231453, 0.109653525, 0.16072203, -0.04602027, -0.26907638}, 
{0.33815175, 0.14202148, 0.01767922, 0.14161503, -0.04669318, 0.23518358, -0.1663224, -0.29829538, 0.10360961, 0.07545282, -0.23227312, -0.31501758, -0.38847822, 0.057617284, 0.16340235, 0.26040253}, 
{0.32347572, -0.26220706, 0.12750334, -0.20322013, 0.18581049, -0.28378975, 0.19863753, 0.00832979, -0.1452958, 0.21943893, 0.15972948, 0.3305135, 0.14181091, -0.2897672, -0.09406339, -0.06652528}}