#define layer3 const ap_fixed<32,24> layer3_weights[n_layer2][n_layer3] = {{0.70749885, 0.40590042, -0.113228515, -0.51599187, 0.1240862, 0.81117356, -0.032046866, 0.0468019, -0.8211441, -0.6812022}, {-0.65341145, -0.6992961, -0.47187817, -0.06347299, 0.41021737, 0.917632, -0.06944368, 0.58777004, -1.0406313, 0.5058642}, {-0.36737737, -0.60128576, -0.379983, -0.7829935, 0.14401414, 0.842047, 0.49571615, -0.2884221, 0.7266479, -0.6803984}, {0.27170312, -0.649919, 0.60856164, -0.4588999, 0.3762057, -0.49787152, 0.65650386, -0.6747005, 0.19455843, -0.31607822}, {0.15069972, 0.010979406, -0.14631088, 0.14357828, 0.09118623, -0.7311099, -0.88844407, 0.7018037, 0.2676455, 0.7012197}, {-0.11464925, 0.3654018, 0.4070322, 0.2928566, -0.7884638, 0.42123199, -0.735017, -0.2541604, 0.5879213, 0.26067066}, {0.1494632, -0.8392817, 0.7947509, 0.5193087, 0.08215591, 0.11268882, -0.16300903, 0.32965803, -0.38156247, -0.31696603}, {-0.23007275, 0.9383038, 0.50238484, -0.4220461, -0.3212366, 0.005153294, 0.49002916, -0.3558048, -0.58774483, -1.1215278}, {-0.68820155, 0.3460848, -0.10781525, -0.19511338, 0.52897745, -0.74286544, 0.069059335, -0.1331316, -0.30062935, 0.19649394}, {-0.25838575, -0.026904237, 0.12195207, 0.79714936, -0.30328006, 0.7590874, -0.19141926, -0.58342034, 0.63439804, -0.4851408}, {0.72931963, 0.52641284, -0.21102034, -0.2979911, -0.5582013, 0.0031656371, -0.27466592, 0.6691225, -0.8220403, -0.029149313}, {0.046415523, -0.5600376, -1.0635343, 0.35822773, 0.18287887, 0.64252174, 0.80986714, -0.7679061, 0.42437634, 0.63084507}, {0.7399282, 0.2873508, -0.01464874, -0.36326596, -0.9263439, -0.85551536, 0.75061685, 0.40608254, 0.3899986, 0.2057559}, {-0.16729057, -0.15085897, -0.17987993, -0.73919773, 0.931981, 0.10064108, -0.1404921, -0.11953198, 0.17492548, -0.11233118}, {-0.19364923, 0.35857663, -0.26049224, 0.821622, -0.13329302, 0.2716189, -0.5546892, 0.50739884, -0.36724254, -0.69636804}, {-0.18448693, -0.7070217, 0.6984868, -1.0987569, -0.15577985, -0.653956, 0.4128938, 0.8848744, 0.2404816, -1.214342}};