{{-0.24492352, -0.23993616, 0.4541784, 0.15844733, 0.3111917, -0.17798339, 0.21065804, 0.52598846, -0.036122344, -0.010425939}, 
{-0.023656612, 0.35895792, -0.20417628, -0.42351508, 0.45584384, -0.016584273, 0.5901742, -0.1187563, 0.23596336, -0.19863044}, 
{0.3669528, 0.21950682, -0.2985181, 0.007317595, -0.39143693, -0.29703638, -0.47401747, 0.112815686, 0.2525915, 0.5751543}, 
{-0.32355803, -0.6001647, 0.35558635, 0.1315366, 0.35278586, -0.107773304, 0.08439682, -0.2579709, -0.056491207, 0.35489494}, 
{-0.14683405, 0.050089717, 0.16958082, 0.11579305, -0.13237518, -0.25884956, -0.15664333, 0.7610408, 0.26158345, 0.061240956}, 
{0.41816035, -0.2508341, 0.17047065, -0.013760829, 0.00753885, 0.097129814, 0.22095512, -0.09093324, 0.14129886, 0.101455204}, 
{-0.27359644, -0.24746525, 0.21354032, 0.30931702, -0.09159978, 0.023176746, -0.08326775, -0.35662085, -0.32824245, 0.18268758}, 
{-0.13357645, 0.35598192, 0.002437529, 0.04564953, 0.5756681, 0.25079292, -0.475881, 0.12011569, -0.41999426, 0.374559}, 
{-0.42102173, 0.16871995, 0.42625383, 0.17775807, -0.20123674, -0.04127834, -0.216586, -0.19711806, -0.03548709, -0.06944473}, 
{-0.4408036, -0.28194588, -0.41920912, -0.12080981, 0.33930552, 0.12290094, -0.18566456, -0.08764648, -0.20281345, -0.2348377}, 
{-0.0134897, -0.09834578, -0.46635655, -0.014542637, -0.40204874, 0.13261996, -0.51814777, -0.234359, 0.32671586, -0.22537133}, 
{-0.35451528, -0.17401609, 0.3575202, -0.10152314, 0.42084053, 0.44805935, -0.37892088, 0.30138198, -0.41842073, -0.31745017}, 
{-0.33679542, -0.5548125, -0.2477706, 0.14094871, -0.45451, 0.5166904, 0.1472143, -0.11210661, -0.117547594, 0.24710774}, 
{0.17259675, 0.2972184, -0.15812828, -0.23345767, 0.19367354, 0.08374739, 0.34524214, 0.26991254, 0.24616455, -0.4870041}, 
{0.11094427, 0.030483646, -0.24434248, 0.47899055, -0.51371044, 0.11433131, -0.11208779, 0.57197326, 0.09010521, 0.018362015}, 
{0.40707543, 0.40098965, -0.08247556, -0.06175439, -0.14561266, -0.17068173, -0.44745702, 0.009661465, 0.14570192, -0.3314352}}