#define layer1 const ap_fixed<32,24> layer1_weights[n_inputs][n_layer1] = {{-0.6599417, -0.11682376, -0.12540011, 0.41896817, 0.25666434, 0.123229146, 0.543141, 0.28087255, 0.065124944, 0.4633581, 0.20863128, 0.28427413, -0.026150646, 0.033476632, -0.016185928, -0.33280173, 0.094101705, 0.13619329, 0.3188666, -0.067455694, 0.07606739, 0.19790043, 0.06118886, 0.13658528, 0.14137241, -0.786441, -0.14604004, -0.4545234, 0.3707873, -0.4482356, 0.04443716, -0.29491112}, {-0.529197, -0.09263123, 0.046800107, 0.06393665, 0.45847994, 0.2732278, 0.368601, -0.06763558, -0.15552874, 0.17589493, 0.24068534, 0.5399266, -0.17593533, -0.41464642, -0.13648148, -0.38963813, 0.34895083, 0.07974381, 0.12254883, -0.082549, -0.105281346, -0.125991, 0.20807335, 0.3303559, 0.31966555, -0.5538534, -0.1954157, -0.51357174, 0.16472085, -0.22247407, 0.13129371, -0.55176085}, {-0.36635923, -0.32376415, -0.28331965, 0.0017517447, -0.01028439, 0.4859852, 0.11426851, -0.22099794, 0.33371377, -0.34083197, -0.22514321, 0.55687505, 0.02553888, 0.092599995, 0.29826275, -0.26721588, 0.111047946, 0.13190058, 0.11283763, 0.36384964, -0.037528515, -0.38770282, -0.13317326, 0.7174054, -0.06320843, -0.48514146, -0.031249316, 0.08393231, -0.237933, 0.056597997, 0.018623764, -0.29253316}, {-0.041306995, -0.2396629, -0.5042772, -0.19411679, -0.27580386, 0.71508604, -0.36402744, 0.06574479, 0.55518097, -0.34792542, -0.6890302, 0.49080878, 0.3531738, 0.3667687, 0.24559596, 0.20799378, 0.12220381, -0.38141862, -0.2044767, 0.63864875, 0.22777937, -0.78760064, -0.27619213, 0.8005336, -0.61236024, -0.09003627, -0.22776306, 0.529569, -0.329459, 0.66947925, 0.29137805, -0.750267}, {-0.4341244, -0.37966722, -0.39580086, -0.19260494, -0.56242585, 0.50669247, -0.707991, 0.08475845, 0.50089407, -0.5069228, -0.60786676, 0.39207911, 0.36646634, 0.4208889, 0.18887888, 0.28833243, -0.21493559, 0.08675254, -0.37841716, 0.25382397, 0.21526033, -0.73432505, -0.042883772, 0.31606856, -0.35266778, -0.27728516, -0.3740823, 0.50701433, -0.5429036, 0.4565308, 0.21422781, -0.5384554}, {-0.45458937, -0.10773266, -0.34765428, -0.25146866, -0.14162622, 0.4872467, -0.41564664, 0.038137898, 0.37899682, -0.65225327, -0.43445235, 0.05950434, -0.14930387, 0.4000892, -0.020984046, 0.23132302, -0.015327306, 0.25980183, -0.058548383, 0.23823257, 0.08906025, -0.5214414, -0.33412, 0.40792835, -0.57161194, -0.19375437, -0.13213176, 0.09545902, 0.0746262, 0.33532122, 0.0042148433, 0.16845515}, {-0.060397707, -0.033008974, -0.12785858, -0.050395176, -0.124574795, 0.21174674, -0.21531148, 0.03242953, 0.0867406, 0.19597921, -0.5837806, 0.4209932, 0.34848994, 0.13753025, -0.1901596, 0.54835653, 0.06020162, -0.18013231, -0.27974635, 0.2659658, -0.9957539, 0.35400996, 0.19036232, 0.4921916, -0.43971807, -0.06824723, 0.08581918, 0.2128771, 0.06739883, 0.16216427, 0.07161196, 0.078717545}, {-0.084777445, 0.21299878, -0.41935462, -0.39030278, -0.060505684, 0.1559152, -0.28695002, 0.25558543, 0.47903818, 0.51198375, -0.7563489, 0.62390935, 0.16824265, 0.104079545, -0.07797201, 0.4728898, 0.34941697, 0.14430557, -0.5488198, 0.1444284, -0.78470725, 0.4276336, 0.25978675, 0.60003984, -0.58364826, -0.18403625, 0.09306938, 0.2069029, 0.14144593, 0.41879046, 0.35359424, 0.207728}, {0.13296375, 0.18579423, -0.05705843, -0.12795176, 0.21554223, 0.09791767, 0.034995686, 0.100356266, 0.22817668, 0.52840585, -0.32905048, 0.57024926, 0.2475131, 0.2696141, -0.28457537, 0.47024274, 0.12991086, -0.14787564, -0.33239472, 0.38005584, -0.66532415, 0.58186007, 0.38934404, 0.4157586, -0.22109415, 0.10545137, 0.05112212, 0.22177432, 0.42742953, 0.50309414, 0.14796467, -0.0868705}, {0.3187191, 0.18518724, 0.3100386, -0.26691297, 0.20879348, -0.4984136, -0.05292419, -0.30421546, -0.108358435, 0.103118934, 0.41671917, -0.058392767, 0.34468308, -0.25808457, 0.007937958, 0.19908638, -0.37905413, -0.32088655, -0.41426516, 0.09113632, -0.13564649, -0.091319, 0.055317137, -0.35849297, -0.28268462, 0.28153604, 0.31974247, -0.45708963, 0.031103782, 0.50358284, -0.35583833, -0.5341971}, {-0.4790577, -0.41351286, -0.19257747, 0.1852445, 0.24327053, 0.063750826, 0.5346204, 0.25364262, -0.12786883, 0.35261756, 0.022626933, 0.35523686, 0.119660206, -0.25614583, -0.083865665, -0.29876393, 0.41707557, 0.36603233, 0.14165924, -0.33258504, 0.013502538, 0.40543568, 0.18146554, 0.32072797, 0.50416213, -0.61970586, -0.07938337, -0.4448449, 0.3703103, -0.6703693, -0.18612903, -0.42322806}, {-0.38033187, -0.46239325, -0.36765698, 0.015288325, 0.43202034, 0.08307615, 0.2451947, 0.14175922, 0.18666862, 0.2115816, 0.072692014, 0.7126559, -0.20764378, -0.39960605, 0.08867517, -0.39412576, -0.12982532, 0.2905668, 0.4474279, -0.40406853, 0.19140206, 0.40910155, -0.44634876, -0.039606694, 0.13171211, -0.3849045, 0.31207466, -0.18101251, -0.029921206, -0.4569286, -0.09687163, -0.36752498}, {-0.42541468, -0.034999523, -0.40304968, 0.23769209, 0.1283309, -0.07236707, 0.25882968, -0.1259342, 0.19098437, -0.11587138, -0.117665894, 0.2870482, 0.122566074, -0.01997049, 0.30120525, -0.34602132, 0.067008965, -0.033225752, 0.3079791, 0.25910926, 0.0150942635, 0.035395384, -0.5545427, 0.33584896, -0.11553858, -0.376831, 0.21224782, -0.028615497, -0.036263835, -0.19042103, -0.2457823, -0.23330425}, {-0.24802247, -0.12587756, -0.37167203, 0.24697025, 0.20839874, 0.21401124, 0.034882963, -0.5762101, 0.08641517, -0.075017706, 0.051145297, 0.36270973, 0.06461912, -0.3270148, 0.33904564, 0.20376128, -0.3262707, -0.007956966, 0.23425992, 0.40864086, 0.10772162, -0.42013744, -0.28333238, 0.22056769, 0.050385486, -0.4776077, -0.11075974, -0.0024032176, -0.1726372, -0.3583996, 0.113703206, -0.2623964}, {0.03767749, 0.015824575, -0.19807485, 0.42144245, 0.2646658, 0.28409088, -0.13994941, -0.55779797, 0.47507554, -0.37903816, 0.24013074, 0.054557435, 0.37093547, 0.0074147386, 0.3603578, -0.0058185584, -0.11965563, 0.08510481, 0.3179595, 0.27660018, 0.02690853, -0.78607994, -0.002715902, -0.22053927, 0.009273213, -0.37736937, -0.0010012826, 0.1961913, -0.11695666, -0.047767952, -0.07608255, -0.004676987}, {-0.037397336, -0.009452366, 0.07015444, 0.09279315, 0.07973315, 0.2614945, -0.08228047, -0.36510414, 0.4095369, -0.2743559, 0.40126863, 0.101182625, 0.0981247, -0.047791068, 0.30905792, 0.07467505, -0.14803779, -0.22468555, 0.42886874, 0.01987759, -0.14510065, -0.53164923, 0.07173026, 0.091483414, 0.18831587, -0.11014221, 0.24874221, 0.119361624, 0.041108556, 0.19475602, 0.014679059, 0.5415821}, {-0.015035978, -0.1148729, 0.011975635, 0.22618726, -0.15308353, 0.026306598, -0.14345832, -0.13208385, 0.25087008, -0.17968689, 0.032909736, 0.14934935, 0.025713624, -0.051419806, 0.20455436, -0.008216068, -0.06614761, -0.66526943, -0.02455697, 0.058929365, -0.74641955, -0.26315802, -0.077794425, -0.017107125, -0.048750248, -0.18238248, 0.42854616, 0.2172534, 0.26135418, 0.045373924, -0.0123112295, 0.26358694}, {0.11776551, -0.34139535, 0.12752272, -0.28773347, 0.03531224, 0.03245119, -0.17505985, -0.08563363, 0.28333354, -0.050387893, -0.014485806, 0.26007634, 0.09437081, 0.2714032, 0.117190294, 0.23285867, -0.15247676, -0.56580645, -0.11943812, -0.08429671, -0.54294366, 0.19931902, -0.08372097, -0.007422901, -0.2841781, -0.3213062, 0.29950187, 0.30561805, -0.07169526, 0.37272066, -0.08818661, 0.12401608}, {0.09027759, 0.22174305, 0.10526996, -0.47838762, -0.08692829, 0.054475658, -0.37794632, 0.35433027, -0.08300201, 0.09712156, -0.23510085, 0.33666503, 0.23452844, 0.11055949, -0.03282956, 0.3619227, -0.27708274, -0.13262838, -0.45887285, 0.09400387, -0.3713114, 0.25968271, -0.13067268, 0.23552954, -0.26028588, 0.1993552, 0.13317664, 0.046546508, -0.02598786, 0.33014774, 0.29682472, -0.08721049}, {0.47589344, 0.26704323, 0.21801849, -0.21478239, 0.38582322, -0.46336153, -0.04344066, -0.39627132, -0.31492966, 0.05676042, 0.19035369, 0.11774735, 0.3957122, -0.32805532, 0.007020854, 0.14594635, -0.23419525, -0.20228298, -0.28367084, 0.26419294, 0.015851712, -0.42536002, 0.043394163, -0.31143862, -0.11013999, 0.3715044, 0.29377657, -0.3655072, -0.12674764, 0.41520277, -0.1752705, 0.078926735}, {-0.60890704, -0.055888996, -0.13026626, 0.36122164, 0.50647694, 0.046982758, 0.27198538, 0.2963333, -0.40339464, 0.27272058, 0.32852155, 0.48119193, 0.05254287, 0.031394795, 0.29769456, -0.18964016, 0.37656668, 0.012721874, 0.35987258, -0.18590036, 0.20541473, 0.4483642, 0.24024594, 0.09319047, 0.5805806, -0.72372425, -0.1780904, -0.5428659, 0.5399737, -0.44657093, 0.09493122, -0.2501752}, {-0.3265277, -0.24383439, -0.13733737, 0.47542703, 0.54112965, -0.07599195, 0.19309539, -0.040611867, -0.2002911, 0.3508857, 0.1571462, 0.32200405, -0.16346246, -0.28447834, 0.073161826, -0.27751198, -0.019763568, -0.07375524, 0.2517815, -0.05143819, -0.075123705, 0.055266745, -0.21892965, -0.14762627, 0.38496384, -0.368369, 0.0050795074, -0.33936483, 0.4901442, -0.49295175, 0.11129796, -0.21529505}, {-0.22843671, 0.2297519, -0.047306914, 0.20040387, 0.30462217, -0.17121083, -0.0076630446, 0.057862107, -0.16411316, 0.1466402, 0.15507835, 0.3770769, 0.100965686, -0.047413055, 0.11444537, 0.05964889, 0.2152138, 0.14509542, 0.10741112, -0.039656963, -0.093816124, -0.068013825, 0.27236095, 0.17497136, 0.25820675, -0.46482056, -0.22263703, -0.33417377, -0.006706518, -0.43795815, 0.06390227, -0.19516034}, {0.06237739, 0.2930719, 0.21067663, 0.25148475, 0.38201004, 0.16076641, 0.37713146, -0.030272294, 0.089540884, 0.08201509, 0.2689258, 0.013044822, 0.16638207, -0.16119307, 0.1837958, -0.026203206, 0.37766662, 0.17953028, 0.08819853, 0.2624319, -0.03240727, 0.21967787, 0.3569188, -0.078714125, -0.09646909, -0.23695748, 0.011789707, 0.02189739, 0.16191842, -0.23792867, -0.13695782, -0.21037875}, {0.28943872, -0.21914263, 0.32455924, -0.052488364, 0.19902515, 0.15248199, 0.052872226, -0.13300794, -0.25827545, 0.20236032, 0.07766473, -0.08617892, 0.3132597, 0.26485595, 0.24235566, 0.114360414, 0.046290196, 0.12218106, 0.19324332, 0.20958373, 0.14180508, -0.39858812, 0.054678544, -0.54527915, 0.209407, 0.26160735, 0.023233043, 0.26474997, 0.115124464, -0.22694087, -0.11984347, 0.056473505}, {0.1589007, -0.33456546, 0.106377065, 0.07526083, 0.0764602, 0.106301434, 0.026186759, -0.056133848, 0.23763297, 0.1116784, 0.030928744, -0.085749574, 0.67969555, 0.043605037, 0.32865196, -0.019960957, 0.063435316, 0.22992642, 0.16962835, 0.25127396, 0.10688129, -0.3104702, -0.09092269, -0.39073557, 0.11953989, 0.45947415, -0.030093137, 0.3836573, -0.46475443, -0.3455311, 0.06181722, 0.2473258}, {0.0525324, -0.109730676, 0.11710613, 0.05317162, 0.00011476611, 0.08637006, 0.25147286, -0.098773, -0.043431956, 0.16022313, 0.043613367, -0.026405571, 0.4295737, -0.11807801, 0.10308149, -0.19490483, -0.022046989, -0.050989654, 0.30437526, 0.092843026, -0.62059265, 0.38463637, 0.179594, -0.4157969, 0.3559121, 0.16898747, -0.06935666, 0.28236687, -0.005869795, -0.13977534, 0.07689859, 0.5020206}, {-0.005493235, 0.13512264, 0.15602873, 0.05606057, 0.05972558, -0.03263718, 0.0010339391, -0.3581312, 0.148376, -0.048245978, 0.04830217, -0.2838792, 0.2551408, -0.19889255, 0.1772815, -0.0312871, -0.023065293, -0.20124859, 0.013469682, 0.2723102, -0.95526433, 0.21449308, 0.31673118, -0.40580094, 0.22753994, 0.1569964, 0.04949462, -0.19897561, 0.29030576, 0.061002914, 0.34938535, 0.20354092}, {0.027654424, 0.372322, 0.12880594, -0.11669878, 0.10373029, -0.21704791, -0.030775348, -0.060362507, -0.28209725, 0.0422743, 0.23958161, 0.015808571, 0.14862943, -0.1677025, -0.16432223, -0.030944295, -0.17075905, -0.061434012, -0.27885535, -0.08394311, -0.3417858, 0.17793076, 0.63001406, -0.09223558, -0.12172008, 0.036338385, -0.058427967, -0.3198405, 0.17716348, 0.27893528, -0.063451394, -0.1850466}, {0.08897143, 0.34682953, 0.18330228, -0.67033505, 0.24927527, -0.4153832, -0.36327165, -0.062832445, -0.0032586628, 0.32120818, 0.12857042, 0.113149256, 0.16968544, -0.20209084, -0.0707915, 0.4842697, -0.039619584, -0.28010252, -0.18572636, 0.41409433, -0.2529105, -0.44600406, -0.21733867, -0.09185179, -0.37624907, 0.1373709, 0.14907184, -0.45241886, 0.31539664, 0.27326587, -0.3719204, -0.10530709}, {-0.80349743, -0.3563777, 0.43624246, 0.9479012, -0.014233952, 0.5738349, 0.41446644, 0.17986171, -0.247693, -0.3325437, 0.76967245, -0.46279043, -0.4471215, 0.10031259, 0.46759957, -0.2799586, 0.21601608, -0.07332653, 1.1834474, -0.7563048, 0.7711898, -0.14814949, -0.15765359, -0.3619466, 0.900221, -0.4980045, -0.21998596, 0.17208976, 0.86688405, -0.836443, -0.3319124, 0.18385768}, {-0.5394161, -0.124583825, 0.33093312, 0.30132017, 0.025048202, 0.18921049, 0.21639782, 0.19383854, -0.13287254, 0.2108796, 0.35943294, 0.11780188, -0.28598225, -0.15556982, -0.06901329, -0.020663032, 0.09383457, 0.095314175, 0.63642305, -0.14899303, 0.3890846, -0.32969612, 0.29460654, -0.15308619, 0.15738107, -0.45145705, 0.30295306, -0.012667438, 0.059936974, -0.77123845, 0.227879, 0.057885263}, {-0.13395806, 0.19030203, 0.20040171, 0.05228207, -0.06376278, -0.097178355, 0.0016460418, 0.046379678, 0.1741096, 0.44977248, 0.34555045, 0.025081037, 0.25065938, -0.114726596, -0.112356275, -0.06449868, 0.01962156, 0.29833472, 0.060258135, 0.43367255, 0.100232534, 0.30153227, 0.20466013, 0.05488391, -0.029021183, -0.2717517, -0.14044493, -0.07462116, -0.315591, -0.16464083, 0.14919367, 0.2839587}, {0.3618884, 0.29042745, 0.50420207, -0.15438506, -0.10874595, -0.042691667, 0.29081735, 0.11988932, 0.13325244, 0.29742572, 0.37609607, -0.13863924, 0.3804387, 0.36640874, 0.3234135, 0.21269384, 0.17242289, 0.29042968, -0.27562827, 0.2794263, -0.032082103, -0.28032818, 0.44135627, -0.077704206, -0.066561446, -0.113140054, -0.3102176, -0.17095293, 0.0770062, 0.2594037, -0.06617311, 0.25296018}, {0.3619892, -0.06425538, 0.50050956, -0.22431388, 0.1070295, -0.068602085, 0.23817113, 0.19059427, -0.093312435, -0.23381901, 0.3069387, -0.25719395, 0.42894417, 0.22239743, 0.21146844, 0.10857126, 0.28713736, 0.27610543, -0.14499103, 0.32486397, 0.53388155, -0.64214814, 0.21123397, 0.0030143333, 0.22907253, 0.39264297, 0.20481439, 0.20508556, -0.11362335, 0.33588627, -0.09132129, -0.43158486}, {-0.1323235, -0.2673377, 0.19445224, 0.39716324, 0.31404564, 0.16049679, 0.19122952, 0.115662076, 0.27705294, -0.1911464, 0.42044723, -0.3985186, -0.09377159, 0.11404497, 0.09285811, -0.08795663, 0.18566398, 0.31197903, 0.17191601, -0.14908001, 0.6037676, 0.36576065, -0.014681166, -0.013146133, 0.49872628, 0.2949451, 0.31347123, 0.07982781, -0.7167504, -0.047014456, -0.2721866, -0.23134865}, {0.21635887, -0.06383509, 0.22160646, 0.2639925, 0.24841243, 0.06374153, 0.2630956, 0.09128089, -0.11104489, -0.07850896, 0.32558072, -0.18642537, -0.1643885, 0.15760857, -0.24850473, -0.26133844, 0.21784858, -0.18174781, 0.1249206, 0.2023557, -0.41703546, 0.5810463, 0.28599012, -0.22011474, 0.58914566, -0.2110384, 0.026588129, 0.12073391, 0.6285319, -0.14893645, 0.41582516, 0.65479493}, {0.23278417, 0.09640796, 0.20512846, 0.14997748, 0.1815691, -0.32041055, 0.1249128, -0.006890253, -0.16089956, 0.20117715, 0.46540454, -0.23794173, -0.11628676, 0.024430254, -0.20965858, -0.14495298, -0.38229993, 0.03246431, 0.3060172, 0.20292638, -1.0930219, 0.0071623875, 0.38686797, -0.019635271, 0.48809776, -0.19964004, 0.046189647, 0.15776025, 0.24697849, -0.09720021, 0.29353562, 0.4612029}, {0.27334023, 0.4637982, 0.1867876, -0.16741247, -0.09295228, -0.5453951, 0.40938973, -0.37681475, -0.56959814, -0.08033141, 0.6375784, -0.38527292, -0.24619643, -0.15285237, -0.31322074, 0.28969884, -0.19424509, -0.18487476, 0.008898804, 0.049113117, -0.88697034, -0.07506965, 0.102102526, -0.15000042, 0.56746227, -0.17435884, 0.29450333, -0.1259022, -0.26640207, 0.107915424, 0.13527058, -0.37403297}, {0.4463742, 0.54830945, 0.7100081, -0.31893492, 0.7508175, -0.5646569, -0.65864104, -0.6137391, -0.6068717, 0.4730468, 0.60484564, -0.746592, 0.26894552, -0.45596212, 0.2662982, 0.72475946, -0.068188176, -0.56830037, -0.25125524, 0.035080746, 0.4491841, 0.08610308, -0.5464065, -0.8410731, 0.17459491, 0.006188878, 0.5388905, -0.7621887, 0.08002384, 0.31900746, -0.52248544, -0.57358515}, {-0.7199439, -0.79634124, 0.48916864, 1.11253, -0.078407444, 0.7224716, 0.61316127, 0.0686703, -0.3003144, -0.032709375, 0.62893045, -0.30677828, -0.5506878, 0.16099517, 0.40115842, -0.42245656, 0.5211926, 0.023752674, 0.84635663, -0.8997291, 0.84578204, -0.10979708, 0.1321856, -0.058930315, 0.8179477, -0.48559573, 0.14537036, 0.3624558, 0.6142961, -0.7763938, -0.29088756, 0.09742223}, {-0.40541345, -0.024828628, -0.00056808844, -0.48581553, 0.28118366, -0.6101669, 0.05946769, -0.2432168, -0.09632065, 0.32557464, 0.3989734, -0.22066358, 0.097286806, 0.084044375, 0.05797189, 0.042929534, -0.12822866, 0.36645523, -0.09747288, 0.12788808, 0.60145605, -0.4304418, 0.25818014, 0.17345487, -0.013566943, 0.30570546, 0.17401806, -0.08562088, -0.15014924, -0.6932133, 0.2084528, 0.004233352}, {0.01824018, 0.1254347, -0.10768916, -0.80940706, 0.022627058, -0.7177856, 0.12452557, 0.029640473, 0.1404804, 0.26219556, 0.3739212, 0.23535594, 0.43049195, 0.26335415, 0.08759599, 0.086044915, -0.02636766, 0.14375404, -0.30817574, 0.15595047, 0.0046589575, -0.2391896, 0.21108976, 0.10879058, -0.22622149, 0.23831396, -0.563693, -0.051051877, -0.46978188, 0.20282549, 0.32212895, -0.0678027}, {0.21288726, 0.25821224, -0.1399412, -0.5550181, 0.39752972, -0.47236136, 0.0021761612, 0.06455301, -0.20432721, 0.35444054, -0.28264487, 0.15955839, 0.22107609, 0.16867241, -0.00707875, 0.012790249, 0.253354, 0.16313428, -0.33389854, 0.32905102, 0.030261649, -0.11966922, 0.17403506, 0.11705566, 0.4473107, 0.017987343, -0.27034536, -0.076578215, -0.17830972, 0.20824839, 0.13088635, -0.051792685}, {0.25027058, 0.3024891, -0.3749054, -0.5684516, 0.21651644, -0.4180191, -0.1582685, 0.09827915, -0.036817934, 0.07195297, 0.30340305, 0.25298226, -0.116056755, -0.26567644, 0.036636043, 0.07657086, -0.27689907, -0.17955619, -0.16109537, 0.12279652, 0.41625068, 0.0431515, -0.09575403, 0.25627914, 0.30879918, -0.171328, 0.29617763, -0.2302567, -0.30767936, 0.3607676, 0.12706958, -0.42980438}, {0.39850354, -0.11912312, -0.21607473, 0.13659503, 0.44282323, -0.30689943, -0.057826355, 0.04309316, 0.4486087, 0.26009306, 0.31556073, 0.484623, -0.16469517, -0.20270517, -0.22585474, 0.05492291, 0.47630012, 0.19273667, 0.3222512, 0.09921781, 0.4862544, 0.4575079, -0.24993129, 0.38038167, -0.116183, 0.21294017, 0.5130567, -0.02093958, -0.14183664, 0.3158151, -0.5718128, 0.31618512}, {0.19633184, 0.020366613, -0.25253612, -0.06193892, 0.4611345, -0.08687111, 0.20316799, 0.27205884, -0.1853001, -0.09372387, -0.19599986, 0.3711892, 0.5416078, -0.09025922, -0.18302172, -0.08406776, 0.35848546, 0.26832807, 0.0894476, 0.26429647, -0.30336443, 0.015557467, 0.30271778, 0.25779688, 0.29176623, 0.13731086, -0.01695689, 0.11534055, 0.08232278, -0.2984511, 0.018841568, 0.5209407}, {0.26712817, -0.26822907, -0.5127646, -0.38328576, -0.010937382, -0.16759214, 0.06542198, 0.049121246, 0.28501633, -0.03976762, -0.064770594, 0.08232128, -0.011562077, 0.12880644, -0.075688586, -0.12213484, -0.2511119, 0.16654727, 0.35566258, -0.0028070977, -0.9568967, -0.16488934, 0.22115345, 0.27103937, 0.12516545, 0.034313302, -0.5427995, 0.27369705, -0.22558124, -0.24755232, 0.25767305, 0.59845746}, {0.3559372, -0.32967103, -0.66633505, -0.5874817, -0.56286556, 0.1512548, -0.09287821, -0.2437136, 0.6012817, -0.21275263, 0.14935976, -0.13933586, 0.15052979, 0.40656447, -0.10121014, -0.072803006, -0.3915251, 0.042231098, 0.3161328, 0.35181466, -0.04023169, -0.45077607, 0.17262208, 0.51989776, -0.10141336, 0.11602773, -0.61465305, 0.3676235, -0.29442844, 0.023127355, 0.28785864, -0.48726732}, {0.18171433, 0.44248793, 0.30037114, 0.6181013, 0.059411068, 0.029896975, -0.06949925, -0.3750996, -0.888399, 0.18147922, 0.60470015, -0.5430681, -0.09063329, -0.63932693, 0.03751844, 0.29530853, -0.35462013, -0.7905117, 0.18656369, -0.16512536, 1.0231785, 0.03411353, -0.15927596, -0.72774506, 0.39659277, -0.33777246, 0.20360701, -0.36578506, 0.6270372, -0.048271626, -0.92838836, -0.8144068}, {-0.7699776, -0.20766065, 0.3349748, 1.1585578, 0.5010188, 0.40495867, 0.57607627, 0.10853579, -0.3817164, -0.045604784, 0.7990415, -0.1451894, -0.18905376, -0.19828688, 0.49903607, -0.38090947, -0.29983777, -0.4125644, 0.8401542, -0.66212547, 0.52585435, 0.016589489, -0.29454312, -0.5958755, 0.7231433, -0.47948647, 0.41060153, -0.3096404, 0.69060504, -0.6030954, -0.63422436, -0.042160697}, {-0.2450416, 0.09875375, -0.472383, -0.2610534, 0.19593298, -0.011225683, -0.12039054, 0.018901838, -0.46443328, 0.020258283, -0.058257576, 0.30527258, 0.52804214, 0.22047077, -0.007087744, -0.07634966, -0.20810242, 0.0006919607, 0.07511086, 0.08692233, -0.100569494, -0.46232137, -0.19644159, 0.08523862, 0.022400513, 0.32406026, 0.10503427, 0.147059, 0.10445789, -0.349642, 0.3227982, -0.084075406}, {-0.23963827, -0.14389093, -0.46411493, -0.2732771, 0.03458641, -0.19182585, -0.04458301, 0.012839277, -0.27930364, -0.018645654, -0.1672554, 0.2453941, 0.18477225, 0.4390702, -0.4291417, -0.26379433, -0.28202957, -0.083306, -0.14522178, 0.17124613, -0.2843568, -0.39688256, -0.03289891, 0.21754923, 0.13495843, 0.14433797, -0.6662117, 0.41164607, 0.2535199, -0.08924249, 0.4659876, -0.24115738}, {-0.115474716, -0.08227739, -0.42397782, -0.29886004, 0.050346762, 0.24600014, -0.08213587, 0.25014243, -0.07235682, 0.2716526, -0.32639918, 0.107115544, 0.25024933, 0.25301325, 0.1524327, 0.28058162, -0.26139188, -0.21713042, -0.17419423, 0.24474229, 0.062711686, 0.080159776, -0.14799602, -0.0025885392, 0.48580295, -0.0213512, -0.7185509, 0.17971006, -0.036926903, 0.18340491, 0.390295, -0.09543243}, {0.20890196, 0.27691606, -0.44579637, 0.194398, -0.12432075, 0.50517625, -0.45377463, 0.064580895, 0.35563895, 0.5356521, 0.13987389, 0.003259009, -0.028336708, -0.20402259, -0.13880965, 0.46526614, -0.02959508, -0.31095892, 0.54149294, 0.2854444, 0.122170135, 0.21226867, -0.062795125, 0.0028528688, -0.29296976, 0.26110485, 0.21062052, 0.330277, 0.26045853, 0.3841597, -0.112576954, 0.16602826}, {0.10368252, 0.22703712, -0.16479452, 0.39849895, -0.040179893, -0.13223088, 0.11293638, 0.33621913, 0.46282986, 0.45498213, -0.030589234, 0.4661341, -0.40620297, 0.20878805, -0.37864703, 0.4028138, 0.3637885, 0.21525374, 0.43648288, 0.20604324, 0.19723567, 0.43081528, 0.1498309, 0.42033118, -0.12910785, 0.23244694, 0.26922828, 0.12934275, 0.11581388, 0.22618851, -0.61542517, 0.22140564}, {-0.10352645, -0.16858035, -0.110631645, -0.1269674, 0.20403655, 0.097456984, 0.15928859, 0.46124256, -0.011509783, 0.28890556, -0.38917583, 0.12612598, 0.30865905, 0.12953076, -0.10458339, 0.023771076, 0.3720917, 0.15641238, 0.27532613, 0.27249366, -0.41147777, -0.12840794, 0.30322108, 0.1943749, 0.37199226, 0.22069147, 0.13131183, -0.22830848, 0.2712236, -0.05834515, 0.15631911, 0.1331178}, {-0.5817308, -0.2741675, -0.46346387, -0.12650461, 0.37162182, -0.10184043, 0.2692886, 0.119220726, 0.017662654, 0.05344145, -0.010758796, 0.016972633, 0.25887653, 0.28514335, 0.041987035, -0.055200562, -0.27475518, 0.014758425, 0.02572008, 0.03638288, 0.0004663254, -0.08196031, -0.05901752, 0.2807868, -0.013508309, -0.23224604, 0.06970854, 0.2416425, -0.03229611, -0.25900027, 0.15157546, -0.6575351}, {-0.44574964, -0.3966891, -0.2577831, -0.2999738, 0.061255492, 0.3826147, 0.30633637, -0.121488556, -0.06346123, -0.049326207, 0.30857787, 0.18706147, 0.43165702, 0.3413605, 0.08509467, -0.16027857, 0.2904161, -0.46365538, -0.1923424, 0.05804645, 0.22711366, -0.5076566, -0.11265274, 0.27625573, 0.20453615, -0.43908745, -0.41132042, 0.06510647, 0.035345744, 0.105399296, 0.24867654, -0.4055544}, {-0.48616976, -0.22108087, 0.45250636, 0.40317267, -0.8902432, 0.88790184, -0.052707672, -0.011422435, -0.11082646, -0.69955593, -0.3133764, -0.04762407, -0.3028189, -0.4360419, -0.45124435, 0.41002855, -0.3002994, -0.49812073, 0.5815962, 0.023613798, 0.7968252, -0.59102726, -0.09982042, -0.35078838, -0.021525295, -0.88418335, -0.3488765, 0.36390728, 0.6213327, -0.42598662, -0.6524179, -0.73022425}, {-0.51846546, 0.5044846, 0.75809646, 0.3214929, 0.70482844, 4.5636363e-05, 0.31344378, -0.048419878, -0.75940406, 0.20662898, 0.4700828, -0.26388416, 0.29739255, -0.39372498, 0.5461662, 0.2646516, -0.21327357, -0.34784997, -0.041710258, -0.39241156, 0.2522302, 0.13175304, -1.0385784, -0.57004005, 0.4975013, 0.6362879, 0.79273427, -0.45217097, 0.53834647, -0.18728334, -0.6050095, -0.49249572}, {-0.29898927, 0.0075527234, 0.25589624, 0.4458429, 0.38085598, 0.06832042, -0.14566767, -0.34155, -0.5325398, -0.50063527, 0.44113576, -0.12477503, 0.016506571, -0.15485632, 0.27973676, 0.042025793, -0.39385527, -0.3368975, 0.39832166, 0.17139317, -0.1188982, 0.08104235, -0.18515737, -0.16076218, 0.4463553, -0.5131129, 0.4374725, 0.31683245, 0.5488003, -0.5664615, -0.1428726, -0.29756108}, {0.119563155, -0.07699845, -0.2139628, 0.07992846, 0.030812947, 0.17657174, -0.18085945, 0.07008182, -0.12781915, -0.50899625, 0.025701564, 0.008768689, -0.013294604, 0.101804785, -0.32374322, 0.23874027, -0.450543, -0.36907527, -0.06371129, 0.21704029, 0.13931799, -0.06160356, -0.0643693, -0.57626843, 0.17080508, -0.17067131, 0.1008572, 0.13668185, 0.22047347, -0.003200393, 0.08032884, -0.37835646}, {0.4422699, 0.0473973, -0.46855056, -0.22302428, -0.23878366, 0.33498487, -0.2109825, 0.1670417, 0.16485405, -0.61554724, -0.094365396, 0.10270763, 0.6286529, 0.11264993, -0.21405599, 0.031232243, -0.21175127, 0.034921616, 0.26087666, 0.287493, -0.15552229, -0.05376464, 0.21661219, -0.21296114, -0.12645057, -0.10889472, -0.46752825, 0.40481088, 0.061079007, 0.25261563, 0.48011717, 0.37686622}, {-0.008942665, 0.29887003, 0.08252534, 0.27411434, -0.26580563, 0.1870342, -0.20184495, -0.036752336, 0.25024256, -0.37022138, 0.0818118, 2.178464e-05, -0.20900033, 0.043577395, -0.2904296, 0.3460179, 0.22961411, 0.21386242, 0.15966256, 0.48169574, 0.054982144, 0.69149554, 0.38061765, 0.22190768, -0.31020314, -0.045256227, -0.3437248, 0.18611763, 0.2913721, 0.35099378, -0.48595765, 0.17113471}, {-0.42029494, 0.04925066, 0.04258368, 0.21514493, 0.11264088, -0.01045688, 0.18490525, 0.13412039, 0.19961978, 0.29729468, -0.04910742, 0.25128394, -0.24670514, 0.101599246, -0.26069462, 0.27338162, 0.22647557, 0.26214665, -0.1468659, 0.020995094, 0.45707166, -0.36559314, 0.03353996, 0.1908362, -0.05704261, 0.41901755, -0.03253347, 0.066953376, 0.15864983, 0.30846015, -0.18403997, -0.31053722}, {-0.1102066, -0.18237229, -0.24652953, 0.10286492, 0.05849639, 0.17895186, 0.12299579, 0.20526339, -0.1839147, 0.07799076, 0.008421978, 0.47297376, 0.33019033, 0.07482738, 0.40734264, 0.14409633, -0.37573686, -0.031070879, 0.22351947, 0.047752235, -0.06280118, -0.21324843, 0.023073902, 0.26913002, 0.28589848, -0.06830782, 0.31944576, 0.38531345, 0.108127035, -0.117863566, 0.28352162, -0.2561262}, {-0.24340788, -0.19300918, 0.025758509, 0.1999769, 0.14430302, -0.056491982, 0.17016822, -0.053965893, 0.1807434, -0.027547643, -0.025389967, 0.349099, 0.38928878, 0.18088868, 0.14118312, 0.088046916, -0.42973292, -0.10384982, 0.26471537, 0.13625646, 0.11300497, -0.28918666, -0.11168091, -0.14555793, 0.1499972, -0.072239004, 0.10526354, 0.026515238, -0.2138215, -0.25301906, 0.06350881, -0.39416844}, {-0.2592689, -0.050722625, 0.344206, 0.27905703, -0.19712852, 0.12949717, -0.24149163, -0.06522741, -0.05719788, -0.19882119, 0.43669498, 0.09875324, 0.14052472, -0.22650552, 0.33603016, 0.10116024, -0.1884606, -0.54521996, 0.22987552, 0.36620775, 0.09515564, -0.23685548, 0.061917137, -0.3501065, -0.10463279, -0.7468738, -0.6933096, 0.10654632, -0.19013016, -0.22305432, -0.23800024, -0.07410997}, {-0.7937144, -0.22287998, 0.5400189, 0.39476672, -0.8825683, 0.6759055, 0.13444532, 0.09285175, 0.2829661, -0.5865945, -0.44945088, -0.10220826, -0.45775738, 0.04349162, -0.25968105, 0.05316855, 0.04568376, -0.49938494, 0.5546036, 0.007627765, 0.6020466, -0.14915796, -0.2202992, -0.36135086, -0.020369634, -0.8437041, -0.60174257, 0.5489744, 0.49923372, -0.6124597, -0.45010573, -0.18959671}, {-0.54161304, 0.5831679, 0.7576125, 0.28407502, 0.65357625, 0.054094177, 0.3433233, -0.13270333, -0.5672663, 0.4066428, 0.5810487, -0.30341676, 0.2420629, -0.18190382, 0.3098264, 0.3500777, -0.6408042, -0.39540148, -0.12435479, -0.22072557, -0.16930804, 0.059990566, -1.0908617, -0.5909281, 0.65348285, 0.26759818, 0.60569, -0.5179819, 0.73618555, -0.36231256, -0.71669126, -0.59396076}, {-0.15744522, -0.44721588, 0.4745902, 0.38460717, -0.023148777, 0.08661737, -0.18073462, -0.1147538, -0.29258245, -0.0008899389, 0.13785613, -0.2112127, -0.014221651, 0.012067862, -0.09087633, 0.15363218, -0.61608964, -0.2926135, 0.36013263, 0.0765274, -0.24134327, -0.061812107, -0.3973829, -0.21504708, 0.09293521, -0.2342024, 0.09982456, 0.2643019, 0.17751513, -0.18704334, 0.13844359, -0.16222164}, {0.27167284, 0.15746379, -0.0047481265, 0.33166516, -0.17895895, 0.25583258, -0.52922493, -0.25621563, -0.004665525, -0.262811, 0.3446195, -0.21246795, 0.0652251, -0.24236162, 0.077892736, 0.34945554, -0.29346076, -0.44711676, 0.35332352, -0.058412097, 0.13743763, 0.014135485, -0.18477517, -0.48132685, 0.083548285, -0.106983446, 0.011627939, 0.003625644, -0.0042982157, -0.34592554, 0.13963583, 0.1999014}, {-0.04751028, -0.05045158, 0.25676444, 0.21661857, -0.24291193, 0.21527612, -0.08599522, -0.3133994, 0.22351135, -0.489149, 0.13248941, -0.23898458, 0.114562996, -0.066318214, 0.41470107, 0.237582, -0.015341047, -0.36427397, 0.23524687, 0.24876766, -0.18042274, 0.25734422, -0.22478311, -0.5059672, 0.19753592, -0.347761, 0.0695523, 0.32640833, -0.052163064, 0.31737036, 0.23083885, 0.06468545}, {-0.12058067, 0.022528544, 0.24055833, 0.08679401, -0.2326083, 0.5255439, 0.088435315, -0.2856082, 0.23666699, -0.48717138, 0.14778475, -0.041482635, 0.13946258, 0.10261855, 0.32547647, 0.17916167, 0.1527176, 0.11271745, -0.20055689, 0.4819988, -0.07895789, 0.3951325, 0.021636557, 0.4657867, -0.11258679, -0.55547637, 0.30107725, 0.089829385, -0.011680881, 0.065757744, -0.13581268, -0.09822475}, {-0.22834434, -0.26802415, 0.2792562, 0.161311, 0.09559154, 0.3300048, -0.096952714, 0.029483164, 0.535561, -0.040245097, 0.43596, 0.3756751, 0.14313914, 0.15332846, 0.5526179, 0.23069385, -0.21516585, -0.0075353463, -0.1764512, 0.1763584, 0.37224558, -0.8538405, -0.09988647, 0.32061878, -0.22906463, 0.07088633, 0.1335906, 0.3388586, -0.39798215, 0.02467536, -0.052855432, -0.25266686}, {0.02369653, 0.078831196, 0.10325248, 0.26388428, 0.20814642, 0.085875094, -0.26093143, -0.33969367, 0.34269077, -0.033391215, -0.11936427, 0.15131736, -0.04459542, 0.12913106, 0.3408764, 0.21749456, -0.40897375, 0.027690439, 0.0730456, 0.077130735, 0.15329133, -0.6174179, -0.5063824, -0.06290068, -0.08127118, -0.30309406, 0.0344163, 0.3171881, 0.08135923, 0.09442927, 0.037938606, -0.08172061}, {0.13025229, 0.14795358, 0.3096843, 0.16106701, 0.06294031, 0.16800061, -0.38534158, -0.30415303, 0.36176637, -0.1343945, 0.096819334, -0.11992555, 0.33572614, -0.18697931, 0.419153, 0.39594284, -0.4656021, 0.004768428, 0.24379946, -0.027964847, 0.06556443, -0.07431839, -0.056102056, -0.37105727, -0.21758132, -0.08927815, -0.63698775, 0.24370106, 0.35344338, 0.029222665, -0.07995656, 0.0075527164}, {-0.31676853, 0.18379332, 0.55116534, 0.055142302, -0.16215812, 0.03525527, -0.46785453, -0.120584555, 0.39774042, -0.083135754, 0.078396685, -0.15021107, 0.10131165, -0.42958716, -0.10987261, 0.16260359, -0.43293008, -0.2869871, 0.0028562783, 0.22532116, -0.11356951, -0.058883365, -0.1442235, -0.6696061, -0.036129512, -0.5969082, -0.8375293, 0.4707727, 0.17418712, -0.15060495, -0.14240356, -0.055824377}, {-0.4937474, -0.17618035, 0.5930008, 0.47821435, -0.826267, 0.70385283, 0.13263631, -0.04290395, 0.040712263, -0.5727271, -0.28784746, -0.2075148, -0.24939777, 0.033547185, -0.16812858, -0.00113112, 0.19640729, -0.1938501, 0.5203859, -0.0012975952, 0.69960797, 0.17416014, -0.5957486, -0.23245098, 0.07415444, -0.3865669, -0.4409658, 0.49356198, 0.4651602, -0.73563105, -0.2021156, 0.2199871}, {-0.48570368, 0.4710621, 0.6830975, 0.013768083, 0.6010307, -0.49760753, 0.4083976, 0.35929617, -0.56210256, 0.49835923, 0.2916048, 0.18904325, 0.24432997, -0.3452818, 0.32181758, 0.3448461, -0.4881179, -0.51650965, -0.123079136, -0.1524998, -0.32559112, 0.35120535, -0.8797686, -0.6562242, 0.49458623, 0.7625654, 0.76608825, -0.7699229, 0.67040974, -0.18179627, -0.82026535, -0.43627214}, {-0.39435565, -0.0723759, 0.64634407, 0.39741227, 0.11167526, 0.16202629, 0.4065889, 0.07773715, -0.38689986, 0.4757335, 0.28031477, -0.17000355, -0.14549594, -0.113409124, 0.08865545, -0.120529495, -0.30848664, -0.29496384, 0.23130372, -0.4247929, -0.0025962992, 0.5778691, -0.48328683, -0.18227221, 0.03763823, 0.29028624, 0.138644, -0.4179025, 0.3229749, -0.12382709, -0.3024772, 0.12745467}, {-0.04661466, -0.30707657, 0.27123216, 0.2553215, -0.05475162, 0.0762353, 0.20890376, -0.041734483, -0.1588727, 0.2155093, -0.08257785, -0.07172612, -0.12988754, -0.11358517, -0.15570736, -0.100285865, 0.13069858, -0.35000807, 0.3986517, 0.051666286, 0.034533568, 0.28654832, 0.32679027, -0.13530451, 0.061034415, 0.40926886, 0.016269803, -0.019749606, -0.02772109, -0.14780828, 0.2517781, 0.06976944}, {0.1789265, 0.04374166, 0.19554664, 0.11043884, 0.24339315, 0.2684351, 0.10576443, -0.11085948, 0.0071658758, 0.0614971, -0.11137324, 0.037036244, 0.27057981, 0.060701437, 0.16899958, 0.0088211335, -0.09522568, -0.13332833, 0.41046086, 0.2670814, -0.28420016, 0.02371918, 0.42615873, -0.3766513, 0.034589943, 0.16491139, 0.0970321, 0.0056086965, 0.063374296, -0.06944469, 0.2802751, 0.021737253}, {0.2722841, 0.21544681, 0.1867468, 0.0844772, 0.09381866, 0.23982525, 0.098275855, -0.1183346, -0.16169581, 0.16207623, 0.2727646, -0.21209767, 0.32739776, -0.23286705, 0.08900571, 0.046284527, 0.002747209, 0.005715739, 0.2965873, 0.37813735, -0.12636538, -0.006960407, 0.32970253, -0.25848278, 0.18916011, -0.014629482, -0.070148945, 0.13872886, -0.021373337, 0.02736158, 0.015643407, -0.022176757}, {0.23320721, 0.38972896, 0.23408103, 0.04500622, -0.025069091, 0.07821914, 0.21921821, -0.38416362, 0.17924283, 0.29209828, 0.060882982, -0.16751449, 0.22367167, -0.17162447, 0.016822862, 0.073493525, 0.16170162, -0.14355709, 0.09350428, 0.16320972, 0.13134131, -0.44526646, 0.42737046, 0.04271596, 0.29886565, 0.066722415, 0.05759752, -0.292903, -0.114592284, 0.17621745, 0.25983506, -0.098937936}, {-0.17249843, 0.37056538, 0.326185, 0.17439547, 0.22298111, -0.044719007, -0.10314563, -0.3572668, 0.13424829, 0.10408984, 0.014836432, 0.3369554, 0.02774091, -0.2022995, -0.07521566, 0.24211259, -0.027061952, 0.024487883, 0.061211005, 0.3029418, 0.42325002, -0.8638718, 0.13012603, -0.004560097, 0.39278486, 0.18612133, -0.4065789, 0.16399968, -0.12328371, 0.01923164, -0.010839081, -0.08347271}, {0.10023715, 0.20782012, 0.22370559, -0.067189045, -0.18872967, -0.07144046, -0.18381964, -0.18015763, -0.15482244, 0.2649722, -0.5244367, 0.12313526, 0.036396675, -0.17212355, -0.3014494, 0.41303888, -0.18957871, -0.2528518, 0.06863966, 0.120906115, 0.18830986, -0.086534075, 0.18590325, -0.1260583, -0.16182545, 0.30919096, -0.88448954, 0.54016775, 0.100677386, -0.36095572, 0.22199625, -0.0063076015}, {-0.07487846, 0.018092593, 0.2276624, 0.25749794, 0.036792886, -0.040348206, -0.27780268, -0.13527645, -0.24579015, -0.02938098, -0.3021374, 0.07097928, 0.535789, -0.07311403, -0.2806285, 0.27951893, -0.24431644, 0.009726993, 0.4389715, 0.21385731, 0.26015398, 0.2505809, 0.07257673, -0.256559, 0.19822873, 0.43042332, -0.45768595, 0.49932003, 0.034654267, -0.6450485, -0.10342295, 0.018215274}, {-0.70517564, -0.3520741, 0.5795946, 0.5795788, -0.79984325, 0.63120425, -0.16349697, 0.24869789, -0.02140324, -0.3714488, -0.45146355, 0.12519433, -0.45003718, 0.2788141, -0.2728194, 0.27780342, -0.04305647, -0.48139736, 0.83274686, 0.08741713, 0.42165488, -0.13515295, -0.27173576, -0.22800548, 0.18943353, -0.46491292, -0.61624247, 0.7157612, 0.6089283, -0.7023199, -0.017715102, 0.16594629}, {-0.23416129, -0.46090344, -0.058666486, -0.092519835, 0.87458336, -0.4867598, 0.3801209, 0.39407796, -0.35385, 0.5965944, 0.3875529, -0.13420618, 0.29995418, -0.33734587, 0.18690875, -0.22468087, -0.030574255, 0.007960054, 0.21964394, -0.4505277, 0.006961707, 0.2843917, -0.034078818, -0.33935818, 0.74001974, 0.4360985, 0.6245201, -0.47533152, 0.109250285, -0.32450712, -0.1858943, 0.22818281}, {-0.04107716, -0.13338543, -0.4659312, -0.45139492, 0.5789561, -0.41820264, 0.36620027, 0.46621472, -0.3825996, 0.700238, 0.059481237, 0.16964215, 0.44852978, 0.12304698, 0.339687, -0.27965614, 0.20790045, -0.05795726, 0.15491213, -0.2166161, -0.37090448, 0.32110086, 0.07282147, -0.38166413, 0.59768, 0.39742413, 0.7038971, -0.44622776, 0.1937128, -0.4747195, 0.07659578, 0.25847238}, {-0.07389885, -0.5440497, -0.17564099, -0.015685724, 0.64106303, -0.7257727, 0.11399222, 0.3858086, -0.13636483, 0.55681384, 0.15481924, 0.013821305, 0.48523843, 0.095346935, 0.38235602, -0.5463388, -0.036111042, 0.34318614, 0.4355219, -0.2608701, -0.07988046, 0.286068, -0.13746522, -0.19810016, 0.19325198, 0.52007043, 0.6362633, -0.49564093, 0.081271134, -0.34267524, -0.3137696, 0.3097342}, {-0.16224924, -0.29555994, 0.09173126, -0.19789495, 0.33130354, -0.3639937, 0.11635602, 0.07600619, -0.09130014, 0.34751374, 0.30357704, -0.23201065, 0.55439407, -0.12710997, 0.40379858, -0.39553457, -0.038152557, 0.2279234, 0.22469133, -0.27892467, -1.017624, 0.29116884, -0.57358384, -0.33791327, 0.17250767, 0.37134063, 0.41611582, -0.20202033, 0.037355006, -0.36723346, -0.41088337, 0.42788437}, {0.19209653, -0.08930752, 0.23014352, -0.12473383, 0.46878386, -0.3798925, 0.35410145, 0.3431846, -0.044186693, 0.31436265, 0.39999792, -0.3391382, 0.5331819, -0.0143326605, 0.6651531, -0.11416919, -0.16024652, 0.4037189, 0.15355533, -0.1474224, -0.56421334, 0.25387156, -0.28736869, -0.3552392, 0.26292232, 0.3163232, 0.33649433, -0.23584417, 0.021394886, -0.44969466, -0.7573543, 0.38345057}, {0.41228583, -0.30004683, 0.086813524, -0.34753305, 0.44157326, -0.22767556, 0.44832638, 0.043887604, -0.2266147, 0.636748, 0.6287298, -0.50923157, 0.52349436, 0.05539686, 0.56527346, -0.08885734, 0.20088081, 0.29358685, -0.022200521, -0.18472773, -0.44699013, -0.33787605, -0.12517798, -0.3004478, 0.16291471, 0.23027731, 0.279228, -0.27945706, -0.24233308, -0.5918293, -0.4026152, 0.28568488}, {0.54420567, -0.30136615, 0.22325005, -0.7526551, 0.51463383, -0.69196045, 0.50255996, -0.024842035, -0.21045588, 0.2384488, 0.71412045, -0.3519213, 0.6682971, 0.045671858, 0.6793989, -0.2845431, 0.07052642, 0.40975496, 0.2915015, -0.050490797, 0.047022745, -0.6547989, -0.22271857, -0.6243747, 0.18788454, 0.22993217, 0.0884656, -0.26643527, -0.556231, -0.5670021, -0.056270804, 0.09659661}, {0.48133284, -0.21353927, -0.106196664, -0.78741527, 0.41994947, -0.5948294, 0.26769984, 0.0938639, -0.2017119, 0.5566335, 0.545928, -0.22274192, 0.35343143, 0.06455668, 0.28272623, -0.26349238, 0.23257904, 0.4792722, 0.083583005, -0.31389102, 0.042232886, -0.28997982, -0.5826161, -0.35194346, 0.5706997, 0.72131675, -0.22072892, -0.39312595, -0.85159355, -0.4592726, -0.1263122, 0.56806344}, {0.33969778, 0.25237498, 0.36783, -0.4985739, 0.87071896, -0.5644489, 0.27305853, -0.22101928, -0.68273634, 0.78023165, 0.13171554, -0.20467691, 0.64244163, -0.043345883, -0.02938372, 0.11855786, 0.15945871, -0.0025688105, -0.23388062, 0.17679574, 0.041153833, 0.34446758, -0.23901977, 0.2299703, 0.3127858, 0.42564133, -0.6605587, -0.25500947, -0.5646216, -0.025713868, -0.43166986, -0.27975872}, {-0.4012669, -0.39764097, 0.30250028, 0.22448559, -0.030859662, 0.2515348, -0.30412722, -0.004961689, -0.40002847, -0.1939311, -0.35804814, -0.05966054, 0.07504675, 0.15790653, 0.043303613, -0.098211244, -0.019482682, -0.15546013, -0.07116465, -0.2592276, 0.13524716, 0.19852929, -0.25899455, 0.113010876, 0.20520464, 0.3648276, -0.33052498, 0.39542544, -0.05178729, -0.32550797, -0.09334369, 0.22353323}};